digraph Tree {
node [shape=box, style="filled, rounded", color="black", fontname=helvetica] ;
edge [fontname=helvetica] ;
0 [label=<sporeprintcolor &le; 8.5<br/>entropy = 0.97<br/>samples = 2257<br/>value = [1359, 898]<br/>class = poisonous>, fillcolor="#e5813957"] ;
1 [label=<stalkcolorbelowring &le; 14.0<br/>entropy = 0.469<br/>samples = 629<br/>value = [63, 566]<br/>class = non-poisonous>, fillcolor="#399de5e3"] ;
0 -> 1 [labeldistance=2.5, labelangle=45, headlabel="True"] ;
2 [label=<stalkcolorabovering &le; 14.0<br/>entropy = 0.326<br/>samples = 336<br/>value = [20, 316]<br/>class = non-poisonous>, fillcolor="#399de5ef"] ;
1 -> 2 ;
3 [label=<capcolor &le; 15.0<br/>entropy = 0.201<br/>samples = 224<br/>value = [7, 217]<br/>class = non-poisonous>, fillcolor="#399de5f7"] ;
2 -> 3 ;
4 [label=<gillcolor &le; 6.5<br/>entropy = 0.305<br/>samples = 110<br/>value = [6, 104]<br/>class = non-poisonous>, fillcolor="#399de5f0"] ;
3 -> 4 ;
5 [label=<habitat &le; 4.5<br/>entropy = 0.172<br/>samples = 39<br/>value = [1, 38]<br/>class = non-poisonous>, fillcolor="#399de5f8"] ;
4 -> 5 ;
6 [label=<stalkcolorbelowring &le; 7.0<br/>entropy = 0.414<br/>samples = 12<br/>value = [1, 11]<br/>class = non-poisonous>, fillcolor="#399de5e8"] ;
5 -> 6 ;
7 [label=<entropy = 0.0<br/>samples = 7<br/>value = [0, 7]<br/>class = non-poisonous>, fillcolor="#399de5ff"] ;
6 -> 7 ;
8 [label=<capsurface &le; 14.5<br/>entropy = 0.722<br/>samples = 5<br/>value = [1, 4]<br/>class = non-poisonous>, fillcolor="#399de5bf"] ;
6 -> 8 ;
9 [label=<capshape &le; 14.0<br/>entropy = 0.918<br/>samples = 3<br/>value = [1, 2]<br/>class = non-poisonous>, fillcolor="#399de57f"] ;
8 -> 9 ;
10 [label=<entropy = 0.0<br/>samples = 1<br/>value = [1, 0]<br/>class = poisonous>, fillcolor="#e58139ff"] ;
9 -> 10 ;
11 [label=<entropy = 0.0<br/>samples = 2<br/>value = [0, 2]<br/>class = non-poisonous>, fillcolor="#399de5ff"] ;
9 -> 11 ;
12 [label=<entropy = 0.0<br/>samples = 2<br/>value = [0, 2]<br/>class = non-poisonous>, fillcolor="#399de5ff"] ;
8 -> 12 ;
13 [label=<entropy = 0.0<br/>samples = 27<br/>value = [0, 27]<br/>class = non-poisonous>, fillcolor="#399de5ff"] ;
5 -> 13 ;
14 [label=<habitat &le; 4.5<br/>entropy = 0.367<br/>samples = 71<br/>value = [5, 66]<br/>class = non-poisonous>, fillcolor="#399de5ec"] ;
4 -> 14 ;
15 [label=<entropy = 0.0<br/>samples = 22<br/>value = [0, 22]<br/>class = non-poisonous>, fillcolor="#399de5ff"] ;
14 -> 15 ;
16 [label=<stalkcolorabovering &le; 7.0<br/>entropy = 0.475<br/>samples = 49<br/>value = [5, 44]<br/>class = non-poisonous>, fillcolor="#399de5e2"] ;
14 -> 16 ;
17 [label=<stalkcolorbelowring &le; 7.0<br/>entropy = 0.235<br/>samples = 26<br/>value = [1, 25]<br/>class = non-poisonous>, fillcolor="#399de5f5"] ;
16 -> 17 ;
18 [label=<population &le; 22.5<br/>entropy = 0.414<br/>samples = 12<br/>value = [1, 11]<br/>class = non-poisonous>, fillcolor="#399de5e8"] ;
17 -> 18 ;
19 [label=<entropy = 0.0<br/>samples = 7<br/>value = [0, 7]<br/>class = non-poisonous>, fillcolor="#399de5ff"] ;
18 -> 19 ;
20 [label=<capsurface &le; 14.5<br/>entropy = 0.722<br/>samples = 5<br/>value = [1, 4]<br/>class = non-poisonous>, fillcolor="#399de5bf"] ;
18 -> 20 ;
21 [label=<entropy = 0.0<br/>samples = 2<br/>value = [0, 2]<br/>class = non-poisonous>, fillcolor="#399de5ff"] ;
20 -> 21 ;
22 [label=<habitat &le; 10.5<br/>entropy = 0.918<br/>samples = 3<br/>value = [1, 2]<br/>class = non-poisonous>, fillcolor="#399de57f"] ;
20 -> 22 ;
23 [label=<entropy = 0.0<br/>samples = 1<br/>value = [0, 1]<br/>class = non-poisonous>, fillcolor="#399de5ff"] ;
22 -> 23 ;
24 [label=<capshape &le; 14.0<br/>entropy = 1.0<br/>samples = 2<br/>value = [1, 1]<br/>class = poisonous>, fillcolor="#e5813900"] ;
22 -> 24 ;
25 [label=<entropy = 0.0<br/>samples = 1<br/>value = [0, 1]<br/>class = non-poisonous>, fillcolor="#399de5ff"] ;
24 -> 25 ;
26 [label=<entropy = 0.0<br/>samples = 1<br/>value = [1, 0]<br/>class = poisonous>, fillcolor="#e58139ff"] ;
24 -> 26 ;
27 [label=<entropy = 0.0<br/>samples = 14<br/>value = [0, 14]<br/>class = non-poisonous>, fillcolor="#399de5ff"] ;
17 -> 27 ;
28 [label=<population &le; 22.5<br/>entropy = 0.667<br/>samples = 23<br/>value = [4, 19]<br/>class = non-poisonous>, fillcolor="#399de5c9"] ;
16 -> 28 ;
29 [label=<capshape &le; 14.0<br/>entropy = 0.918<br/>samples = 12<br/>value = [4, 8]<br/>class = non-poisonous>, fillcolor="#399de57f"] ;
28 -> 29 ;
30 [label=<gillcolor &le; 11.0<br/>entropy = 1.0<br/>samples = 4<br/>value = [2, 2]<br/>class = poisonous>, fillcolor="#e5813900"] ;
29 -> 30 ;
31 [label=<stalkcolorbelowring &le; 7.0<br/>entropy = 0.918<br/>samples = 3<br/>value = [2, 1]<br/>class = poisonous>, fillcolor="#e581397f"] ;
30 -> 31 ;
32 [label=<entropy = 0.0<br/>samples = 1<br/>value = [1, 0]<br/>class = poisonous>, fillcolor="#e58139ff"] ;
31 -> 32 ;
33 [label=<habitat &le; 10.5<br/>entropy = 1.0<br/>samples = 2<br/>value = [1, 1]<br/>class = poisonous>, fillcolor="#e5813900"] ;
31 -> 33 ;
34 [label=<entropy = 0.0<br/>samples = 1<br/>value = [0, 1]<br/>class = non-poisonous>, fillcolor="#399de5ff"] ;
33 -> 34 ;
35 [label=<entropy = 0.0<br/>samples = 1<br/>value = [1, 0]<br/>class = poisonous>, fillcolor="#e58139ff"] ;
33 -> 35 ;
36 [label=<entropy = 0.0<br/>samples = 1<br/>value = [0, 1]<br/>class = non-poisonous>, fillcolor="#399de5ff"] ;
30 -> 36 ;
37 [label=<stalkcolorbelowring &le; 7.0<br/>entropy = 0.811<br/>samples = 8<br/>value = [2, 6]<br/>class = non-poisonous>, fillcolor="#399de5aa"] ;
29 -> 37 ;
38 [label=<entropy = 0.0<br/>samples = 3<br/>value = [0, 3]<br/>class = non-poisonous>, fillcolor="#399de5ff"] ;
37 -> 38 ;
39 [label=<capsurface &le; 14.5<br/>entropy = 0.971<br/>samples = 5<br/>value = [2, 3]<br/>class = non-poisonous>, fillcolor="#399de555"] ;
37 -> 39 ;
40 [label=<entropy = 0.0<br/>samples = 2<br/>value = [0, 2]<br/>class = non-poisonous>, fillcolor="#399de5ff"] ;
39 -> 40 ;
41 [label=<habitat &le; 10.5<br/>entropy = 0.918<br/>samples = 3<br/>value = [2, 1]<br/>class = poisonous>, fillcolor="#e581397f"] ;
39 -> 41 ;
42 [label=<gillcolor &le; 11.0<br/>entropy = 1.0<br/>samples = 2<br/>value = [1, 1]<br/>class = poisonous>, fillcolor="#e5813900"] ;
41 -> 42 ;
43 [label=<entropy = 0.0<br/>samples = 1<br/>value = [0, 1]<br/>class = non-poisonous>, fillcolor="#399de5ff"] ;
42 -> 43 ;
44 [label=<entropy = 0.0<br/>samples = 1<br/>value = [1, 0]<br/>class = poisonous>, fillcolor="#e58139ff"] ;
42 -> 44 ;
45 [label=<entropy = 0.0<br/>samples = 1<br/>value = [1, 0]<br/>class = poisonous>, fillcolor="#e58139ff"] ;
41 -> 45 ;
46 [label=<entropy = 0.0<br/>samples = 11<br/>value = [0, 11]<br/>class = non-poisonous>, fillcolor="#399de5ff"] ;
28 -> 46 ;
47 [label=<habitat &le; 10.5<br/>entropy = 0.073<br/>samples = 114<br/>value = [1, 113]<br/>class = non-poisonous>, fillcolor="#399de5fd"] ;
3 -> 47 ;
48 [label=<entropy = 0.0<br/>samples = 73<br/>value = [0, 73]<br/>class = non-poisonous>, fillcolor="#399de5ff"] ;
47 -> 48 ;
49 [label=<gillcolor &le; 11.0<br/>entropy = 0.165<br/>samples = 41<br/>value = [1, 40]<br/>class = non-poisonous>, fillcolor="#399de5f9"] ;
47 -> 49 ;
50 [label=<entropy = 0.0<br/>samples = 25<br/>value = [0, 25]<br/>class = non-poisonous>, fillcolor="#399de5ff"] ;
49 -> 50 ;
51 [label=<population &le; 22.5<br/>entropy = 0.337<br/>samples = 16<br/>value = [1, 15]<br/>class = non-poisonous>, fillcolor="#399de5ee"] ;
49 -> 51 ;
52 [label=<stalkcolorabovering &le; 7.0<br/>entropy = 0.65<br/>samples = 6<br/>value = [1, 5]<br/>class = non-poisonous>, fillcolor="#399de5cc"] ;
51 -> 52 ;
53 [label=<capshape &le; 14.0<br/>entropy = 0.918<br/>samples = 3<br/>value = [1, 2]<br/>class = non-poisonous>, fillcolor="#399de57f"] ;
52 -> 53 ;
54 [label=<entropy = 0.0<br/>samples = 1<br/>value = [0, 1]<br/>class = non-poisonous>, fillcolor="#399de5ff"] ;
53 -> 54 ;
55 [label=<stalkcolorbelowring &le; 7.0<br/>entropy = 1.0<br/>samples = 2<br/>value = [1, 1]<br/>class = poisonous>, fillcolor="#e5813900"] ;
53 -> 55 ;
56 [label=<entropy = 0.0<br/>samples = 1<br/>value = [0, 1]<br/>class = non-poisonous>, fillcolor="#399de5ff"] ;
55 -> 56 ;
57 [label=<entropy = 0.0<br/>samples = 1<br/>value = [1, 0]<br/>class = poisonous>, fillcolor="#e58139ff"] ;
55 -> 57 ;
58 [label=<entropy = 0.0<br/>samples = 3<br/>value = [0, 3]<br/>class = non-poisonous>, fillcolor="#399de5ff"] ;
52 -> 58 ;
59 [label=<entropy = 0.0<br/>samples = 10<br/>value = [0, 10]<br/>class = non-poisonous>, fillcolor="#399de5ff"] ;
51 -> 59 ;
60 [label=<capcolor &le; 15.0<br/>entropy = 0.518<br/>samples = 112<br/>value = [13, 99]<br/>class = non-poisonous>, fillcolor="#399de5de"] ;
2 -> 60 ;
61 [label=<capshape &le; 14.0<br/>entropy = 0.705<br/>samples = 47<br/>value = [9, 38]<br/>class = non-poisonous>, fillcolor="#399de5c3"] ;
60 -> 61 ;
62 [label=<population &le; 22.5<br/>entropy = 0.391<br/>samples = 26<br/>value = [2, 24]<br/>class = non-poisonous>, fillcolor="#399de5ea"] ;
61 -> 62 ;
63 [label=<entropy = 0.0<br/>samples = 14<br/>value = [0, 14]<br/>class = non-poisonous>, fillcolor="#399de5ff"] ;
62 -> 63 ;
64 [label=<capsurface &le; 14.5<br/>entropy = 0.65<br/>samples = 12<br/>value = [2, 10]<br/>class = non-poisonous>, fillcolor="#399de5cc"] ;
62 -> 64 ;
65 [label=<gillcolor &le; 6.5<br/>entropy = 0.863<br/>samples = 7<br/>value = [2, 5]<br/>class = non-poisonous>, fillcolor="#399de599"] ;
64 -> 65 ;
66 [label=<entropy = 0.0<br/>samples = 3<br/>value = [0, 3]<br/>class = non-poisonous>, fillcolor="#399de5ff"] ;
65 -> 66 ;
67 [label=<stalkcolorbelowring &le; 7.0<br/>entropy = 1.0<br/>samples = 4<br/>value = [2, 2]<br/>class = poisonous>, fillcolor="#e5813900"] ;
65 -> 67 ;
68 [label=<entropy = 0.0<br/>samples = 2<br/>value = [2, 0]<br/>class = poisonous>, fillcolor="#e58139ff"] ;
67 -> 68 ;
69 [label=<entropy = 0.0<br/>samples = 2<br/>value = [0, 2]<br/>class = non-poisonous>, fillcolor="#399de5ff"] ;
67 -> 69 ;
70 [label=<entropy = 0.0<br/>samples = 5<br/>value = [0, 5]<br/>class = non-poisonous>, fillcolor="#399de5ff"] ;
64 -> 70 ;
71 [label=<gillcolor &le; 11.0<br/>entropy = 0.918<br/>samples = 21<br/>value = [7, 14]<br/>class = non-poisonous>, fillcolor="#399de57f"] ;
61 -> 71 ;
72 [label=<habitat &le; 10.5<br/>entropy = 0.971<br/>samples = 15<br/>value = [6, 9]<br/>class = non-poisonous>, fillcolor="#399de555"] ;
71 -> 72 ;
73 [label=<capsurface &le; 14.5<br/>entropy = 0.918<br/>samples = 9<br/>value = [3, 6]<br/>class = non-poisonous>, fillcolor="#399de57f"] ;
72 -> 73 ;
74 [label=<gillcolor &le; 6.5<br/>entropy = 0.918<br/>samples = 3<br/>value = [2, 1]<br/>class = poisonous>, fillcolor="#e581397f"] ;
73 -> 74 ;
75 [label=<entropy = 0.0<br/>samples = 2<br/>value = [2, 0]<br/>class = poisonous>, fillcolor="#e58139ff"] ;
74 -> 75 ;
76 [label=<entropy = 0.0<br/>samples = 1<br/>value = [0, 1]<br/>class = non-poisonous>, fillcolor="#399de5ff"] ;
74 -> 76 ;
77 [label=<population &le; 22.5<br/>entropy = 0.65<br/>samples = 6<br/>value = [1, 5]<br/>class = non-poisonous>, fillcolor="#399de5cc"] ;
73 -> 77 ;
78 [label=<habitat &le; 4.5<br/>entropy = 0.918<br/>samples = 3<br/>value = [1, 2]<br/>class = non-poisonous>, fillcolor="#399de57f"] ;
77 -> 78 ;
79 [label=<entropy = 0.0<br/>samples = 1<br/>value = [1, 0]<br/>class = poisonous>, fillcolor="#e58139ff"] ;
78 -> 79 ;
80 [label=<entropy = 0.0<br/>samples = 2<br/>value = [0, 2]<br/>class = non-poisonous>, fillcolor="#399de5ff"] ;
78 -> 80 ;
81 [label=<entropy = 0.0<br/>samples = 3<br/>value = [0, 3]<br/>class = non-poisonous>, fillcolor="#399de5ff"] ;
77 -> 81 ;
82 [label=<capsurface &le; 14.5<br/>entropy = 1.0<br/>samples = 6<br/>value = [3, 3]<br/>class = poisonous>, fillcolor="#e5813900"] ;
72 -> 82 ;
83 [label=<entropy = 0.0<br/>samples = 2<br/>value = [0, 2]<br/>class = non-poisonous>, fillcolor="#399de5ff"] ;
82 -> 83 ;
84 [label=<population &le; 22.5<br/>entropy = 0.811<br/>samples = 4<br/>value = [3, 1]<br/>class = poisonous>, fillcolor="#e58139aa"] ;
82 -> 84 ;
85 [label=<stalkcolorbelowring &le; 7.0<br/>entropy = 1.0<br/>samples = 2<br/>value = [1, 1]<br/>class = poisonous>, fillcolor="#e5813900"] ;
84 -> 85 ;
86 [label=<entropy = 0.0<br/>samples = 1<br/>value = [1, 0]<br/>class = poisonous>, fillcolor="#e58139ff"] ;
85 -> 86 ;
87 [label=<entropy = 0.0<br/>samples = 1<br/>value = [0, 1]<br/>class = non-poisonous>, fillcolor="#399de5ff"] ;
85 -> 87 ;
88 [label=<entropy = 0.0<br/>samples = 2<br/>value = [2, 0]<br/>class = poisonous>, fillcolor="#e58139ff"] ;
84 -> 88 ;
89 [label=<stalkcolorbelowring &le; 7.0<br/>entropy = 0.65<br/>samples = 6<br/>value = [1, 5]<br/>class = non-poisonous>, fillcolor="#399de5cc"] ;
71 -> 89 ;
90 [label=<entropy = 0.0<br/>samples = 4<br/>value = [0, 4]<br/>class = non-poisonous>, fillcolor="#399de5ff"] ;
89 -> 90 ;
91 [label=<habitat &le; 10.5<br/>entropy = 1.0<br/>samples = 2<br/>value = [1, 1]<br/>class = poisonous>, fillcolor="#e5813900"] ;
89 -> 91 ;
92 [label=<entropy = 0.0<br/>samples = 1<br/>value = [1, 0]<br/>class = poisonous>, fillcolor="#e58139ff"] ;
91 -> 92 ;
93 [label=<entropy = 0.0<br/>samples = 1<br/>value = [0, 1]<br/>class = non-poisonous>, fillcolor="#399de5ff"] ;
91 -> 93 ;
94 [label=<population &le; 22.5<br/>entropy = 0.334<br/>samples = 65<br/>value = [4, 61]<br/>class = non-poisonous>, fillcolor="#399de5ee"] ;
60 -> 94 ;
95 [label=<capsurface &le; 14.5<br/>entropy = 0.555<br/>samples = 31<br/>value = [4, 27]<br/>class = non-poisonous>, fillcolor="#399de5d9"] ;
94 -> 95 ;
96 [label=<entropy = 0.0<br/>samples = 13<br/>value = [0, 13]<br/>class = non-poisonous>, fillcolor="#399de5ff"] ;
95 -> 96 ;
97 [label=<stalkcolorbelowring &le; 7.0<br/>entropy = 0.764<br/>samples = 18<br/>value = [4, 14]<br/>class = non-poisonous>, fillcolor="#399de5b6"] ;
95 -> 97 ;
98 [label=<gillcolor &le; 11.0<br/>entropy = 0.954<br/>samples = 8<br/>value = [3, 5]<br/>class = non-poisonous>, fillcolor="#399de566"] ;
97 -> 98 ;
99 [label=<gillcolor &le; 6.5<br/>entropy = 0.863<br/>samples = 7<br/>value = [2, 5]<br/>class = non-poisonous>, fillcolor="#399de599"] ;
98 -> 99 ;
100 [label=<capshape &le; 14.0<br/>entropy = 0.918<br/>samples = 3<br/>value = [1, 2]<br/>class = non-poisonous>, fillcolor="#399de57f"] ;
99 -> 100 ;
101 [label=<entropy = 0.0<br/>samples = 1<br/>value = [1, 0]<br/>class = poisonous>, fillcolor="#e58139ff"] ;
100 -> 101 ;
102 [label=<entropy = 0.0<br/>samples = 2<br/>value = [0, 2]<br/>class = non-poisonous>, fillcolor="#399de5ff"] ;
100 -> 102 ;
103 [label=<capshape &le; 14.0<br/>entropy = 0.811<br/>samples = 4<br/>value = [1, 3]<br/>class = non-poisonous>, fillcolor="#399de5aa"] ;
99 -> 103 ;
104 [label=<entropy = 0.0<br/>samples = 2<br/>value = [0, 2]<br/>class = non-poisonous>, fillcolor="#399de5ff"] ;
103 -> 104 ;
105 [label=<habitat &le; 9.0<br/>entropy = 1.0<br/>samples = 2<br/>value = [1, 1]<br/>class = poisonous>, fillcolor="#e5813900"] ;
103 -> 105 ;
106 [label=<entropy = 0.0<br/>samples = 1<br/>value = [0, 1]<br/>class = non-poisonous>, fillcolor="#399de5ff"] ;
105 -> 106 ;
107 [label=<entropy = 0.0<br/>samples = 1<br/>value = [1, 0]<br/>class = poisonous>, fillcolor="#e58139ff"] ;
105 -> 107 ;
108 [label=<entropy = 0.0<br/>samples = 1<br/>value = [1, 0]<br/>class = poisonous>, fillcolor="#e58139ff"] ;
98 -> 108 ;
109 [label=<capshape &le; 14.0<br/>entropy = 0.469<br/>samples = 10<br/>value = [1, 9]<br/>class = non-poisonous>, fillcolor="#399de5e3"] ;
97 -> 109 ;
110 [label=<habitat &le; 10.5<br/>entropy = 0.811<br/>samples = 4<br/>value = [1, 3]<br/>class = non-poisonous>, fillcolor="#399de5aa"] ;
109 -> 110 ;
111 [label=<entropy = 0.0<br/>samples = 1<br/>value = [0, 1]<br/>class = non-poisonous>, fillcolor="#399de5ff"] ;
110 -> 111 ;
112 [label=<gillcolor &le; 6.5<br/>entropy = 0.918<br/>samples = 3<br/>value = [1, 2]<br/>class = non-poisonous>, fillcolor="#399de57f"] ;
110 -> 112 ;
113 [label=<entropy = 0.0<br/>samples = 1<br/>value = [0, 1]<br/>class = non-poisonous>, fillcolor="#399de5ff"] ;
112 -> 113 ;
114 [label=<gillcolor &le; 11.0<br/>entropy = 1.0<br/>samples = 2<br/>value = [1, 1]<br/>class = poisonous>, fillcolor="#e5813900"] ;
112 -> 114 ;
115 [label=<entropy = 0.0<br/>samples = 1<br/>value = [1, 0]<br/>class = poisonous>, fillcolor="#e58139ff"] ;
114 -> 115 ;
116 [label=<entropy = 0.0<br/>samples = 1<br/>value = [0, 1]<br/>class = non-poisonous>, fillcolor="#399de5ff"] ;
114 -> 116 ;
117 [label=<entropy = 0.0<br/>samples = 6<br/>value = [0, 6]<br/>class = non-poisonous>, fillcolor="#399de5ff"] ;
109 -> 117 ;
118 [label=<entropy = 0.0<br/>samples = 34<br/>value = [0, 34]<br/>class = non-poisonous>, fillcolor="#399de5ff"] ;
94 -> 118 ;
119 [label=<habitat &le; 10.5<br/>entropy = 0.602<br/>samples = 293<br/>value = [43, 250]<br/>class = non-poisonous>, fillcolor="#399de5d3"] ;
1 -> 119 ;
120 [label=<stalksurfaceabovering &le; 7.5<br/>entropy = 0.519<br/>samples = 172<br/>value = [20, 152]<br/>class = non-poisonous>, fillcolor="#399de5dd"] ;
119 -> 120 ;
121 [label=<population &le; 19.5<br/>entropy = 0.222<br/>samples = 28<br/>value = [1, 27]<br/>class = non-poisonous>, fillcolor="#399de5f6"] ;
120 -> 121 ;
122 [label=<entropy = 0.0<br/>samples = 17<br/>value = [0, 17]<br/>class = non-poisonous>, fillcolor="#399de5ff"] ;
121 -> 122 ;
123 [label=<capcolor &le; 3.5<br/>entropy = 0.439<br/>samples = 11<br/>value = [1, 10]<br/>class = non-poisonous>, fillcolor="#399de5e6"] ;
121 -> 123 ;
124 [label=<gillcolor &le; 18.5<br/>entropy = 0.811<br/>samples = 4<br/>value = [1, 3]<br/>class = non-poisonous>, fillcolor="#399de5aa"] ;
123 -> 124 ;
125 [label=<entropy = 0.0<br/>samples = 3<br/>value = [0, 3]<br/>class = non-poisonous>, fillcolor="#399de5ff"] ;
124 -> 125 ;
126 [label=<entropy = 0.0<br/>samples = 1<br/>value = [1, 0]<br/>class = poisonous>, fillcolor="#e58139ff"] ;
124 -> 126 ;
127 [label=<entropy = 0.0<br/>samples = 7<br/>value = [0, 7]<br/>class = non-poisonous>, fillcolor="#399de5ff"] ;
123 -> 127 ;
128 [label=<stalksurfacebelowring &le; 7.5<br/>entropy = 0.563<br/>samples = 144<br/>value = [19, 125]<br/>class = non-poisonous>, fillcolor="#399de5d8"] ;
120 -> 128 ;
129 [label=<gillcolor &le; 11.0<br/>entropy = 0.863<br/>samples = 14<br/>value = [4, 10]<br/>class = non-poisonous>, fillcolor="#399de599"] ;
128 -> 129 ;
130 [label=<entropy = 0.0<br/>samples = 3<br/>value = [0, 3]<br/>class = non-poisonous>, fillcolor="#399de5ff"] ;
129 -> 130 ;
131 [label=<population &le; 19.5<br/>entropy = 0.946<br/>samples = 11<br/>value = [4, 7]<br/>class = non-poisonous>, fillcolor="#399de56d"] ;
129 -> 131 ;
132 [label=<capcolor &le; 14.0<br/>entropy = 1.0<br/>samples = 6<br/>value = [3, 3]<br/>class = poisonous>, fillcolor="#e5813900"] ;
131 -> 132 ;
133 [label=<capshape &le; 14.0<br/>entropy = 0.971<br/>samples = 5<br/>value = [3, 2]<br/>class = poisonous>, fillcolor="#e5813955"] ;
132 -> 133 ;
134 [label=<capcolor &le; 3.5<br/>entropy = 1.0<br/>samples = 2<br/>value = [1, 1]<br/>class = poisonous>, fillcolor="#e5813900"] ;
133 -> 134 ;
135 [label=<entropy = 0.0<br/>samples = 1<br/>value = [0, 1]<br/>class = non-poisonous>, fillcolor="#399de5ff"] ;
134 -> 135 ;
136 [label=<entropy = 0.0<br/>samples = 1<br/>value = [1, 0]<br/>class = poisonous>, fillcolor="#e58139ff"] ;
134 -> 136 ;
137 [label=<capcolor &le; 3.5<br/>entropy = 0.918<br/>samples = 3<br/>value = [2, 1]<br/>class = poisonous>, fillcolor="#e581397f"] ;
133 -> 137 ;
138 [label=<entropy = 0.0<br/>samples = 1<br/>value = [1, 0]<br/>class = poisonous>, fillcolor="#e58139ff"] ;
137 -> 138 ;
139 [label=<gillcolor &le; 18.5<br/>entropy = 1.0<br/>samples = 2<br/>value = [1, 1]<br/>class = poisonous>, fillcolor="#e5813900"] ;
137 -> 139 ;
140 [label=<entropy = 0.0<br/>samples = 1<br/>value = [0, 1]<br/>class = non-poisonous>, fillcolor="#399de5ff"] ;
139 -> 140 ;
141 [label=<entropy = 0.0<br/>samples = 1<br/>value = [1, 0]<br/>class = poisonous>, fillcolor="#e58139ff"] ;
139 -> 141 ;
142 [label=<entropy = 0.0<br/>samples = 1<br/>value = [0, 1]<br/>class = non-poisonous>, fillcolor="#399de5ff"] ;
132 -> 142 ;
143 [label=<capcolor &le; 14.0<br/>entropy = 0.722<br/>samples = 5<br/>value = [1, 4]<br/>class = non-poisonous>, fillcolor="#399de5bf"] ;
131 -> 143 ;
144 [label=<entropy = 0.0<br/>samples = 3<br/>value = [0, 3]<br/>class = non-poisonous>, fillcolor="#399de5ff"] ;
143 -> 144 ;
145 [label=<capshape &le; 14.0<br/>entropy = 1.0<br/>samples = 2<br/>value = [1, 1]<br/>class = poisonous>, fillcolor="#e5813900"] ;
143 -> 145 ;
146 [label=<entropy = 0.0<br/>samples = 1<br/>value = [1, 0]<br/>class = poisonous>, fillcolor="#e58139ff"] ;
145 -> 146 ;
147 [label=<entropy = 0.0<br/>samples = 1<br/>value = [0, 1]<br/>class = non-poisonous>, fillcolor="#399de5ff"] ;
145 -> 147 ;
148 [label=<gillcolor &le; 18.5<br/>entropy = 0.516<br/>samples = 130<br/>value = [15, 115]<br/>class = non-poisonous>, fillcolor="#399de5de"] ;
128 -> 148 ;
149 [label=<stalkcolorabovering &le; 14.0<br/>entropy = 0.532<br/>samples = 124<br/>value = [15, 109]<br/>class = non-poisonous>, fillcolor="#399de5dc"] ;
148 -> 149 ;
150 [label=<capcolor &le; 15.0<br/>entropy = 0.461<br/>samples = 82<br/>value = [8, 74]<br/>class = non-poisonous>, fillcolor="#399de5e3"] ;
149 -> 150 ;
151 [label=<gillcolor &le; 11.0<br/>entropy = 0.562<br/>samples = 38<br/>value = [5, 33]<br/>class = non-poisonous>, fillcolor="#399de5d8"] ;
150 -> 151 ;
152 [label=<habitat &le; 4.5<br/>entropy = 0.491<br/>samples = 28<br/>value = [3, 25]<br/>class = non-poisonous>, fillcolor="#399de5e0"] ;
151 -> 152 ;
153 [label=<gillcolor &le; 6.5<br/>entropy = 0.353<br/>samples = 15<br/>value = [1, 14]<br/>class = non-poisonous>, fillcolor="#399de5ed"] ;
152 -> 153 ;
154 [label=<stalkcolorabovering &le; 7.0<br/>entropy = 0.592<br/>samples = 7<br/>value = [1, 6]<br/>class = non-poisonous>, fillcolor="#399de5d4"] ;
153 -> 154 ;
155 [label=<entropy = 0.0<br/>samples = 4<br/>value = [0, 4]<br/>class = non-poisonous>, fillcolor="#399de5ff"] ;
154 -> 155 ;
156 [label=<population &le; 22.5<br/>entropy = 0.918<br/>samples = 3<br/>value = [1, 2]<br/>class = non-poisonous>, fillcolor="#399de57f"] ;
154 -> 156 ;
157 [label=<entropy = 0.0<br/>samples = 2<br/>value = [0, 2]<br/>class = non-poisonous>, fillcolor="#399de5ff"] ;
156 -> 157 ;
158 [label=<entropy = 0.0<br/>samples = 1<br/>value = [1, 0]<br/>class = poisonous>, fillcolor="#e58139ff"] ;
156 -> 158 ;
159 [label=<entropy = 0.0<br/>samples = 8<br/>value = [0, 8]<br/>class = non-poisonous>, fillcolor="#399de5ff"] ;
153 -> 159 ;
160 [label=<capshape &le; 14.0<br/>entropy = 0.619<br/>samples = 13<br/>value = [2, 11]<br/>class = non-poisonous>, fillcolor="#399de5d1"] ;
152 -> 160 ;
161 [label=<entropy = 0.0<br/>samples = 6<br/>value = [0, 6]<br/>class = non-poisonous>, fillcolor="#399de5ff"] ;
160 -> 161 ;
162 [label=<gillcolor &le; 6.5<br/>entropy = 0.863<br/>samples = 7<br/>value = [2, 5]<br/>class = non-poisonous>, fillcolor="#399de599"] ;
160 -> 162 ;
163 [label=<entropy = 0.0<br/>samples = 2<br/>value = [0, 2]<br/>class = non-poisonous>, fillcolor="#399de5ff"] ;
162 -> 163 ;
164 [label=<population &le; 22.5<br/>entropy = 0.971<br/>samples = 5<br/>value = [2, 3]<br/>class = non-poisonous>, fillcolor="#399de555"] ;
162 -> 164 ;
165 [label=<capsurface &le; 14.5<br/>entropy = 1.0<br/>samples = 2<br/>value = [1, 1]<br/>class = poisonous>, fillcolor="#e5813900"] ;
164 -> 165 ;
166 [label=<entropy = 0.0<br/>samples = 1<br/>value = [1, 0]<br/>class = poisonous>, fillcolor="#e58139ff"] ;
165 -> 166 ;
167 [label=<entropy = 0.0<br/>samples = 1<br/>value = [0, 1]<br/>class = non-poisonous>, fillcolor="#399de5ff"] ;
165 -> 167 ;
168 [label=<stalkcolorabovering &le; 7.0<br/>entropy = 0.918<br/>samples = 3<br/>value = [1, 2]<br/>class = non-poisonous>, fillcolor="#399de57f"] ;
164 -> 168 ;
169 [label=<entropy = 0.0<br/>samples = 2<br/>value = [0, 2]<br/>class = non-poisonous>, fillcolor="#399de5ff"] ;
168 -> 169 ;
170 [label=<entropy = 0.0<br/>samples = 1<br/>value = [1, 0]<br/>class = poisonous>, fillcolor="#e58139ff"] ;
168 -> 170 ;
171 [label=<stalkcolorabovering &le; 7.0<br/>entropy = 0.722<br/>samples = 10<br/>value = [2, 8]<br/>class = non-poisonous>, fillcolor="#399de5bf"] ;
151 -> 171 ;
172 [label=<capshape &le; 14.0<br/>entropy = 0.811<br/>samples = 8<br/>value = [2, 6]<br/>class = non-poisonous>, fillcolor="#399de5aa"] ;
171 -> 172 ;
173 [label=<population &le; 22.5<br/>entropy = 0.918<br/>samples = 3<br/>value = [1, 2]<br/>class = non-poisonous>, fillcolor="#399de57f"] ;
172 -> 173 ;
174 [label=<entropy = 0.0<br/>samples = 1<br/>value = [1, 0]<br/>class = poisonous>, fillcolor="#e58139ff"] ;
173 -> 174 ;
175 [label=<entropy = 0.0<br/>samples = 2<br/>value = [0, 2]<br/>class = non-poisonous>, fillcolor="#399de5ff"] ;
173 -> 175 ;
176 [label=<population &le; 22.5<br/>entropy = 0.722<br/>samples = 5<br/>value = [1, 4]<br/>class = non-poisonous>, fillcolor="#399de5bf"] ;
172 -> 176 ;
177 [label=<entropy = 0.0<br/>samples = 3<br/>value = [0, 3]<br/>class = non-poisonous>, fillcolor="#399de5ff"] ;
176 -> 177 ;
178 [label=<habitat &le; 4.5<br/>entropy = 1.0<br/>samples = 2<br/>value = [1, 1]<br/>class = poisonous>, fillcolor="#e5813900"] ;
176 -> 178 ;
179 [label=<entropy = 0.0<br/>samples = 1<br/>value = [1, 0]<br/>class = poisonous>, fillcolor="#e58139ff"] ;
178 -> 179 ;
180 [label=<entropy = 0.0<br/>samples = 1<br/>value = [0, 1]<br/>class = non-poisonous>, fillcolor="#399de5ff"] ;
178 -> 180 ;
181 [label=<entropy = 0.0<br/>samples = 2<br/>value = [0, 2]<br/>class = non-poisonous>, fillcolor="#399de5ff"] ;
171 -> 181 ;
182 [label=<capshape &le; 14.0<br/>entropy = 0.359<br/>samples = 44<br/>value = [3, 41]<br/>class = non-poisonous>, fillcolor="#399de5ec"] ;
150 -> 182 ;
183 [label=<population &le; 22.5<br/>entropy = 0.454<br/>samples = 21<br/>value = [2, 19]<br/>class = non-poisonous>, fillcolor="#399de5e4"] ;
182 -> 183 ;
184 [label=<entropy = 0.0<br/>samples = 11<br/>value = [0, 11]<br/>class = non-poisonous>, fillcolor="#399de5ff"] ;
183 -> 184 ;
185 [label=<gillcolor &le; 6.5<br/>entropy = 0.722<br/>samples = 10<br/>value = [2, 8]<br/>class = non-poisonous>, fillcolor="#399de5bf"] ;
183 -> 185 ;
186 [label=<entropy = 0.0<br/>samples = 3<br/>value = [0, 3]<br/>class = non-poisonous>, fillcolor="#399de5ff"] ;
185 -> 186 ;
187 [label=<habitat &le; 4.5<br/>entropy = 0.863<br/>samples = 7<br/>value = [2, 5]<br/>class = non-poisonous>, fillcolor="#399de599"] ;
185 -> 187 ;
188 [label=<gillcolor &le; 11.0<br/>entropy = 0.811<br/>samples = 4<br/>value = [1, 3]<br/>class = non-poisonous>, fillcolor="#399de5aa"] ;
187 -> 188 ;
189 [label=<entropy = 0.0<br/>samples = 2<br/>value = [0, 2]<br/>class = non-poisonous>, fillcolor="#399de5ff"] ;
188 -> 189 ;
190 [label=<capsurface &le; 14.5<br/>entropy = 1.0<br/>samples = 2<br/>value = [1, 1]<br/>class = poisonous>, fillcolor="#e5813900"] ;
188 -> 190 ;
191 [label=<entropy = 0.0<br/>samples = 1<br/>value = [0, 1]<br/>class = non-poisonous>, fillcolor="#399de5ff"] ;
190 -> 191 ;
192 [label=<entropy = 0.0<br/>samples = 1<br/>value = [1, 0]<br/>class = poisonous>, fillcolor="#e58139ff"] ;
190 -> 192 ;
193 [label=<capsurface &le; 14.5<br/>entropy = 0.918<br/>samples = 3<br/>value = [1, 2]<br/>class = non-poisonous>, fillcolor="#399de57f"] ;
187 -> 193 ;
194 [label=<stalkcolorabovering &le; 7.0<br/>entropy = 1.0<br/>samples = 2<br/>value = [1, 1]<br/>class = poisonous>, fillcolor="#e5813900"] ;
193 -> 194 ;
195 [label=<entropy = 0.0<br/>samples = 1<br/>value = [1, 0]<br/>class = poisonous>, fillcolor="#e58139ff"] ;
194 -> 195 ;
196 [label=<entropy = 0.0<br/>samples = 1<br/>value = [0, 1]<br/>class = non-poisonous>, fillcolor="#399de5ff"] ;
194 -> 196 ;
197 [label=<entropy = 0.0<br/>samples = 1<br/>value = [0, 1]<br/>class = non-poisonous>, fillcolor="#399de5ff"] ;
193 -> 197 ;
198 [label=<gillcolor &le; 6.5<br/>entropy = 0.258<br/>samples = 23<br/>value = [1, 22]<br/>class = non-poisonous>, fillcolor="#399de5f3"] ;
182 -> 198 ;
199 [label=<stalkcolorabovering &le; 7.0<br/>entropy = 0.722<br/>samples = 5<br/>value = [1, 4]<br/>class = non-poisonous>, fillcolor="#399de5bf"] ;
198 -> 199 ;
200 [label=<entropy = 0.0<br/>samples = 3<br/>value = [0, 3]<br/>class = non-poisonous>, fillcolor="#399de5ff"] ;
199 -> 200 ;
201 [label=<population &le; 22.5<br/>entropy = 1.0<br/>samples = 2<br/>value = [1, 1]<br/>class = poisonous>, fillcolor="#e5813900"] ;
199 -> 201 ;
202 [label=<entropy = 0.0<br/>samples = 1<br/>value = [1, 0]<br/>class = poisonous>, fillcolor="#e58139ff"] ;
201 -> 202 ;
203 [label=<entropy = 0.0<br/>samples = 1<br/>value = [0, 1]<br/>class = non-poisonous>, fillcolor="#399de5ff"] ;
201 -> 203 ;
204 [label=<entropy = 0.0<br/>samples = 18<br/>value = [0, 18]<br/>class = non-poisonous>, fillcolor="#399de5ff"] ;
198 -> 204 ;
205 [label=<capshape &le; 14.0<br/>entropy = 0.65<br/>samples = 42<br/>value = [7, 35]<br/>class = non-poisonous>, fillcolor="#399de5cc"] ;
149 -> 205 ;
206 [label=<gillcolor &le; 6.5<br/>entropy = 0.323<br/>samples = 17<br/>value = [1, 16]<br/>class = non-poisonous>, fillcolor="#399de5ef"] ;
205 -> 206 ;
207 [label=<habitat &le; 4.5<br/>entropy = 0.722<br/>samples = 5<br/>value = [1, 4]<br/>class = non-poisonous>, fillcolor="#399de5bf"] ;
206 -> 207 ;
208 [label=<entropy = 0.0<br/>samples = 2<br/>value = [0, 2]<br/>class = non-poisonous>, fillcolor="#399de5ff"] ;
207 -> 208 ;
209 [label=<capcolor &le; 15.0<br/>entropy = 0.918<br/>samples = 3<br/>value = [1, 2]<br/>class = non-poisonous>, fillcolor="#399de57f"] ;
207 -> 209 ;
210 [label=<capsurface &le; 14.5<br/>entropy = 1.0<br/>samples = 2<br/>value = [1, 1]<br/>class = poisonous>, fillcolor="#e5813900"] ;
209 -> 210 ;
211 [label=<entropy = 0.0<br/>samples = 1<br/>value = [1, 0]<br/>class = poisonous>, fillcolor="#e58139ff"] ;
210 -> 211 ;
212 [label=<entropy = 0.0<br/>samples = 1<br/>value = [0, 1]<br/>class = non-poisonous>, fillcolor="#399de5ff"] ;
210 -> 212 ;
213 [label=<entropy = 0.0<br/>samples = 1<br/>value = [0, 1]<br/>class = non-poisonous>, fillcolor="#399de5ff"] ;
209 -> 213 ;
214 [label=<entropy = 0.0<br/>samples = 12<br/>value = [0, 12]<br/>class = non-poisonous>, fillcolor="#399de5ff"] ;
206 -> 214 ;
215 [label=<capcolor &le; 23.0<br/>entropy = 0.795<br/>samples = 25<br/>value = [6, 19]<br/>class = non-poisonous>, fillcolor="#399de5ae"] ;
205 -> 215 ;
216 [label=<stalkshape &le; 11.5<br/>entropy = 0.567<br/>samples = 15<br/>value = [2, 13]<br/>class = non-poisonous>, fillcolor="#399de5d8"] ;
215 -> 216 ;
217 [label=<entropy = 0.0<br/>samples = 9<br/>value = [0, 9]<br/>class = non-poisonous>, fillcolor="#399de5ff"] ;
216 -> 217 ;
218 [label=<capcolor &le; 14.0<br/>entropy = 0.918<br/>samples = 6<br/>value = [2, 4]<br/>class = non-poisonous>, fillcolor="#399de57f"] ;
216 -> 218 ;
219 [label=<gillcolor &le; 11.0<br/>entropy = 1.0<br/>samples = 4<br/>value = [2, 2]<br/>class = poisonous>, fillcolor="#e5813900"] ;
218 -> 219 ;
220 [label=<entropy = 0.0<br/>samples = 1<br/>value = [1, 0]<br/>class = poisonous>, fillcolor="#e58139ff"] ;
219 -> 220 ;
221 [label=<capcolor &le; 3.5<br/>entropy = 0.918<br/>samples = 3<br/>value = [1, 2]<br/>class = non-poisonous>, fillcolor="#399de57f"] ;
219 -> 221 ;
222 [label=<population &le; 19.5<br/>entropy = 1.0<br/>samples = 2<br/>value = [1, 1]<br/>class = poisonous>, fillcolor="#e5813900"] ;
221 -> 222 ;
223 [label=<entropy = 0.0<br/>samples = 1<br/>value = [1, 0]<br/>class = poisonous>, fillcolor="#e58139ff"] ;
222 -> 223 ;
224 [label=<entropy = 0.0<br/>samples = 1<br/>value = [0, 1]<br/>class = non-poisonous>, fillcolor="#399de5ff"] ;
222 -> 224 ;
225 [label=<entropy = 0.0<br/>samples = 1<br/>value = [0, 1]<br/>class = non-poisonous>, fillcolor="#399de5ff"] ;
221 -> 225 ;
226 [label=<entropy = 0.0<br/>samples = 2<br/>value = [0, 2]<br/>class = non-poisonous>, fillcolor="#399de5ff"] ;
218 -> 226 ;
227 [label=<gillcolor &le; 6.5<br/>entropy = 0.971<br/>samples = 10<br/>value = [4, 6]<br/>class = non-poisonous>, fillcolor="#399de555"] ;
215 -> 227 ;
228 [label=<entropy = 0.0<br/>samples = 2<br/>value = [2, 0]<br/>class = poisonous>, fillcolor="#e58139ff"] ;
227 -> 228 ;
229 [label=<gillcolor &le; 11.0<br/>entropy = 0.811<br/>samples = 8<br/>value = [2, 6]<br/>class = non-poisonous>, fillcolor="#399de5aa"] ;
227 -> 229 ;
230 [label=<habitat &le; 4.5<br/>entropy = 0.65<br/>samples = 6<br/>value = [1, 5]<br/>class = non-poisonous>, fillcolor="#399de5cc"] ;
229 -> 230 ;
231 [label=<entropy = 0.0<br/>samples = 3<br/>value = [0, 3]<br/>class = non-poisonous>, fillcolor="#399de5ff"] ;
230 -> 231 ;
232 [label=<capsurface &le; 14.5<br/>entropy = 0.918<br/>samples = 3<br/>value = [1, 2]<br/>class = non-poisonous>, fillcolor="#399de57f"] ;
230 -> 232 ;
233 [label=<entropy = 0.0<br/>samples = 1<br/>value = [1, 0]<br/>class = poisonous>, fillcolor="#e58139ff"] ;
232 -> 233 ;
234 [label=<entropy = 0.0<br/>samples = 2<br/>value = [0, 2]<br/>class = non-poisonous>, fillcolor="#399de5ff"] ;
232 -> 234 ;
235 [label=<capsurface &le; 14.5<br/>entropy = 1.0<br/>samples = 2<br/>value = [1, 1]<br/>class = poisonous>, fillcolor="#e5813900"] ;
229 -> 235 ;
236 [label=<entropy = 0.0<br/>samples = 1<br/>value = [0, 1]<br/>class = non-poisonous>, fillcolor="#399de5ff"] ;
235 -> 236 ;
237 [label=<entropy = 0.0<br/>samples = 1<br/>value = [1, 0]<br/>class = poisonous>, fillcolor="#e58139ff"] ;
235 -> 237 ;
238 [label=<entropy = 0.0<br/>samples = 6<br/>value = [0, 6]<br/>class = non-poisonous>, fillcolor="#399de5ff"] ;
148 -> 238 ;
239 [label=<population &le; 22.5<br/>entropy = 0.702<br/>samples = 121<br/>value = [23, 98]<br/>class = non-poisonous>, fillcolor="#399de5c3"] ;
119 -> 239 ;
240 [label=<stalksurfacebelowring &le; 7.5<br/>entropy = 0.755<br/>samples = 92<br/>value = [20, 72]<br/>class = non-poisonous>, fillcolor="#399de5b8"] ;
239 -> 240 ;
241 [label=<capshape &le; 14.0<br/>entropy = 0.567<br/>samples = 30<br/>value = [4, 26]<br/>class = non-poisonous>, fillcolor="#399de5d8"] ;
240 -> 241 ;
242 [label=<capcolor &le; 3.5<br/>entropy = 0.779<br/>samples = 13<br/>value = [3, 10]<br/>class = non-poisonous>, fillcolor="#399de5b3"] ;
241 -> 242 ;
243 [label=<population &le; 19.5<br/>entropy = 1.0<br/>samples = 4<br/>value = [2, 2]<br/>class = poisonous>, fillcolor="#e5813900"] ;
242 -> 243 ;
244 [label=<stalksurfaceabovering &le; 11.5<br/>entropy = 1.0<br/>samples = 2<br/>value = [1, 1]<br/>class = poisonous>, fillcolor="#e5813900"] ;
243 -> 244 ;
245 [label=<entropy = 0.0<br/>samples = 1<br/>value = [0, 1]<br/>class = non-poisonous>, fillcolor="#399de5ff"] ;
244 -> 245 ;
246 [label=<entropy = 0.0<br/>samples = 1<br/>value = [1, 0]<br/>class = poisonous>, fillcolor="#e58139ff"] ;
244 -> 246 ;
247 [label=<gillcolor &le; 14.5<br/>entropy = 1.0<br/>samples = 2<br/>value = [1, 1]<br/>class = poisonous>, fillcolor="#e5813900"] ;
243 -> 247 ;
248 [label=<entropy = 0.0<br/>samples = 1<br/>value = [0, 1]<br/>class = non-poisonous>, fillcolor="#399de5ff"] ;
247 -> 248 ;
249 [label=<entropy = 0.0<br/>samples = 1<br/>value = [1, 0]<br/>class = poisonous>, fillcolor="#e58139ff"] ;
247 -> 249 ;
250 [label=<gillcolor &le; 11.0<br/>entropy = 0.503<br/>samples = 9<br/>value = [1, 8]<br/>class = non-poisonous>, fillcolor="#399de5df"] ;
242 -> 250 ;
251 [label=<population &le; 19.5<br/>entropy = 0.918<br/>samples = 3<br/>value = [1, 2]<br/>class = non-poisonous>, fillcolor="#399de57f"] ;
250 -> 251 ;
252 [label=<entropy = 0.0<br/>samples = 2<br/>value = [0, 2]<br/>class = non-poisonous>, fillcolor="#399de5ff"] ;
251 -> 252 ;
253 [label=<entropy = 0.0<br/>samples = 1<br/>value = [1, 0]<br/>class = poisonous>, fillcolor="#e58139ff"] ;
251 -> 253 ;
254 [label=<entropy = 0.0<br/>samples = 6<br/>value = [0, 6]<br/>class = non-poisonous>, fillcolor="#399de5ff"] ;
250 -> 254 ;
255 [label=<gillcolor &le; 18.5<br/>entropy = 0.323<br/>samples = 17<br/>value = [1, 16]<br/>class = non-poisonous>, fillcolor="#399de5ef"] ;
241 -> 255 ;
256 [label=<entropy = 0.0<br/>samples = 10<br/>value = [0, 10]<br/>class = non-poisonous>, fillcolor="#399de5ff"] ;
255 -> 256 ;
257 [label=<capcolor &le; 3.5<br/>entropy = 0.592<br/>samples = 7<br/>value = [1, 6]<br/>class = non-poisonous>, fillcolor="#399de5d4"] ;
255 -> 257 ;
258 [label=<entropy = 0.0<br/>samples = 3<br/>value = [0, 3]<br/>class = non-poisonous>, fillcolor="#399de5ff"] ;
257 -> 258 ;
259 [label=<capcolor &le; 14.0<br/>entropy = 0.811<br/>samples = 4<br/>value = [1, 3]<br/>class = non-poisonous>, fillcolor="#399de5aa"] ;
257 -> 259 ;
260 [label=<population &le; 19.5<br/>entropy = 1.0<br/>samples = 2<br/>value = [1, 1]<br/>class = poisonous>, fillcolor="#e5813900"] ;
259 -> 260 ;
261 [label=<entropy = 0.0<br/>samples = 1<br/>value = [0, 1]<br/>class = non-poisonous>, fillcolor="#399de5ff"] ;
260 -> 261 ;
262 [label=<entropy = 0.0<br/>samples = 1<br/>value = [1, 0]<br/>class = poisonous>, fillcolor="#e58139ff"] ;
260 -> 262 ;
263 [label=<entropy = 0.0<br/>samples = 2<br/>value = [0, 2]<br/>class = non-poisonous>, fillcolor="#399de5ff"] ;
259 -> 263 ;
264 [label=<gillcolor &le; 18.5<br/>entropy = 0.824<br/>samples = 62<br/>value = [16, 46]<br/>class = non-poisonous>, fillcolor="#399de5a6"] ;
240 -> 264 ;
265 [label=<capcolor &le; 3.5<br/>entropy = 0.768<br/>samples = 49<br/>value = [11, 38]<br/>class = non-poisonous>, fillcolor="#399de5b5"] ;
264 -> 265 ;
266 [label=<entropy = 0.0<br/>samples = 5<br/>value = [0, 5]<br/>class = non-poisonous>, fillcolor="#399de5ff"] ;
265 -> 266 ;
267 [label=<stalksurfaceabovering &le; 14.0<br/>entropy = 0.811<br/>samples = 44<br/>value = [11, 33]<br/>class = non-poisonous>, fillcolor="#399de5aa"] ;
265 -> 267 ;
268 [label=<population &le; 19.5<br/>entropy = 0.753<br/>samples = 37<br/>value = [8, 29]<br/>class = non-poisonous>, fillcolor="#399de5b9"] ;
267 -> 268 ;
269 [label=<entropy = 0.0<br/>samples = 3<br/>value = [0, 3]<br/>class = non-poisonous>, fillcolor="#399de5ff"] ;
268 -> 269 ;
270 [label=<gillcolor &le; 6.5<br/>entropy = 0.787<br/>samples = 34<br/>value = [8, 26]<br/>class = non-poisonous>, fillcolor="#399de5b1"] ;
268 -> 270 ;
271 [label=<stalkcolorabovering &le; 14.0<br/>entropy = 0.918<br/>samples = 9<br/>value = [3, 6]<br/>class = non-poisonous>, fillcolor="#399de57f"] ;
270 -> 271 ;
272 [label=<capsurface &le; 14.5<br/>entropy = 0.985<br/>samples = 7<br/>value = [3, 4]<br/>class = non-poisonous>, fillcolor="#399de540"] ;
271 -> 272 ;
273 [label=<capcolor &le; 15.0<br/>entropy = 0.918<br/>samples = 3<br/>value = [2, 1]<br/>class = poisonous>, fillcolor="#e581397f"] ;
272 -> 273 ;
274 [label=<entropy = 0.0<br/>samples = 1<br/>value = [0, 1]<br/>class = non-poisonous>, fillcolor="#399de5ff"] ;
273 -> 274 ;
275 [label=<entropy = 0.0<br/>samples = 2<br/>value = [2, 0]<br/>class = poisonous>, fillcolor="#e58139ff"] ;
273 -> 275 ;
276 [label=<stalkcolorabovering &le; 7.0<br/>entropy = 0.811<br/>samples = 4<br/>value = [1, 3]<br/>class = non-poisonous>, fillcolor="#399de5aa"] ;
272 -> 276 ;
277 [label=<entropy = 0.0<br/>samples = 2<br/>value = [0, 2]<br/>class = non-poisonous>, fillcolor="#399de5ff"] ;
276 -> 277 ;
278 [label=<capshape &le; 14.0<br/>entropy = 1.0<br/>samples = 2<br/>value = [1, 1]<br/>class = poisonous>, fillcolor="#e5813900"] ;
276 -> 278 ;
279 [label=<entropy = 0.0<br/>samples = 1<br/>value = [0, 1]<br/>class = non-poisonous>, fillcolor="#399de5ff"] ;
278 -> 279 ;
280 [label=<entropy = 0.0<br/>samples = 1<br/>value = [1, 0]<br/>class = poisonous>, fillcolor="#e58139ff"] ;
278 -> 280 ;
281 [label=<entropy = 0.0<br/>samples = 2<br/>value = [0, 2]<br/>class = non-poisonous>, fillcolor="#399de5ff"] ;
271 -> 281 ;
282 [label=<capsurface &le; 21.0<br/>entropy = 0.722<br/>samples = 25<br/>value = [5, 20]<br/>class = non-poisonous>, fillcolor="#399de5bf"] ;
270 -> 282 ;
283 [label=<capcolor &le; 14.0<br/>entropy = 0.672<br/>samples = 17<br/>value = [3, 14]<br/>class = non-poisonous>, fillcolor="#399de5c8"] ;
282 -> 283 ;
284 [label=<capshape &le; 14.0<br/>entropy = 0.811<br/>samples = 8<br/>value = [2, 6]<br/>class = non-poisonous>, fillcolor="#399de5aa"] ;
283 -> 284 ;
285 [label=<gillcolor &le; 11.0<br/>entropy = 0.918<br/>samples = 3<br/>value = [2, 1]<br/>class = poisonous>, fillcolor="#e581397f"] ;
284 -> 285 ;
286 [label=<entropy = 0.0<br/>samples = 2<br/>value = [2, 0]<br/>class = poisonous>, fillcolor="#e58139ff"] ;
285 -> 286 ;
287 [label=<entropy = 0.0<br/>samples = 1<br/>value = [0, 1]<br/>class = non-poisonous>, fillcolor="#399de5ff"] ;
285 -> 287 ;
288 [label=<entropy = 0.0<br/>samples = 5<br/>value = [0, 5]<br/>class = non-poisonous>, fillcolor="#399de5ff"] ;
284 -> 288 ;
289 [label=<capshape &le; 14.0<br/>entropy = 0.503<br/>samples = 9<br/>value = [1, 8]<br/>class = non-poisonous>, fillcolor="#399de5df"] ;
283 -> 289 ;
290 [label=<entropy = 0.0<br/>samples = 6<br/>value = [0, 6]<br/>class = non-poisonous>, fillcolor="#399de5ff"] ;
289 -> 290 ;
291 [label=<stalksurfaceabovering &le; 7.5<br/>entropy = 0.918<br/>samples = 3<br/>value = [1, 2]<br/>class = non-poisonous>, fillcolor="#399de57f"] ;
289 -> 291 ;
292 [label=<entropy = 0.0<br/>samples = 2<br/>value = [0, 2]<br/>class = non-poisonous>, fillcolor="#399de5ff"] ;
291 -> 292 ;
293 [label=<entropy = 0.0<br/>samples = 1<br/>value = [1, 0]<br/>class = poisonous>, fillcolor="#e58139ff"] ;
291 -> 293 ;
294 [label=<capcolor &le; 15.0<br/>entropy = 0.811<br/>samples = 8<br/>value = [2, 6]<br/>class = non-poisonous>, fillcolor="#399de5aa"] ;
282 -> 294 ;
295 [label=<stalkcolorabovering &le; 7.0<br/>entropy = 0.65<br/>samples = 6<br/>value = [1, 5]<br/>class = non-poisonous>, fillcolor="#399de5cc"] ;
294 -> 295 ;
296 [label=<gillcolor &le; 11.0<br/>entropy = 1.0<br/>samples = 2<br/>value = [1, 1]<br/>class = poisonous>, fillcolor="#e5813900"] ;
295 -> 296 ;
297 [label=<entropy = 0.0<br/>samples = 1<br/>value = [0, 1]<br/>class = non-poisonous>, fillcolor="#399de5ff"] ;
296 -> 297 ;
298 [label=<entropy = 0.0<br/>samples = 1<br/>value = [1, 0]<br/>class = poisonous>, fillcolor="#e58139ff"] ;
296 -> 298 ;
299 [label=<entropy = 0.0<br/>samples = 4<br/>value = [0, 4]<br/>class = non-poisonous>, fillcolor="#399de5ff"] ;
295 -> 299 ;
300 [label=<stalkcolorabovering &le; 8.0<br/>entropy = 1.0<br/>samples = 2<br/>value = [1, 1]<br/>class = poisonous>, fillcolor="#e5813900"] ;
294 -> 300 ;
301 [label=<entropy = 0.0<br/>samples = 1<br/>value = [0, 1]<br/>class = non-poisonous>, fillcolor="#399de5ff"] ;
300 -> 301 ;
302 [label=<entropy = 0.0<br/>samples = 1<br/>value = [1, 0]<br/>class = poisonous>, fillcolor="#e58139ff"] ;
300 -> 302 ;
303 [label=<capcolor &le; 14.0<br/>entropy = 0.985<br/>samples = 7<br/>value = [3, 4]<br/>class = non-poisonous>, fillcolor="#399de540"] ;
267 -> 303 ;
304 [label=<capshape &le; 14.0<br/>entropy = 0.811<br/>samples = 4<br/>value = [3, 1]<br/>class = poisonous>, fillcolor="#e58139aa"] ;
303 -> 304 ;
305 [label=<entropy = 0.0<br/>samples = 2<br/>value = [2, 0]<br/>class = poisonous>, fillcolor="#e58139ff"] ;
304 -> 305 ;
306 [label=<population &le; 19.5<br/>entropy = 1.0<br/>samples = 2<br/>value = [1, 1]<br/>class = poisonous>, fillcolor="#e5813900"] ;
304 -> 306 ;
307 [label=<entropy = 0.0<br/>samples = 1<br/>value = [0, 1]<br/>class = non-poisonous>, fillcolor="#399de5ff"] ;
306 -> 307 ;
308 [label=<entropy = 0.0<br/>samples = 1<br/>value = [1, 0]<br/>class = poisonous>, fillcolor="#e58139ff"] ;
306 -> 308 ;
309 [label=<entropy = 0.0<br/>samples = 3<br/>value = [0, 3]<br/>class = non-poisonous>, fillcolor="#399de5ff"] ;
303 -> 309 ;
310 [label=<stalksurfaceabovering &le; 11.5<br/>entropy = 0.961<br/>samples = 13<br/>value = [5, 8]<br/>class = non-poisonous>, fillcolor="#399de560"] ;
264 -> 310 ;
311 [label=<population &le; 19.5<br/>entropy = 0.985<br/>samples = 7<br/>value = [4, 3]<br/>class = poisonous>, fillcolor="#e5813940"] ;
310 -> 311 ;
312 [label=<entropy = 0.0<br/>samples = 2<br/>value = [2, 0]<br/>class = poisonous>, fillcolor="#e58139ff"] ;
311 -> 312 ;
313 [label=<capcolor &le; 14.0<br/>entropy = 0.971<br/>samples = 5<br/>value = [2, 3]<br/>class = non-poisonous>, fillcolor="#399de555"] ;
311 -> 313 ;
314 [label=<capshape &le; 14.0<br/>entropy = 1.0<br/>samples = 4<br/>value = [2, 2]<br/>class = poisonous>, fillcolor="#e5813900"] ;
313 -> 314 ;
315 [label=<capcolor &le; 3.5<br/>entropy = 1.0<br/>samples = 2<br/>value = [1, 1]<br/>class = poisonous>, fillcolor="#e5813900"] ;
314 -> 315 ;
316 [label=<entropy = 0.0<br/>samples = 1<br/>value = [1, 0]<br/>class = poisonous>, fillcolor="#e58139ff"] ;
315 -> 316 ;
317 [label=<entropy = 0.0<br/>samples = 1<br/>value = [0, 1]<br/>class = non-poisonous>, fillcolor="#399de5ff"] ;
315 -> 317 ;
318 [label=<capcolor &le; 3.5<br/>entropy = 1.0<br/>samples = 2<br/>value = [1, 1]<br/>class = poisonous>, fillcolor="#e5813900"] ;
314 -> 318 ;
319 [label=<entropy = 0.0<br/>samples = 1<br/>value = [0, 1]<br/>class = non-poisonous>, fillcolor="#399de5ff"] ;
318 -> 319 ;
320 [label=<entropy = 0.0<br/>samples = 1<br/>value = [1, 0]<br/>class = poisonous>, fillcolor="#e58139ff"] ;
318 -> 320 ;
321 [label=<entropy = 0.0<br/>samples = 1<br/>value = [0, 1]<br/>class = non-poisonous>, fillcolor="#399de5ff"] ;
313 -> 321 ;
322 [label=<capcolor &le; 3.5<br/>entropy = 0.65<br/>samples = 6<br/>value = [1, 5]<br/>class = non-poisonous>, fillcolor="#399de5cc"] ;
310 -> 322 ;
323 [label=<entropy = 0.0<br/>samples = 1<br/>value = [1, 0]<br/>class = poisonous>, fillcolor="#e58139ff"] ;
322 -> 323 ;
324 [label=<entropy = 0.0<br/>samples = 5<br/>value = [0, 5]<br/>class = non-poisonous>, fillcolor="#399de5ff"] ;
322 -> 324 ;
325 [label=<stalkcolorabovering &le; 14.0<br/>entropy = 0.48<br/>samples = 29<br/>value = [3, 26]<br/>class = non-poisonous>, fillcolor="#399de5e2"] ;
239 -> 325 ;
326 [label=<capsurface &le; 14.5<br/>entropy = 0.629<br/>samples = 19<br/>value = [3, 16]<br/>class = non-poisonous>, fillcolor="#399de5cf"] ;
325 -> 326 ;
327 [label=<gillcolor &le; 6.5<br/>entropy = 0.764<br/>samples = 9<br/>value = [2, 7]<br/>class = non-poisonous>, fillcolor="#399de5b6"] ;
326 -> 327 ;
328 [label=<entropy = 0.0<br/>samples = 4<br/>value = [0, 4]<br/>class = non-poisonous>, fillcolor="#399de5ff"] ;
327 -> 328 ;
329 [label=<stalkcolorabovering &le; 7.0<br/>entropy = 0.971<br/>samples = 5<br/>value = [2, 3]<br/>class = non-poisonous>, fillcolor="#399de555"] ;
327 -> 329 ;
330 [label=<entropy = 0.0<br/>samples = 1<br/>value = [0, 1]<br/>class = non-poisonous>, fillcolor="#399de5ff"] ;
329 -> 330 ;
331 [label=<capcolor &le; 15.0<br/>entropy = 1.0<br/>samples = 4<br/>value = [2, 2]<br/>class = poisonous>, fillcolor="#e5813900"] ;
329 -> 331 ;
332 [label=<entropy = 0.0<br/>samples = 1<br/>value = [1, 0]<br/>class = poisonous>, fillcolor="#e58139ff"] ;
331 -> 332 ;
333 [label=<gillcolor &le; 11.0<br/>entropy = 0.918<br/>samples = 3<br/>value = [1, 2]<br/>class = non-poisonous>, fillcolor="#399de57f"] ;
331 -> 333 ;
334 [label=<entropy = 0.0<br/>samples = 1<br/>value = [1, 0]<br/>class = poisonous>, fillcolor="#e58139ff"] ;
333 -> 334 ;
335 [label=<entropy = 0.0<br/>samples = 2<br/>value = [0, 2]<br/>class = non-poisonous>, fillcolor="#399de5ff"] ;
333 -> 335 ;
336 [label=<gillcolor &le; 6.5<br/>entropy = 0.469<br/>samples = 10<br/>value = [1, 9]<br/>class = non-poisonous>, fillcolor="#399de5e3"] ;
326 -> 336 ;
337 [label=<capcolor &le; 15.0<br/>entropy = 1.0<br/>samples = 2<br/>value = [1, 1]<br/>class = poisonous>, fillcolor="#e5813900"] ;
336 -> 337 ;
338 [label=<entropy = 0.0<br/>samples = 1<br/>value = [0, 1]<br/>class = non-poisonous>, fillcolor="#399de5ff"] ;
337 -> 338 ;
339 [label=<entropy = 0.0<br/>samples = 1<br/>value = [1, 0]<br/>class = poisonous>, fillcolor="#e58139ff"] ;
337 -> 339 ;
340 [label=<entropy = 0.0<br/>samples = 8<br/>value = [0, 8]<br/>class = non-poisonous>, fillcolor="#399de5ff"] ;
336 -> 340 ;
341 [label=<entropy = 0.0<br/>samples = 10<br/>value = [0, 10]<br/>class = non-poisonous>, fillcolor="#399de5ff"] ;
325 -> 341 ;
342 [label=<gillsize &le; 7.0<br/>entropy = 0.73<br/>samples = 1628<br/>value = [1296, 332]<br/>class = poisonous>, fillcolor="#e58139be"] ;
0 -> 342 [labeldistance=2.5, labelangle=-45, headlabel="False"] ;
343 [label=<sporeprintcolor &le; 15.0<br/>entropy = 0.511<br/>samples = 1354<br/>value = [1200, 154]<br/>class = poisonous>, fillcolor="#e58139de"] ;
342 -> 343 ;
344 [label=<habitat &le; 13.5<br/>entropy = 0.443<br/>samples = 1303<br/>value = [1183, 120]<br/>class = poisonous>, fillcolor="#e58139e5"] ;
343 -> 344 ;
345 [label=<stalksurfacebelowring &le; 21.0<br/>entropy = 0.45<br/>samples = 1265<br/>value = [1146, 119]<br/>class = poisonous>, fillcolor="#e58139e5"] ;
344 -> 345 ;
346 [label=<gillcolor &le; 6.5<br/>entropy = 0.439<br/>samples = 1232<br/>value = [1120, 112]<br/>class = poisonous>, fillcolor="#e58139e6"] ;
345 -> 346 ;
347 [label=<sporeprintcolor &le; 11.5<br/>entropy = 0.239<br/>samples = 51<br/>value = [49, 2]<br/>class = poisonous>, fillcolor="#e58139f5"] ;
346 -> 347 ;
348 [label=<entropy = 0.0<br/>samples = 25<br/>value = [25, 0]<br/>class = poisonous>, fillcolor="#e58139ff"] ;
347 -> 348 ;
349 [label=<habitat &le; 9.0<br/>entropy = 0.391<br/>samples = 26<br/>value = [24, 2]<br/>class = poisonous>, fillcolor="#e58139ea"] ;
347 -> 349 ;
350 [label=<entropy = 0.0<br/>samples = 11<br/>value = [11, 0]<br/>class = poisonous>, fillcolor="#e58139ff"] ;
349 -> 350 ;
351 [label=<odor &le; 5.5<br/>entropy = 0.567<br/>samples = 15<br/>value = [13, 2]<br/>class = poisonous>, fillcolor="#e58139d8"] ;
349 -> 351 ;
352 [label=<population &le; 15.5<br/>entropy = 0.811<br/>samples = 8<br/>value = [6, 2]<br/>class = poisonous>, fillcolor="#e58139aa"] ;
351 -> 352 ;
353 [label=<capshape &le; 12.0<br/>entropy = 0.918<br/>samples = 3<br/>value = [2, 1]<br/>class = poisonous>, fillcolor="#e581397f"] ;
352 -> 353 ;
354 [label=<entropy = 0.0<br/>samples = 2<br/>value = [2, 0]<br/>class = poisonous>, fillcolor="#e58139ff"] ;
353 -> 354 ;
355 [label=<entropy = 0.0<br/>samples = 1<br/>value = [0, 1]<br/>class = non-poisonous>, fillcolor="#399de5ff"] ;
353 -> 355 ;
356 [label=<capshape &le; 12.0<br/>entropy = 0.722<br/>samples = 5<br/>value = [4, 1]<br/>class = poisonous>, fillcolor="#e58139bf"] ;
352 -> 356 ;
357 [label=<capsurface &le; 21.0<br/>entropy = 1.0<br/>samples = 2<br/>value = [1, 1]<br/>class = poisonous>, fillcolor="#e5813900"] ;
356 -> 357 ;
358 [label=<entropy = 0.0<br/>samples = 1<br/>value = [0, 1]<br/>class = non-poisonous>, fillcolor="#399de5ff"] ;
357 -> 358 ;
359 [label=<entropy = 0.0<br/>samples = 1<br/>value = [1, 0]<br/>class = poisonous>, fillcolor="#e58139ff"] ;
357 -> 359 ;
360 [label=<entropy = 0.0<br/>samples = 3<br/>value = [3, 0]<br/>class = poisonous>, fillcolor="#e58139ff"] ;
356 -> 360 ;
361 [label=<entropy = 0.0<br/>samples = 7<br/>value = [7, 0]<br/>class = poisonous>, fillcolor="#e58139ff"] ;
351 -> 361 ;
362 [label=<odor &le; 5.5<br/>entropy = 0.447<br/>samples = 1181<br/>value = [1071, 110]<br/>class = poisonous>, fillcolor="#e58139e5"] ;
346 -> 362 ;
363 [label=<sporeprintcolor &le; 11.5<br/>entropy = 0.573<br/>samples = 81<br/>value = [70, 11]<br/>class = poisonous>, fillcolor="#e58139d7"] ;
362 -> 363 ;
364 [label=<capshape &le; 12.0<br/>entropy = 0.303<br/>samples = 37<br/>value = [35, 2]<br/>class = poisonous>, fillcolor="#e58139f0"] ;
363 -> 364 ;
365 [label=<gillcolor &le; 11.5<br/>entropy = 0.503<br/>samples = 18<br/>value = [16, 2]<br/>class = poisonous>, fillcolor="#e58139df"] ;
364 -> 365 ;
366 [label=<capsurface &le; 21.0<br/>entropy = 0.65<br/>samples = 6<br/>value = [5, 1]<br/>class = poisonous>, fillcolor="#e58139cc"] ;
365 -> 366 ;
367 [label=<population &le; 15.5<br/>entropy = 1.0<br/>samples = 2<br/>value = [1, 1]<br/>class = poisonous>, fillcolor="#e5813900"] ;
366 -> 367 ;
368 [label=<entropy = 0.0<br/>samples = 1<br/>value = [0, 1]<br/>class = non-poisonous>, fillcolor="#399de5ff"] ;
367 -> 368 ;
369 [label=<entropy = 0.0<br/>samples = 1<br/>value = [1, 0]<br/>class = poisonous>, fillcolor="#e58139ff"] ;
367 -> 369 ;
370 [label=<entropy = 0.0<br/>samples = 4<br/>value = [4, 0]<br/>class = poisonous>, fillcolor="#e58139ff"] ;
366 -> 370 ;
371 [label=<population &le; 15.5<br/>entropy = 0.414<br/>samples = 12<br/>value = [11, 1]<br/>class = poisonous>, fillcolor="#e58139e8"] ;
365 -> 371 ;
372 [label=<entropy = 0.0<br/>samples = 6<br/>value = [6, 0]<br/>class = poisonous>, fillcolor="#e58139ff"] ;
371 -> 372 ;
373 [label=<capcolor &le; 23.0<br/>entropy = 0.65<br/>samples = 6<br/>value = [5, 1]<br/>class = poisonous>, fillcolor="#e58139cc"] ;
371 -> 373 ;
374 [label=<entropy = 0.0<br/>samples = 3<br/>value = [3, 0]<br/>class = poisonous>, fillcolor="#e58139ff"] ;
373 -> 374 ;
375 [label=<gillcolor &le; 17.5<br/>entropy = 0.918<br/>samples = 3<br/>value = [2, 1]<br/>class = poisonous>, fillcolor="#e581397f"] ;
373 -> 375 ;
376 [label=<entropy = 0.0<br/>samples = 1<br/>value = [1, 0]<br/>class = poisonous>, fillcolor="#e58139ff"] ;
375 -> 376 ;
377 [label=<habitat &le; 9.0<br/>entropy = 1.0<br/>samples = 2<br/>value = [1, 1]<br/>class = poisonous>, fillcolor="#e5813900"] ;
375 -> 377 ;
378 [label=<entropy = 0.0<br/>samples = 1<br/>value = [0, 1]<br/>class = non-poisonous>, fillcolor="#399de5ff"] ;
377 -> 378 ;
379 [label=<entropy = 0.0<br/>samples = 1<br/>value = [1, 0]<br/>class = poisonous>, fillcolor="#e58139ff"] ;
377 -> 379 ;
380 [label=<entropy = 0.0<br/>samples = 19<br/>value = [19, 0]<br/>class = poisonous>, fillcolor="#e58139ff"] ;
364 -> 380 ;
381 [label=<capcolor &le; 23.0<br/>entropy = 0.731<br/>samples = 44<br/>value = [35, 9]<br/>class = poisonous>, fillcolor="#e58139bd"] ;
363 -> 381 ;
382 [label=<habitat &le; 9.0<br/>entropy = 0.871<br/>samples = 24<br/>value = [17, 7]<br/>class = poisonous>, fillcolor="#e5813996"] ;
381 -> 382 ;
383 [label=<capshape &le; 12.0<br/>entropy = 0.619<br/>samples = 13<br/>value = [11, 2]<br/>class = poisonous>, fillcolor="#e58139d1"] ;
382 -> 383 ;
384 [label=<gillcolor &le; 11.5<br/>entropy = 0.764<br/>samples = 9<br/>value = [7, 2]<br/>class = poisonous>, fillcolor="#e58139b6"] ;
383 -> 384 ;
385 [label=<capsurface &le; 21.0<br/>entropy = 0.918<br/>samples = 3<br/>value = [2, 1]<br/>class = poisonous>, fillcolor="#e581397f"] ;
384 -> 385 ;
386 [label=<entropy = 0.0<br/>samples = 2<br/>value = [2, 0]<br/>class = poisonous>, fillcolor="#e58139ff"] ;
385 -> 386 ;
387 [label=<entropy = 0.0<br/>samples = 1<br/>value = [0, 1]<br/>class = non-poisonous>, fillcolor="#399de5ff"] ;
385 -> 387 ;
388 [label=<capsurface &le; 21.0<br/>entropy = 0.65<br/>samples = 6<br/>value = [5, 1]<br/>class = poisonous>, fillcolor="#e58139cc"] ;
384 -> 388 ;
389 [label=<gillcolor &le; 17.5<br/>entropy = 1.0<br/>samples = 2<br/>value = [1, 1]<br/>class = poisonous>, fillcolor="#e5813900"] ;
388 -> 389 ;
390 [label=<entropy = 0.0<br/>samples = 1<br/>value = [1, 0]<br/>class = poisonous>, fillcolor="#e58139ff"] ;
389 -> 390 ;
391 [label=<entropy = 0.0<br/>samples = 1<br/>value = [0, 1]<br/>class = non-poisonous>, fillcolor="#399de5ff"] ;
389 -> 391 ;
392 [label=<entropy = 0.0<br/>samples = 4<br/>value = [4, 0]<br/>class = poisonous>, fillcolor="#e58139ff"] ;
388 -> 392 ;
393 [label=<entropy = 0.0<br/>samples = 4<br/>value = [4, 0]<br/>class = poisonous>, fillcolor="#e58139ff"] ;
383 -> 393 ;
394 [label=<gillcolor &le; 11.5<br/>entropy = 0.994<br/>samples = 11<br/>value = [6, 5]<br/>class = poisonous>, fillcolor="#e581392a"] ;
382 -> 394 ;
395 [label=<capsurface &le; 21.0<br/>entropy = 0.722<br/>samples = 5<br/>value = [4, 1]<br/>class = poisonous>, fillcolor="#e58139bf"] ;
394 -> 395 ;
396 [label=<entropy = 0.0<br/>samples = 3<br/>value = [3, 0]<br/>class = poisonous>, fillcolor="#e58139ff"] ;
395 -> 396 ;
397 [label=<capshape &le; 12.0<br/>entropy = 1.0<br/>samples = 2<br/>value = [1, 1]<br/>class = poisonous>, fillcolor="#e5813900"] ;
395 -> 397 ;
398 [label=<entropy = 0.0<br/>samples = 1<br/>value = [1, 0]<br/>class = poisonous>, fillcolor="#e58139ff"] ;
397 -> 398 ;
399 [label=<entropy = 0.0<br/>samples = 1<br/>value = [0, 1]<br/>class = non-poisonous>, fillcolor="#399de5ff"] ;
397 -> 399 ;
400 [label=<population &le; 15.5<br/>entropy = 0.918<br/>samples = 6<br/>value = [2, 4]<br/>class = non-poisonous>, fillcolor="#399de57f"] ;
394 -> 400 ;
401 [label=<entropy = 0.0<br/>samples = 2<br/>value = [0, 2]<br/>class = non-poisonous>, fillcolor="#399de5ff"] ;
400 -> 401 ;
402 [label=<capshape &le; 12.0<br/>entropy = 1.0<br/>samples = 4<br/>value = [2, 2]<br/>class = poisonous>, fillcolor="#e5813900"] ;
400 -> 402 ;
403 [label=<capsurface &le; 21.0<br/>entropy = 0.918<br/>samples = 3<br/>value = [1, 2]<br/>class = non-poisonous>, fillcolor="#399de57f"] ;
402 -> 403 ;
404 [label=<gillcolor &le; 17.5<br/>entropy = 1.0<br/>samples = 2<br/>value = [1, 1]<br/>class = poisonous>, fillcolor="#e5813900"] ;
403 -> 404 ;
405 [label=<entropy = 0.0<br/>samples = 1<br/>value = [0, 1]<br/>class = non-poisonous>, fillcolor="#399de5ff"] ;
404 -> 405 ;
406 [label=<entropy = 0.0<br/>samples = 1<br/>value = [1, 0]<br/>class = poisonous>, fillcolor="#e58139ff"] ;
404 -> 406 ;
407 [label=<entropy = 0.0<br/>samples = 1<br/>value = [0, 1]<br/>class = non-poisonous>, fillcolor="#399de5ff"] ;
403 -> 407 ;
408 [label=<entropy = 0.0<br/>samples = 1<br/>value = [1, 0]<br/>class = poisonous>, fillcolor="#e58139ff"] ;
402 -> 408 ;
409 [label=<habitat &le; 9.0<br/>entropy = 0.469<br/>samples = 20<br/>value = [18, 2]<br/>class = poisonous>, fillcolor="#e58139e3"] ;
381 -> 409 ;
410 [label=<gillcolor &le; 17.5<br/>entropy = 0.684<br/>samples = 11<br/>value = [9, 2]<br/>class = poisonous>, fillcolor="#e58139c6"] ;
409 -> 410 ;
411 [label=<gillcolor &le; 11.5<br/>entropy = 0.863<br/>samples = 7<br/>value = [5, 2]<br/>class = poisonous>, fillcolor="#e5813999"] ;
410 -> 411 ;
412 [label=<entropy = 0.0<br/>samples = 3<br/>value = [3, 0]<br/>class = poisonous>, fillcolor="#e58139ff"] ;
411 -> 412 ;
413 [label=<capshape &le; 12.0<br/>entropy = 1.0<br/>samples = 4<br/>value = [2, 2]<br/>class = poisonous>, fillcolor="#e5813900"] ;
411 -> 413 ;
414 [label=<population &le; 15.5<br/>entropy = 1.0<br/>samples = 2<br/>value = [1, 1]<br/>class = poisonous>, fillcolor="#e5813900"] ;
413 -> 414 ;
415 [label=<entropy = 0.0<br/>samples = 1<br/>value = [1, 0]<br/>class = poisonous>, fillcolor="#e58139ff"] ;
414 -> 415 ;
416 [label=<entropy = 0.0<br/>samples = 1<br/>value = [0, 1]<br/>class = non-poisonous>, fillcolor="#399de5ff"] ;
414 -> 416 ;
417 [label=<population &le; 15.5<br/>entropy = 1.0<br/>samples = 2<br/>value = [1, 1]<br/>class = poisonous>, fillcolor="#e5813900"] ;
413 -> 417 ;
418 [label=<entropy = 0.0<br/>samples = 1<br/>value = [0, 1]<br/>class = non-poisonous>, fillcolor="#399de5ff"] ;
417 -> 418 ;
419 [label=<entropy = 0.0<br/>samples = 1<br/>value = [1, 0]<br/>class = poisonous>, fillcolor="#e58139ff"] ;
417 -> 419 ;
420 [label=<entropy = 0.0<br/>samples = 4<br/>value = [4, 0]<br/>class = poisonous>, fillcolor="#e58139ff"] ;
410 -> 420 ;
421 [label=<entropy = 0.0<br/>samples = 9<br/>value = [9, 0]<br/>class = poisonous>, fillcolor="#e58139ff"] ;
409 -> 421 ;
422 [label=<capshape &le; 3.0<br/>entropy = 0.436<br/>samples = 1100<br/>value = [1001, 99]<br/>class = poisonous>, fillcolor="#e58139e6"] ;
362 -> 422 ;
423 [label=<gillcolor &le; 11.5<br/>entropy = 0.172<br/>samples = 39<br/>value = [38, 1]<br/>class = poisonous>, fillcolor="#e58139f8"] ;
422 -> 423 ;
424 [label=<capsurface &le; 21.0<br/>entropy = 0.337<br/>samples = 16<br/>value = [15, 1]<br/>class = poisonous>, fillcolor="#e58139ee"] ;
423 -> 424 ;
425 [label=<population &le; 15.5<br/>entropy = 0.592<br/>samples = 7<br/>value = [6, 1]<br/>class = poisonous>, fillcolor="#e58139d4"] ;
424 -> 425 ;
426 [label=<habitat &le; 9.0<br/>entropy = 0.918<br/>samples = 3<br/>value = [2, 1]<br/>class = poisonous>, fillcolor="#e581397f"] ;
425 -> 426 ;
427 [label=<entropy = 0.0<br/>samples = 1<br/>value = [1, 0]<br/>class = poisonous>, fillcolor="#e58139ff"] ;
426 -> 427 ;
428 [label=<capcolor &le; 23.0<br/>entropy = 1.0<br/>samples = 2<br/>value = [1, 1]<br/>class = poisonous>, fillcolor="#e5813900"] ;
426 -> 428 ;
429 [label=<entropy = 0.0<br/>samples = 1<br/>value = [0, 1]<br/>class = non-poisonous>, fillcolor="#399de5ff"] ;
428 -> 429 ;
430 [label=<entropy = 0.0<br/>samples = 1<br/>value = [1, 0]<br/>class = poisonous>, fillcolor="#e58139ff"] ;
428 -> 430 ;
431 [label=<entropy = 0.0<br/>samples = 4<br/>value = [4, 0]<br/>class = poisonous>, fillcolor="#e58139ff"] ;
425 -> 431 ;
432 [label=<entropy = 0.0<br/>samples = 9<br/>value = [9, 0]<br/>class = poisonous>, fillcolor="#e58139ff"] ;
424 -> 432 ;
433 [label=<entropy = 0.0<br/>samples = 23<br/>value = [23, 0]<br/>class = poisonous>, fillcolor="#e58139ff"] ;
423 -> 433 ;
434 [label=<stalkshape &le; 11.5<br/>entropy = 0.444<br/>samples = 1061<br/>value = [963, 98]<br/>class = poisonous>, fillcolor="#e58139e5"] ;
422 -> 434 ;
435 [label=<sporeprintcolor &le; 11.5<br/>entropy = 0.619<br/>samples = 39<br/>value = [33, 6]<br/>class = poisonous>, fillcolor="#e58139d1"] ;
434 -> 435 ;
436 [label=<capsurface &le; 21.0<br/>entropy = 0.863<br/>samples = 14<br/>value = [10, 4]<br/>class = poisonous>, fillcolor="#e5813999"] ;
435 -> 436 ;
437 [label=<gillcolor &le; 11.5<br/>entropy = 0.985<br/>samples = 7<br/>value = [4, 3]<br/>class = poisonous>, fillcolor="#e5813940"] ;
436 -> 437 ;
438 [label=<entropy = 0.0<br/>samples = 2<br/>value = [2, 0]<br/>class = poisonous>, fillcolor="#e58139ff"] ;
437 -> 438 ;
439 [label=<habitat &le; 9.0<br/>entropy = 0.971<br/>samples = 5<br/>value = [2, 3]<br/>class = non-poisonous>, fillcolor="#399de555"] ;
437 -> 439 ;
440 [label=<entropy = 0.0<br/>samples = 2<br/>value = [0, 2]<br/>class = non-poisonous>, fillcolor="#399de5ff"] ;
439 -> 440 ;
441 [label=<population &le; 15.5<br/>entropy = 0.918<br/>samples = 3<br/>value = [2, 1]<br/>class = poisonous>, fillcolor="#e581397f"] ;
439 -> 441 ;
442 [label=<entropy = 0.0<br/>samples = 1<br/>value = [0, 1]<br/>class = non-poisonous>, fillcolor="#399de5ff"] ;
441 -> 442 ;
443 [label=<entropy = 0.0<br/>samples = 2<br/>value = [2, 0]<br/>class = poisonous>, fillcolor="#e58139ff"] ;
441 -> 443 ;
444 [label=<gillcolor &le; 11.5<br/>entropy = 0.592<br/>samples = 7<br/>value = [6, 1]<br/>class = poisonous>, fillcolor="#e58139d4"] ;
436 -> 444 ;
445 [label=<capcolor &le; 23.0<br/>entropy = 1.0<br/>samples = 2<br/>value = [1, 1]<br/>class = poisonous>, fillcolor="#e5813900"] ;
444 -> 445 ;
446 [label=<entropy = 0.0<br/>samples = 1<br/>value = [0, 1]<br/>class = non-poisonous>, fillcolor="#399de5ff"] ;
445 -> 446 ;
447 [label=<entropy = 0.0<br/>samples = 1<br/>value = [1, 0]<br/>class = poisonous>, fillcolor="#e58139ff"] ;
445 -> 447 ;
448 [label=<entropy = 0.0<br/>samples = 5<br/>value = [5, 0]<br/>class = poisonous>, fillcolor="#e58139ff"] ;
444 -> 448 ;
449 [label=<gillcolor &le; 17.5<br/>entropy = 0.402<br/>samples = 25<br/>value = [23, 2]<br/>class = poisonous>, fillcolor="#e58139e9"] ;
435 -> 449 ;
450 [label=<entropy = 0.0<br/>samples = 14<br/>value = [14, 0]<br/>class = poisonous>, fillcolor="#e58139ff"] ;
449 -> 450 ;
451 [label=<habitat &le; 9.0<br/>entropy = 0.684<br/>samples = 11<br/>value = [9, 2]<br/>class = poisonous>, fillcolor="#e58139c6"] ;
449 -> 451 ;
452 [label=<entropy = 0.0<br/>samples = 5<br/>value = [5, 0]<br/>class = poisonous>, fillcolor="#e58139ff"] ;
451 -> 452 ;
453 [label=<population &le; 15.5<br/>entropy = 0.918<br/>samples = 6<br/>value = [4, 2]<br/>class = poisonous>, fillcolor="#e581397f"] ;
451 -> 453 ;
454 [label=<capsurface &le; 21.0<br/>entropy = 0.811<br/>samples = 4<br/>value = [3, 1]<br/>class = poisonous>, fillcolor="#e58139aa"] ;
453 -> 454 ;
455 [label=<entropy = 0.0<br/>samples = 2<br/>value = [2, 0]<br/>class = poisonous>, fillcolor="#e58139ff"] ;
454 -> 455 ;
456 [label=<capcolor &le; 23.0<br/>entropy = 1.0<br/>samples = 2<br/>value = [1, 1]<br/>class = poisonous>, fillcolor="#e5813900"] ;
454 -> 456 ;
457 [label=<entropy = 0.0<br/>samples = 1<br/>value = [0, 1]<br/>class = non-poisonous>, fillcolor="#399de5ff"] ;
456 -> 457 ;
458 [label=<entropy = 0.0<br/>samples = 1<br/>value = [1, 0]<br/>class = poisonous>, fillcolor="#e58139ff"] ;
456 -> 458 ;
459 [label=<capsurface &le; 21.0<br/>entropy = 1.0<br/>samples = 2<br/>value = [1, 1]<br/>class = poisonous>, fillcolor="#e5813900"] ;
453 -> 459 ;
460 [label=<entropy = 0.0<br/>samples = 1<br/>value = [0, 1]<br/>class = non-poisonous>, fillcolor="#399de5ff"] ;
459 -> 460 ;
461 [label=<entropy = 0.0<br/>samples = 1<br/>value = [1, 0]<br/>class = poisonous>, fillcolor="#e58139ff"] ;
459 -> 461 ;
462 [label=<capsurface &le; 11.5<br/>entropy = 0.437<br/>samples = 1022<br/>value = [930, 92]<br/>class = poisonous>, fillcolor="#e58139e6"] ;
434 -> 462 ;
463 [label=<stalksurfaceabovering &le; 11.5<br/>entropy = 0.476<br/>samples = 518<br/>value = [465, 53]<br/>class = poisonous>, fillcolor="#e58139e2"] ;
462 -> 463 ;
464 [label=<sporeprintcolor &le; 11.5<br/>entropy = 0.645<br/>samples = 73<br/>value = [61, 12]<br/>class = poisonous>, fillcolor="#e58139cd"] ;
463 -> 464 ;
465 [label=<gillcolor &le; 8.5<br/>entropy = 0.842<br/>samples = 37<br/>value = [27, 10]<br/>class = poisonous>, fillcolor="#e58139a1"] ;
464 -> 465 ;
466 [label=<capcolor &le; 9.5<br/>entropy = 0.971<br/>samples = 5<br/>value = [2, 3]<br/>class = non-poisonous>, fillcolor="#399de555"] ;
465 -> 466 ;
467 [label=<entropy = 0.0<br/>samples = 1<br/>value = [0, 1]<br/>class = non-poisonous>, fillcolor="#399de5ff"] ;
466 -> 467 ;
468 [label=<capshape &le; 14.0<br/>entropy = 1.0<br/>samples = 4<br/>value = [2, 2]<br/>class = poisonous>, fillcolor="#e5813900"] ;
466 -> 468 ;
469 [label=<entropy = 0.0<br/>samples = 1<br/>value = [1, 0]<br/>class = poisonous>, fillcolor="#e58139ff"] ;
468 -> 469 ;
470 [label=<stalksurfacebelowring &le; 11.5<br/>entropy = 0.918<br/>samples = 3<br/>value = [1, 2]<br/>class = non-poisonous>, fillcolor="#399de57f"] ;
468 -> 470 ;
471 [label=<capcolor &le; 17.5<br/>entropy = 1.0<br/>samples = 2<br/>value = [1, 1]<br/>class = poisonous>, fillcolor="#e5813900"] ;
470 -> 471 ;
472 [label=<entropy = 0.0<br/>samples = 1<br/>value = [1, 0]<br/>class = poisonous>, fillcolor="#e58139ff"] ;
471 -> 472 ;
473 [label=<entropy = 0.0<br/>samples = 1<br/>value = [0, 1]<br/>class = non-poisonous>, fillcolor="#399de5ff"] ;
471 -> 473 ;
474 [label=<entropy = 0.0<br/>samples = 1<br/>value = [0, 1]<br/>class = non-poisonous>, fillcolor="#399de5ff"] ;
470 -> 474 ;
475 [label=<gillcolor &le; 14.0<br/>entropy = 0.758<br/>samples = 32<br/>value = [25, 7]<br/>class = poisonous>, fillcolor="#e58139b8"] ;
465 -> 475 ;
476 [label=<gillcolor &le; 11.5<br/>entropy = 0.828<br/>samples = 23<br/>value = [17, 6]<br/>class = poisonous>, fillcolor="#e58139a5"] ;
475 -> 476 ;
477 [label=<capcolor &le; 9.5<br/>entropy = 0.722<br/>samples = 15<br/>value = [12, 3]<br/>class = poisonous>, fillcolor="#e58139bf"] ;
476 -> 477 ;
478 [label=<population &le; 9.0<br/>entropy = 0.918<br/>samples = 3<br/>value = [2, 1]<br/>class = poisonous>, fillcolor="#e581397f"] ;
477 -> 478 ;
479 [label=<stalksurfacebelowring &le; 11.5<br/>entropy = 1.0<br/>samples = 2<br/>value = [1, 1]<br/>class = poisonous>, fillcolor="#e5813900"] ;
478 -> 479 ;
480 [label=<entropy = 0.0<br/>samples = 1<br/>value = [1, 0]<br/>class = poisonous>, fillcolor="#e58139ff"] ;
479 -> 480 ;
481 [label=<entropy = 0.0<br/>samples = 1<br/>value = [0, 1]<br/>class = non-poisonous>, fillcolor="#399de5ff"] ;
479 -> 481 ;
482 [label=<entropy = 0.0<br/>samples = 1<br/>value = [1, 0]<br/>class = poisonous>, fillcolor="#e58139ff"] ;
478 -> 482 ;
483 [label=<capshape &le; 14.0<br/>entropy = 0.65<br/>samples = 12<br/>value = [10, 2]<br/>class = poisonous>, fillcolor="#e58139cc"] ;
477 -> 483 ;
484 [label=<stalksurfacebelowring &le; 11.5<br/>entropy = 0.722<br/>samples = 5<br/>value = [4, 1]<br/>class = poisonous>, fillcolor="#e58139bf"] ;
483 -> 484 ;
485 [label=<entropy = 0.0<br/>samples = 1<br/>value = [0, 1]<br/>class = non-poisonous>, fillcolor="#399de5ff"] ;
484 -> 485 ;
486 [label=<entropy = 0.0<br/>samples = 4<br/>value = [4, 0]<br/>class = poisonous>, fillcolor="#e58139ff"] ;
484 -> 486 ;
487 [label=<population &le; 9.0<br/>entropy = 0.592<br/>samples = 7<br/>value = [6, 1]<br/>class = poisonous>, fillcolor="#e58139d4"] ;
483 -> 487 ;
488 [label=<entropy = 0.0<br/>samples = 4<br/>value = [4, 0]<br/>class = poisonous>, fillcolor="#e58139ff"] ;
487 -> 488 ;
489 [label=<stalksurfacebelowring &le; 11.5<br/>entropy = 0.918<br/>samples = 3<br/>value = [2, 1]<br/>class = poisonous>, fillcolor="#e581397f"] ;
487 -> 489 ;
490 [label=<entropy = 0.0<br/>samples = 2<br/>value = [2, 0]<br/>class = poisonous>, fillcolor="#e58139ff"] ;
489 -> 490 ;
491 [label=<entropy = 0.0<br/>samples = 1<br/>value = [0, 1]<br/>class = non-poisonous>, fillcolor="#399de5ff"] ;
489 -> 491 ;
492 [label=<population &le; 9.0<br/>entropy = 0.954<br/>samples = 8<br/>value = [5, 3]<br/>class = poisonous>, fillcolor="#e5813966"] ;
476 -> 492 ;
493 [label=<capshape &le; 14.0<br/>entropy = 0.918<br/>samples = 3<br/>value = [1, 2]<br/>class = non-poisonous>, fillcolor="#399de57f"] ;
492 -> 493 ;
494 [label=<entropy = 0.0<br/>samples = 1<br/>value = [0, 1]<br/>class = non-poisonous>, fillcolor="#399de5ff"] ;
493 -> 494 ;
495 [label=<capcolor &le; 9.5<br/>entropy = 1.0<br/>samples = 2<br/>value = [1, 1]<br/>class = poisonous>, fillcolor="#e5813900"] ;
493 -> 495 ;
496 [label=<entropy = 0.0<br/>samples = 1<br/>value = [1, 0]<br/>class = poisonous>, fillcolor="#e58139ff"] ;
495 -> 496 ;
497 [label=<entropy = 0.0<br/>samples = 1<br/>value = [0, 1]<br/>class = non-poisonous>, fillcolor="#399de5ff"] ;
495 -> 497 ;
498 [label=<stalksurfacebelowring &le; 11.5<br/>entropy = 0.722<br/>samples = 5<br/>value = [4, 1]<br/>class = poisonous>, fillcolor="#e58139bf"] ;
492 -> 498 ;
499 [label=<entropy = 0.0<br/>samples = 2<br/>value = [2, 0]<br/>class = poisonous>, fillcolor="#e58139ff"] ;
498 -> 499 ;
500 [label=<capshape &le; 14.0<br/>entropy = 0.918<br/>samples = 3<br/>value = [2, 1]<br/>class = poisonous>, fillcolor="#e581397f"] ;
498 -> 500 ;
501 [label=<entropy = 0.0<br/>samples = 1<br/>value = [1, 0]<br/>class = poisonous>, fillcolor="#e58139ff"] ;
500 -> 501 ;
502 [label=<capcolor &le; 17.5<br/>entropy = 1.0<br/>samples = 2<br/>value = [1, 1]<br/>class = poisonous>, fillcolor="#e5813900"] ;
500 -> 502 ;
503 [label=<entropy = 0.0<br/>samples = 1<br/>value = [1, 0]<br/>class = poisonous>, fillcolor="#e58139ff"] ;
502 -> 503 ;
504 [label=<entropy = 0.0<br/>samples = 1<br/>value = [0, 1]<br/>class = non-poisonous>, fillcolor="#399de5ff"] ;
502 -> 504 ;
505 [label=<capshape &le; 14.0<br/>entropy = 0.503<br/>samples = 9<br/>value = [8, 1]<br/>class = poisonous>, fillcolor="#e58139df"] ;
475 -> 505 ;
506 [label=<entropy = 0.0<br/>samples = 7<br/>value = [7, 0]<br/>class = poisonous>, fillcolor="#e58139ff"] ;
505 -> 506 ;
507 [label=<capcolor &le; 17.5<br/>entropy = 1.0<br/>samples = 2<br/>value = [1, 1]<br/>class = poisonous>, fillcolor="#e5813900"] ;
505 -> 507 ;
508 [label=<entropy = 0.0<br/>samples = 1<br/>value = [1, 0]<br/>class = poisonous>, fillcolor="#e58139ff"] ;
507 -> 508 ;
509 [label=<entropy = 0.0<br/>samples = 1<br/>value = [0, 1]<br/>class = non-poisonous>, fillcolor="#399de5ff"] ;
507 -> 509 ;
510 [label=<population &le; 9.0<br/>entropy = 0.31<br/>samples = 36<br/>value = [34, 2]<br/>class = poisonous>, fillcolor="#e58139f0"] ;
464 -> 510 ;
511 [label=<entropy = 0.0<br/>samples = 18<br/>value = [18, 0]<br/>class = poisonous>, fillcolor="#e58139ff"] ;
510 -> 511 ;
512 [label=<stalksurfacebelowring &le; 11.5<br/>entropy = 0.503<br/>samples = 18<br/>value = [16, 2]<br/>class = poisonous>, fillcolor="#e58139df"] ;
510 -> 512 ;
513 [label=<entropy = 0.0<br/>samples = 6<br/>value = [6, 0]<br/>class = poisonous>, fillcolor="#e58139ff"] ;
512 -> 513 ;
514 [label=<capcolor &le; 17.5<br/>entropy = 0.65<br/>samples = 12<br/>value = [10, 2]<br/>class = poisonous>, fillcolor="#e58139cc"] ;
512 -> 514 ;
515 [label=<gillcolor &le; 14.0<br/>entropy = 0.469<br/>samples = 10<br/>value = [9, 1]<br/>class = poisonous>, fillcolor="#e58139e3"] ;
514 -> 515 ;
516 [label=<entropy = 0.0<br/>samples = 7<br/>value = [7, 0]<br/>class = poisonous>, fillcolor="#e58139ff"] ;
515 -> 516 ;
517 [label=<capcolor &le; 9.5<br/>entropy = 0.918<br/>samples = 3<br/>value = [2, 1]<br/>class = poisonous>, fillcolor="#e581397f"] ;
515 -> 517 ;
518 [label=<capshape &le; 14.0<br/>entropy = 1.0<br/>samples = 2<br/>value = [1, 1]<br/>class = poisonous>, fillcolor="#e5813900"] ;
517 -> 518 ;
519 [label=<entropy = 0.0<br/>samples = 1<br/>value = [0, 1]<br/>class = non-poisonous>, fillcolor="#399de5ff"] ;
518 -> 519 ;
520 [label=<entropy = 0.0<br/>samples = 1<br/>value = [1, 0]<br/>class = poisonous>, fillcolor="#e58139ff"] ;
518 -> 520 ;
521 [label=<entropy = 0.0<br/>samples = 1<br/>value = [1, 0]<br/>class = poisonous>, fillcolor="#e58139ff"] ;
517 -> 521 ;
522 [label=<gillcolor &le; 8.5<br/>entropy = 1.0<br/>samples = 2<br/>value = [1, 1]<br/>class = poisonous>, fillcolor="#e5813900"] ;
514 -> 522 ;
523 [label=<entropy = 0.0<br/>samples = 1<br/>value = [1, 0]<br/>class = poisonous>, fillcolor="#e58139ff"] ;
522 -> 523 ;
524 [label=<entropy = 0.0<br/>samples = 1<br/>value = [0, 1]<br/>class = non-poisonous>, fillcolor="#399de5ff"] ;
522 -> 524 ;
525 [label=<population &le; 22.5<br/>entropy = 0.444<br/>samples = 445<br/>value = [404, 41]<br/>class = poisonous>, fillcolor="#e58139e5"] ;
463 -> 525 ;
526 [label=<gillcolor &le; 21.0<br/>entropy = 0.384<br/>samples = 254<br/>value = [235, 19]<br/>class = poisonous>, fillcolor="#e58139ea"] ;
525 -> 526 ;
527 [label=<stalkcolorabovering &le; 10.5<br/>entropy = 0.426<br/>samples = 219<br/>value = [200, 19]<br/>class = poisonous>, fillcolor="#e58139e7"] ;
526 -> 527 ;
528 [label=<stalkcolorbelowring &le; 10.5<br/>entropy = 0.323<br/>samples = 51<br/>value = [48, 3]<br/>class = poisonous>, fillcolor="#e58139ef"] ;
527 -> 528 ;
529 [label=<entropy = 0.0<br/>samples = 17<br/>value = [17, 0]<br/>class = poisonous>, fillcolor="#e58139ff"] ;
528 -> 529 ;
530 [label=<stalkcolorbelowring &le; 18.5<br/>entropy = 0.431<br/>samples = 34<br/>value = [31, 3]<br/>class = poisonous>, fillcolor="#e58139e6"] ;
528 -> 530 ;
531 [label=<capcolor &le; 5.0<br/>entropy = 0.61<br/>samples = 20<br/>value = [17, 3]<br/>class = poisonous>, fillcolor="#e58139d2"] ;
530 -> 531 ;
532 [label=<capshape &le; 14.0<br/>entropy = 0.811<br/>samples = 8<br/>value = [6, 2]<br/>class = poisonous>, fillcolor="#e58139aa"] ;
531 -> 532 ;
533 [label=<gillcolor &le; 17.5<br/>entropy = 0.971<br/>samples = 5<br/>value = [3, 2]<br/>class = poisonous>, fillcolor="#e5813955"] ;
532 -> 533 ;
534 [label=<sporeprintcolor &le; 11.5<br/>entropy = 0.811<br/>samples = 4<br/>value = [3, 1]<br/>class = poisonous>, fillcolor="#e58139aa"] ;
533 -> 534 ;
535 [label=<gillcolor &le; 14.0<br/>entropy = 1.0<br/>samples = 2<br/>value = [1, 1]<br/>class = poisonous>, fillcolor="#e5813900"] ;
534 -> 535 ;
536 [label=<entropy = 0.0<br/>samples = 1<br/>value = [0, 1]<br/>class = non-poisonous>, fillcolor="#399de5ff"] ;
535 -> 536 ;
537 [label=<entropy = 0.0<br/>samples = 1<br/>value = [1, 0]<br/>class = poisonous>, fillcolor="#e58139ff"] ;
535 -> 537 ;
538 [label=<entropy = 0.0<br/>samples = 2<br/>value = [2, 0]<br/>class = poisonous>, fillcolor="#e58139ff"] ;
534 -> 538 ;
539 [label=<entropy = 0.0<br/>samples = 1<br/>value = [0, 1]<br/>class = non-poisonous>, fillcolor="#399de5ff"] ;
533 -> 539 ;
540 [label=<entropy = 0.0<br/>samples = 3<br/>value = [3, 0]<br/>class = poisonous>, fillcolor="#e58139ff"] ;
532 -> 540 ;
541 [label=<capshape &le; 14.0<br/>entropy = 0.414<br/>samples = 12<br/>value = [11, 1]<br/>class = poisonous>, fillcolor="#e58139e8"] ;
531 -> 541 ;
542 [label=<entropy = 0.0<br/>samples = 7<br/>value = [7, 0]<br/>class = poisonous>, fillcolor="#e58139ff"] ;
541 -> 542 ;
543 [label=<capcolor &le; 9.5<br/>entropy = 0.722<br/>samples = 5<br/>value = [4, 1]<br/>class = poisonous>, fillcolor="#e58139bf"] ;
541 -> 543 ;
544 [label=<entropy = 0.0<br/>samples = 3<br/>value = [3, 0]<br/>class = poisonous>, fillcolor="#e58139ff"] ;
543 -> 544 ;
545 [label=<gillcolor &le; 14.0<br/>entropy = 1.0<br/>samples = 2<br/>value = [1, 1]<br/>class = poisonous>, fillcolor="#e5813900"] ;
543 -> 545 ;
546 [label=<entropy = 0.0<br/>samples = 1<br/>value = [1, 0]<br/>class = poisonous>, fillcolor="#e58139ff"] ;
545 -> 546 ;
547 [label=<entropy = 0.0<br/>samples = 1<br/>value = [0, 1]<br/>class = non-poisonous>, fillcolor="#399de5ff"] ;
545 -> 547 ;
548 [label=<entropy = 0.0<br/>samples = 14<br/>value = [14, 0]<br/>class = poisonous>, fillcolor="#e58139ff"] ;
530 -> 548 ;
549 [label=<gillcolor &le; 17.5<br/>entropy = 0.454<br/>samples = 168<br/>value = [152, 16]<br/>class = poisonous>, fillcolor="#e58139e4"] ;
527 -> 549 ;
550 [label=<capcolor &le; 5.0<br/>entropy = 0.424<br/>samples = 139<br/>value = [127, 12]<br/>class = poisonous>, fillcolor="#e58139e7"] ;
549 -> 550 ;
551 [label=<stalkcolorabovering &le; 18.5<br/>entropy = 0.267<br/>samples = 22<br/>value = [21, 1]<br/>class = poisonous>, fillcolor="#e58139f3"] ;
550 -> 551 ;
552 [label=<gillcolor &le; 14.0<br/>entropy = 0.469<br/>samples = 10<br/>value = [9, 1]<br/>class = poisonous>, fillcolor="#e58139e3"] ;
551 -> 552 ;
553 [label=<sporeprintcolor &le; 11.5<br/>entropy = 0.65<br/>samples = 6<br/>value = [5, 1]<br/>class = poisonous>, fillcolor="#e58139cc"] ;
552 -> 553 ;
554 [label=<entropy = 0.0<br/>samples = 3<br/>value = [3, 0]<br/>class = poisonous>, fillcolor="#e58139ff"] ;
553 -> 554 ;
555 [label=<stalkcolorbelowring &le; 10.5<br/>entropy = 0.918<br/>samples = 3<br/>value = [2, 1]<br/>class = poisonous>, fillcolor="#e581397f"] ;
553 -> 555 ;
556 [label=<entropy = 0.0<br/>samples = 1<br/>value = [1, 0]<br/>class = poisonous>, fillcolor="#e58139ff"] ;
555 -> 556 ;
557 [label=<capshape &le; 14.0<br/>entropy = 1.0<br/>samples = 2<br/>value = [1, 1]<br/>class = poisonous>, fillcolor="#e5813900"] ;
555 -> 557 ;
558 [label=<entropy = 0.0<br/>samples = 1<br/>value = [1, 0]<br/>class = poisonous>, fillcolor="#e58139ff"] ;
557 -> 558 ;
559 [label=<entropy = 0.0<br/>samples = 1<br/>value = [0, 1]<br/>class = non-poisonous>, fillcolor="#399de5ff"] ;
557 -> 559 ;
560 [label=<entropy = 0.0<br/>samples = 4<br/>value = [4, 0]<br/>class = poisonous>, fillcolor="#e58139ff"] ;
552 -> 560 ;
561 [label=<entropy = 0.0<br/>samples = 12<br/>value = [12, 0]<br/>class = poisonous>, fillcolor="#e58139ff"] ;
551 -> 561 ;
562 [label=<habitat &le; 4.5<br/>entropy = 0.45<br/>samples = 117<br/>value = [106, 11]<br/>class = poisonous>, fillcolor="#e58139e5"] ;
550 -> 562 ;
563 [label=<capcolor &le; 9.5<br/>entropy = 0.533<br/>samples = 33<br/>value = [29, 4]<br/>class = poisonous>, fillcolor="#e58139dc"] ;
562 -> 563 ;
564 [label=<sporeprintcolor &le; 11.5<br/>entropy = 0.31<br/>samples = 18<br/>value = [17, 1]<br/>class = poisonous>, fillcolor="#e58139f0"] ;
563 -> 564 ;
565 [label=<gillcolor &le; 14.0<br/>entropy = 0.544<br/>samples = 8<br/>value = [7, 1]<br/>class = poisonous>, fillcolor="#e58139db"] ;
564 -> 565 ;
566 [label=<entropy = 0.0<br/>samples = 4<br/>value = [4, 0]<br/>class = poisonous>, fillcolor="#e58139ff"] ;
565 -> 566 ;
567 [label=<capshape &le; 14.0<br/>entropy = 0.811<br/>samples = 4<br/>value = [3, 1]<br/>class = poisonous>, fillcolor="#e58139aa"] ;
565 -> 567 ;
568 [label=<stalkcolorbelowring &le; 10.5<br/>entropy = 1.0<br/>samples = 2<br/>value = [1, 1]<br/>class = poisonous>, fillcolor="#e5813900"] ;
567 -> 568 ;
569 [label=<entropy = 0.0<br/>samples = 1<br/>value = [1, 0]<br/>class = poisonous>, fillcolor="#e58139ff"] ;
568 -> 569 ;
570 [label=<entropy = 0.0<br/>samples = 1<br/>value = [0, 1]<br/>class = non-poisonous>, fillcolor="#399de5ff"] ;
568 -> 570 ;
571 [label=<entropy = 0.0<br/>samples = 2<br/>value = [2, 0]<br/>class = poisonous>, fillcolor="#e58139ff"] ;
567 -> 571 ;
572 [label=<entropy = 0.0<br/>samples = 10<br/>value = [10, 0]<br/>class = poisonous>, fillcolor="#e58139ff"] ;
564 -> 572 ;
573 [label=<capshape &le; 14.0<br/>entropy = 0.722<br/>samples = 15<br/>value = [12, 3]<br/>class = poisonous>, fillcolor="#e58139bf"] ;
563 -> 573 ;
574 [label=<stalkcolorabovering &le; 18.5<br/>entropy = 0.503<br/>samples = 9<br/>value = [8, 1]<br/>class = poisonous>, fillcolor="#e58139df"] ;
573 -> 574 ;
575 [label=<entropy = 0.0<br/>samples = 5<br/>value = [5, 0]<br/>class = poisonous>, fillcolor="#e58139ff"] ;
574 -> 575 ;
576 [label=<stalkcolorbelowring &le; 18.5<br/>entropy = 0.811<br/>samples = 4<br/>value = [3, 1]<br/>class = poisonous>, fillcolor="#e58139aa"] ;
574 -> 576 ;
577 [label=<entropy = 0.0<br/>samples = 2<br/>value = [2, 0]<br/>class = poisonous>, fillcolor="#e58139ff"] ;
576 -> 577 ;
578 [label=<sporeprintcolor &le; 11.5<br/>entropy = 1.0<br/>samples = 2<br/>value = [1, 1]<br/>class = poisonous>, fillcolor="#e5813900"] ;
576 -> 578 ;
579 [label=<entropy = 0.0<br/>samples = 1<br/>value = [1, 0]<br/>class = poisonous>, fillcolor="#e58139ff"] ;
578 -> 579 ;
580 [label=<entropy = 0.0<br/>samples = 1<br/>value = [0, 1]<br/>class = non-poisonous>, fillcolor="#399de5ff"] ;
578 -> 580 ;
581 [label=<sporeprintcolor &le; 11.5<br/>entropy = 0.918<br/>samples = 6<br/>value = [4, 2]<br/>class = poisonous>, fillcolor="#e581397f"] ;
573 -> 581 ;
582 [label=<stalkcolorbelowring &le; 10.5<br/>entropy = 0.722<br/>samples = 5<br/>value = [4, 1]<br/>class = poisonous>, fillcolor="#e58139bf"] ;
581 -> 582 ;
583 [label=<entropy = 0.0<br/>samples = 1<br/>value = [0, 1]<br/>class = non-poisonous>, fillcolor="#399de5ff"] ;
582 -> 583 ;
584 [label=<entropy = 0.0<br/>samples = 4<br/>value = [4, 0]<br/>class = poisonous>, fillcolor="#e58139ff"] ;
582 -> 584 ;
585 [label=<entropy = 0.0<br/>samples = 1<br/>value = [0, 1]<br/>class = non-poisonous>, fillcolor="#399de5ff"] ;
581 -> 585 ;
586 [label=<capshape &le; 14.0<br/>entropy = 0.414<br/>samples = 84<br/>value = [77, 7]<br/>class = poisonous>, fillcolor="#e58139e8"] ;
562 -> 586 ;
587 [label=<sporeprintcolor &le; 11.5<br/>entropy = 0.496<br/>samples = 46<br/>value = [41, 5]<br/>class = poisonous>, fillcolor="#e58139e0"] ;
586 -> 587 ;
588 [label=<gillcolor &le; 11.5<br/>entropy = 0.629<br/>samples = 19<br/>value = [16, 3]<br/>class = poisonous>, fillcolor="#e58139cf"] ;
587 -> 588 ;
589 [label=<population &le; 9.0<br/>entropy = 0.863<br/>samples = 7<br/>value = [5, 2]<br/>class = poisonous>, fillcolor="#e5813999"] ;
588 -> 589 ;
590 [label=<entropy = 0.0<br/>samples = 4<br/>value = [4, 0]<br/>class = poisonous>, fillcolor="#e58139ff"] ;
589 -> 590 ;
591 [label=<gillcolor &le; 8.5<br/>entropy = 0.918<br/>samples = 3<br/>value = [1, 2]<br/>class = non-poisonous>, fillcolor="#399de57f"] ;
589 -> 591 ;
592 [label=<entropy = 0.0<br/>samples = 1<br/>value = [1, 0]<br/>class = poisonous>, fillcolor="#e58139ff"] ;
591 -> 592 ;
593 [label=<entropy = 0.0<br/>samples = 2<br/>value = [0, 2]<br/>class = non-poisonous>, fillcolor="#399de5ff"] ;
591 -> 593 ;
594 [label=<capcolor &le; 17.5<br/>entropy = 0.414<br/>samples = 12<br/>value = [11, 1]<br/>class = poisonous>, fillcolor="#e58139e8"] ;
588 -> 594 ;
595 [label=<entropy = 0.0<br/>samples = 8<br/>value = [8, 0]<br/>class = poisonous>, fillcolor="#e58139ff"] ;
594 -> 595 ;
596 [label=<stalksurfacebelowring &le; 11.5<br/>entropy = 0.811<br/>samples = 4<br/>value = [3, 1]<br/>class = poisonous>, fillcolor="#e58139aa"] ;
594 -> 596 ;
597 [label=<entropy = 0.0<br/>samples = 2<br/>value = [2, 0]<br/>class = poisonous>, fillcolor="#e58139ff"] ;
596 -> 597 ;
598 [label=<population &le; 9.0<br/>entropy = 1.0<br/>samples = 2<br/>value = [1, 1]<br/>class = poisonous>, fillcolor="#e5813900"] ;
596 -> 598 ;
599 [label=<entropy = 0.0<br/>samples = 1<br/>value = [0, 1]<br/>class = non-poisonous>, fillcolor="#399de5ff"] ;
598 -> 599 ;
600 [label=<entropy = 0.0<br/>samples = 1<br/>value = [1, 0]<br/>class = poisonous>, fillcolor="#e58139ff"] ;
598 -> 600 ;
601 [label=<population &le; 9.0<br/>entropy = 0.381<br/>samples = 27<br/>value = [25, 2]<br/>class = poisonous>, fillcolor="#e58139eb"] ;
587 -> 601 ;
602 [label=<gillcolor &le; 14.0<br/>entropy = 0.619<br/>samples = 13<br/>value = [11, 2]<br/>class = poisonous>, fillcolor="#e58139d1"] ;
601 -> 602 ;
603 [label=<capcolor &le; 17.5<br/>entropy = 0.764<br/>samples = 9<br/>value = [7, 2]<br/>class = poisonous>, fillcolor="#e58139b6"] ;
602 -> 603 ;
604 [label=<stalksurfacebelowring &le; 11.5<br/>entropy = 0.918<br/>samples = 6<br/>value = [4, 2]<br/>class = poisonous>, fillcolor="#e581397f"] ;
603 -> 604 ;
605 [label=<capcolor &le; 9.5<br/>entropy = 1.0<br/>samples = 4<br/>value = [2, 2]<br/>class = poisonous>, fillcolor="#e5813900"] ;
604 -> 605 ;
606 [label=<entropy = 0.0<br/>samples = 1<br/>value = [1, 0]<br/>class = poisonous>, fillcolor="#e58139ff"] ;
605 -> 606 ;
607 [label=<gillcolor &le; 8.5<br/>entropy = 0.918<br/>samples = 3<br/>value = [1, 2]<br/>class = non-poisonous>, fillcolor="#399de57f"] ;
605 -> 607 ;
608 [label=<entropy = 0.0<br/>samples = 1<br/>value = [0, 1]<br/>class = non-poisonous>, fillcolor="#399de5ff"] ;
607 -> 608 ;
609 [label=<gillcolor &le; 11.5<br/>entropy = 1.0<br/>samples = 2<br/>value = [1, 1]<br/>class = poisonous>, fillcolor="#e5813900"] ;
607 -> 609 ;
610 [label=<entropy = 0.0<br/>samples = 1<br/>value = [1, 0]<br/>class = poisonous>, fillcolor="#e58139ff"] ;
609 -> 610 ;
611 [label=<entropy = 0.0<br/>samples = 1<br/>value = [0, 1]<br/>class = non-poisonous>, fillcolor="#399de5ff"] ;
609 -> 611 ;
612 [label=<entropy = 0.0<br/>samples = 2<br/>value = [2, 0]<br/>class = poisonous>, fillcolor="#e58139ff"] ;
604 -> 612 ;
613 [label=<entropy = 0.0<br/>samples = 3<br/>value = [3, 0]<br/>class = poisonous>, fillcolor="#e58139ff"] ;
603 -> 613 ;
614 [label=<entropy = 0.0<br/>samples = 4<br/>value = [4, 0]<br/>class = poisonous>, fillcolor="#e58139ff"] ;
602 -> 614 ;
615 [label=<entropy = 0.0<br/>samples = 14<br/>value = [14, 0]<br/>class = poisonous>, fillcolor="#e58139ff"] ;
601 -> 615 ;
616 [label=<capcolor &le; 9.5<br/>entropy = 0.297<br/>samples = 38<br/>value = [36, 2]<br/>class = poisonous>, fillcolor="#e58139f1"] ;
586 -> 616 ;
617 [label=<sporeprintcolor &le; 11.5<br/>entropy = 0.544<br/>samples = 16<br/>value = [14, 2]<br/>class = poisonous>, fillcolor="#e58139db"] ;
616 -> 617 ;
618 [label=<entropy = 0.0<br/>samples = 8<br/>value = [8, 0]<br/>class = poisonous>, fillcolor="#e58139ff"] ;
617 -> 618 ;
619 [label=<gillcolor &le; 11.5<br/>entropy = 0.811<br/>samples = 8<br/>value = [6, 2]<br/>class = poisonous>, fillcolor="#e58139aa"] ;
617 -> 619 ;
620 [label=<population &le; 9.0<br/>entropy = 0.65<br/>samples = 6<br/>value = [5, 1]<br/>class = poisonous>, fillcolor="#e58139cc"] ;
619 -> 620 ;
621 [label=<gillcolor &le; 8.5<br/>entropy = 0.918<br/>samples = 3<br/>value = [2, 1]<br/>class = poisonous>, fillcolor="#e581397f"] ;
620 -> 621 ;
622 [label=<stalksurfacebelowring &le; 11.5<br/>entropy = 1.0<br/>samples = 2<br/>value = [1, 1]<br/>class = poisonous>, fillcolor="#e5813900"] ;
621 -> 622 ;
623 [label=<entropy = 0.0<br/>samples = 1<br/>value = [0, 1]<br/>class = non-poisonous>, fillcolor="#399de5ff"] ;
622 -> 623 ;
624 [label=<entropy = 0.0<br/>samples = 1<br/>value = [1, 0]<br/>class = poisonous>, fillcolor="#e58139ff"] ;
622 -> 624 ;
625 [label=<entropy = 0.0<br/>samples = 1<br/>value = [1, 0]<br/>class = poisonous>, fillcolor="#e58139ff"] ;
621 -> 625 ;
626 [label=<entropy = 0.0<br/>samples = 3<br/>value = [3, 0]<br/>class = poisonous>, fillcolor="#e58139ff"] ;
620 -> 626 ;
627 [label=<stalksurfacebelowring &le; 11.5<br/>entropy = 1.0<br/>samples = 2<br/>value = [1, 1]<br/>class = poisonous>, fillcolor="#e5813900"] ;
619 -> 627 ;
628 [label=<entropy = 0.0<br/>samples = 1<br/>value = [1, 0]<br/>class = poisonous>, fillcolor="#e58139ff"] ;
627 -> 628 ;
629 [label=<entropy = 0.0<br/>samples = 1<br/>value = [0, 1]<br/>class = non-poisonous>, fillcolor="#399de5ff"] ;
627 -> 629 ;
630 [label=<entropy = 0.0<br/>samples = 22<br/>value = [22, 0]<br/>class = poisonous>, fillcolor="#e58139ff"] ;
616 -> 630 ;
631 [label=<stalkcolorbelowring &le; 10.5<br/>entropy = 0.579<br/>samples = 29<br/>value = [25, 4]<br/>class = poisonous>, fillcolor="#e58139d6"] ;
549 -> 631 ;
632 [label=<capcolor &le; 9.5<br/>entropy = 0.779<br/>samples = 13<br/>value = [10, 3]<br/>class = poisonous>, fillcolor="#e58139b3"] ;
631 -> 632 ;
633 [label=<sporeprintcolor &le; 11.5<br/>entropy = 0.881<br/>samples = 10<br/>value = [7, 3]<br/>class = poisonous>, fillcolor="#e5813992"] ;
632 -> 633 ;
634 [label=<capshape &le; 14.0<br/>entropy = 1.0<br/>samples = 4<br/>value = [2, 2]<br/>class = poisonous>, fillcolor="#e5813900"] ;
633 -> 634 ;
635 [label=<stalkcolorabovering &le; 18.5<br/>entropy = 0.918<br/>samples = 3<br/>value = [1, 2]<br/>class = non-poisonous>, fillcolor="#399de57f"] ;
634 -> 635 ;
636 [label=<capcolor &le; 5.0<br/>entropy = 1.0<br/>samples = 2<br/>value = [1, 1]<br/>class = poisonous>, fillcolor="#e5813900"] ;
635 -> 636 ;
637 [label=<entropy = 0.0<br/>samples = 1<br/>value = [0, 1]<br/>class = non-poisonous>, fillcolor="#399de5ff"] ;
636 -> 637 ;
638 [label=<entropy = 0.0<br/>samples = 1<br/>value = [1, 0]<br/>class = poisonous>, fillcolor="#e58139ff"] ;
636 -> 638 ;
639 [label=<entropy = 0.0<br/>samples = 1<br/>value = [0, 1]<br/>class = non-poisonous>, fillcolor="#399de5ff"] ;
635 -> 639 ;
640 [label=<entropy = 0.0<br/>samples = 1<br/>value = [1, 0]<br/>class = poisonous>, fillcolor="#e58139ff"] ;
634 -> 640 ;
641 [label=<capshape &le; 14.0<br/>entropy = 0.65<br/>samples = 6<br/>value = [5, 1]<br/>class = poisonous>, fillcolor="#e58139cc"] ;
633 -> 641 ;
642 [label=<entropy = 0.0<br/>samples = 4<br/>value = [4, 0]<br/>class = poisonous>, fillcolor="#e58139ff"] ;
641 -> 642 ;
643 [label=<stalkcolorabovering &le; 18.5<br/>entropy = 1.0<br/>samples = 2<br/>value = [1, 1]<br/>class = poisonous>, fillcolor="#e5813900"] ;
641 -> 643 ;
644 [label=<entropy = 0.0<br/>samples = 1<br/>value = [0, 1]<br/>class = non-poisonous>, fillcolor="#399de5ff"] ;
643 -> 644 ;
645 [label=<entropy = 0.0<br/>samples = 1<br/>value = [1, 0]<br/>class = poisonous>, fillcolor="#e58139ff"] ;
643 -> 645 ;
646 [label=<entropy = 0.0<br/>samples = 3<br/>value = [3, 0]<br/>class = poisonous>, fillcolor="#e58139ff"] ;
632 -> 646 ;
647 [label=<stalkcolorbelowring &le; 18.5<br/>entropy = 0.337<br/>samples = 16<br/>value = [15, 1]<br/>class = poisonous>, fillcolor="#e58139ee"] ;
631 -> 647 ;
648 [label=<entropy = 0.0<br/>samples = 10<br/>value = [10, 0]<br/>class = poisonous>, fillcolor="#e58139ff"] ;
647 -> 648 ;
649 [label=<capcolor &le; 9.5<br/>entropy = 0.65<br/>samples = 6<br/>value = [5, 1]<br/>class = poisonous>, fillcolor="#e58139cc"] ;
647 -> 649 ;
650 [label=<entropy = 0.0<br/>samples = 4<br/>value = [4, 0]<br/>class = poisonous>, fillcolor="#e58139ff"] ;
649 -> 650 ;
651 [label=<capshape &le; 14.0<br/>entropy = 1.0<br/>samples = 2<br/>value = [1, 1]<br/>class = poisonous>, fillcolor="#e5813900"] ;
649 -> 651 ;
652 [label=<entropy = 0.0<br/>samples = 1<br/>value = [0, 1]<br/>class = non-poisonous>, fillcolor="#399de5ff"] ;
651 -> 652 ;
653 [label=<entropy = 0.0<br/>samples = 1<br/>value = [1, 0]<br/>class = poisonous>, fillcolor="#e58139ff"] ;
651 -> 653 ;
654 [label=<entropy = 0.0<br/>samples = 35<br/>value = [35, 0]<br/>class = poisonous>, fillcolor="#e58139ff"] ;
526 -> 654 ;
655 [label=<capcolor &le; 9.5<br/>entropy = 0.515<br/>samples = 191<br/>value = [169, 22]<br/>class = poisonous>, fillcolor="#e58139de"] ;
525 -> 655 ;
656 [label=<gillcolor &le; 17.5<br/>entropy = 0.565<br/>samples = 128<br/>value = [111, 17]<br/>class = poisonous>, fillcolor="#e58139d8"] ;
655 -> 656 ;
657 [label=<stalkcolorbelowring &le; 10.5<br/>entropy = 0.498<br/>samples = 64<br/>value = [57, 7]<br/>class = poisonous>, fillcolor="#e58139e0"] ;
656 -> 657 ;
658 [label=<capcolor &le; 5.0<br/>entropy = 0.629<br/>samples = 19<br/>value = [16, 3]<br/>class = poisonous>, fillcolor="#e58139cf"] ;
657 -> 658 ;
659 [label=<stalkcolorabovering &le; 18.5<br/>entropy = 0.811<br/>samples = 8<br/>value = [6, 2]<br/>class = poisonous>, fillcolor="#e58139aa"] ;
658 -> 659 ;
660 [label=<sporeprintcolor &le; 11.5<br/>entropy = 0.918<br/>samples = 6<br/>value = [4, 2]<br/>class = poisonous>, fillcolor="#e581397f"] ;
659 -> 660 ;
661 [label=<stalkcolorabovering &le; 10.5<br/>entropy = 0.811<br/>samples = 4<br/>value = [3, 1]<br/>class = poisonous>, fillcolor="#e58139aa"] ;
660 -> 661 ;
662 [label=<entropy = 0.0<br/>samples = 2<br/>value = [2, 0]<br/>class = poisonous>, fillcolor="#e58139ff"] ;
661 -> 662 ;
663 [label=<gillcolor &le; 14.0<br/>entropy = 1.0<br/>samples = 2<br/>value = [1, 1]<br/>class = poisonous>, fillcolor="#e5813900"] ;
661 -> 663 ;
664 [label=<entropy = 0.0<br/>samples = 1<br/>value = [1, 0]<br/>class = poisonous>, fillcolor="#e58139ff"] ;
663 -> 664 ;
665 [label=<entropy = 0.0<br/>samples = 1<br/>value = [0, 1]<br/>class = non-poisonous>, fillcolor="#399de5ff"] ;
663 -> 665 ;
666 [label=<capshape &le; 14.0<br/>entropy = 1.0<br/>samples = 2<br/>value = [1, 1]<br/>class = poisonous>, fillcolor="#e5813900"] ;
660 -> 666 ;
667 [label=<entropy = 0.0<br/>samples = 1<br/>value = [1, 0]<br/>class = poisonous>, fillcolor="#e58139ff"] ;
666 -> 667 ;
668 [label=<entropy = 0.0<br/>samples = 1<br/>value = [0, 1]<br/>class = non-poisonous>, fillcolor="#399de5ff"] ;
666 -> 668 ;
669 [label=<entropy = 0.0<br/>samples = 2<br/>value = [2, 0]<br/>class = poisonous>, fillcolor="#e58139ff"] ;
659 -> 669 ;
670 [label=<stalkcolorabovering &le; 18.5<br/>entropy = 0.439<br/>samples = 11<br/>value = [10, 1]<br/>class = poisonous>, fillcolor="#e58139e6"] ;
658 -> 670 ;
671 [label=<entropy = 0.0<br/>samples = 7<br/>value = [7, 0]<br/>class = poisonous>, fillcolor="#e58139ff"] ;
670 -> 671 ;
672 [label=<sporeprintcolor &le; 11.5<br/>entropy = 0.811<br/>samples = 4<br/>value = [3, 1]<br/>class = poisonous>, fillcolor="#e58139aa"] ;
670 -> 672 ;
673 [label=<entropy = 0.0<br/>samples = 3<br/>value = [3, 0]<br/>class = poisonous>, fillcolor="#e58139ff"] ;
672 -> 673 ;
674 [label=<entropy = 0.0<br/>samples = 1<br/>value = [0, 1]<br/>class = non-poisonous>, fillcolor="#399de5ff"] ;
672 -> 674 ;
675 [label=<capshape &le; 14.0<br/>entropy = 0.433<br/>samples = 45<br/>value = [41, 4]<br/>class = poisonous>, fillcolor="#e58139e6"] ;
657 -> 675 ;
676 [label=<stalkcolorabovering &le; 10.5<br/>entropy = 0.579<br/>samples = 29<br/>value = [25, 4]<br/>class = poisonous>, fillcolor="#e58139d6"] ;
675 -> 676 ;
677 [label=<gillcolor &le; 14.0<br/>entropy = 0.469<br/>samples = 10<br/>value = [9, 1]<br/>class = poisonous>, fillcolor="#e58139e3"] ;
676 -> 677 ;
678 [label=<capcolor &le; 5.0<br/>entropy = 0.811<br/>samples = 4<br/>value = [3, 1]<br/>class = poisonous>, fillcolor="#e58139aa"] ;
677 -> 678 ;
679 [label=<entropy = 0.0<br/>samples = 2<br/>value = [2, 0]<br/>class = poisonous>, fillcolor="#e58139ff"] ;
678 -> 679 ;
680 [label=<stalkcolorbelowring &le; 18.5<br/>entropy = 1.0<br/>samples = 2<br/>value = [1, 1]<br/>class = poisonous>, fillcolor="#e5813900"] ;
678 -> 680 ;
681 [label=<entropy = 0.0<br/>samples = 1<br/>value = [0, 1]<br/>class = non-poisonous>, fillcolor="#399de5ff"] ;
680 -> 681 ;
682 [label=<entropy = 0.0<br/>samples = 1<br/>value = [1, 0]<br/>class = poisonous>, fillcolor="#e58139ff"] ;
680 -> 682 ;
683 [label=<entropy = 0.0<br/>samples = 6<br/>value = [6, 0]<br/>class = poisonous>, fillcolor="#e58139ff"] ;
677 -> 683 ;
684 [label=<gillcolor &le; 14.0<br/>entropy = 0.629<br/>samples = 19<br/>value = [16, 3]<br/>class = poisonous>, fillcolor="#e58139cf"] ;
676 -> 684 ;
685 [label=<entropy = 0.0<br/>samples = 6<br/>value = [6, 0]<br/>class = poisonous>, fillcolor="#e58139ff"] ;
684 -> 685 ;
686 [label=<sporeprintcolor &le; 11.5<br/>entropy = 0.779<br/>samples = 13<br/>value = [10, 3]<br/>class = poisonous>, fillcolor="#e58139b3"] ;
684 -> 686 ;
687 [label=<stalkcolorbelowring &le; 18.5<br/>entropy = 0.918<br/>samples = 6<br/>value = [4, 2]<br/>class = poisonous>, fillcolor="#e581397f"] ;
686 -> 687 ;
688 [label=<entropy = 0.0<br/>samples = 3<br/>value = [3, 0]<br/>class = poisonous>, fillcolor="#e58139ff"] ;
687 -> 688 ;
689 [label=<capcolor &le; 5.0<br/>entropy = 0.918<br/>samples = 3<br/>value = [1, 2]<br/>class = non-poisonous>, fillcolor="#399de57f"] ;
687 -> 689 ;
690 [label=<entropy = 0.0<br/>samples = 2<br/>value = [0, 2]<br/>class = non-poisonous>, fillcolor="#399de5ff"] ;
689 -> 690 ;
691 [label=<entropy = 0.0<br/>samples = 1<br/>value = [1, 0]<br/>class = poisonous>, fillcolor="#e58139ff"] ;
689 -> 691 ;
692 [label=<capcolor &le; 5.0<br/>entropy = 0.592<br/>samples = 7<br/>value = [6, 1]<br/>class = poisonous>, fillcolor="#e58139d4"] ;
686 -> 692 ;
693 [label=<entropy = 0.0<br/>samples = 4<br/>value = [4, 0]<br/>class = poisonous>, fillcolor="#e58139ff"] ;
692 -> 693 ;
694 [label=<stalkcolorbelowring &le; 18.5<br/>entropy = 0.918<br/>samples = 3<br/>value = [2, 1]<br/>class = poisonous>, fillcolor="#e581397f"] ;
692 -> 694 ;
695 [label=<entropy = 0.0<br/>samples = 1<br/>value = [0, 1]<br/>class = non-poisonous>, fillcolor="#399de5ff"] ;
694 -> 695 ;
696 [label=<entropy = 0.0<br/>samples = 2<br/>value = [2, 0]<br/>class = poisonous>, fillcolor="#e58139ff"] ;
694 -> 696 ;
697 [label=<entropy = 0.0<br/>samples = 16<br/>value = [16, 0]<br/>class = poisonous>, fillcolor="#e58139ff"] ;
675 -> 697 ;
698 [label=<stalkcolorbelowring &le; 10.5<br/>entropy = 0.625<br/>samples = 64<br/>value = [54, 10]<br/>class = poisonous>, fillcolor="#e58139d0"] ;
656 -> 698 ;
699 [label=<capcolor &le; 5.0<br/>entropy = 0.439<br/>samples = 22<br/>value = [20, 2]<br/>class = poisonous>, fillcolor="#e58139e6"] ;
698 -> 699 ;
700 [label=<entropy = 0.0<br/>samples = 11<br/>value = [11, 0]<br/>class = poisonous>, fillcolor="#e58139ff"] ;
699 -> 700 ;
701 [label=<capshape &le; 14.0<br/>entropy = 0.684<br/>samples = 11<br/>value = [9, 2]<br/>class = poisonous>, fillcolor="#e58139c6"] ;
699 -> 701 ;
702 [label=<entropy = 0.0<br/>samples = 5<br/>value = [5, 0]<br/>class = poisonous>, fillcolor="#e58139ff"] ;
701 -> 702 ;
703 [label=<stalkcolorabovering &le; 10.5<br/>entropy = 0.918<br/>samples = 6<br/>value = [4, 2]<br/>class = poisonous>, fillcolor="#e581397f"] ;
701 -> 703 ;
704 [label=<entropy = 0.0<br/>samples = 1<br/>value = [1, 0]<br/>class = poisonous>, fillcolor="#e58139ff"] ;
703 -> 704 ;
705 [label=<stalkcolorabovering &le; 18.5<br/>entropy = 0.971<br/>samples = 5<br/>value = [3, 2]<br/>class = poisonous>, fillcolor="#e5813955"] ;
703 -> 705 ;
706 [label=<gillcolor &le; 21.0<br/>entropy = 1.0<br/>samples = 4<br/>value = [2, 2]<br/>class = poisonous>, fillcolor="#e5813900"] ;
705 -> 706 ;
707 [label=<sporeprintcolor &le; 11.5<br/>entropy = 1.0<br/>samples = 2<br/>value = [1, 1]<br/>class = poisonous>, fillcolor="#e5813900"] ;
706 -> 707 ;
708 [label=<entropy = 0.0<br/>samples = 1<br/>value = [1, 0]<br/>class = poisonous>, fillcolor="#e58139ff"] ;
707 -> 708 ;
709 [label=<entropy = 0.0<br/>samples = 1<br/>value = [0, 1]<br/>class = non-poisonous>, fillcolor="#399de5ff"] ;
707 -> 709 ;
710 [label=<sporeprintcolor &le; 11.5<br/>entropy = 1.0<br/>samples = 2<br/>value = [1, 1]<br/>class = poisonous>, fillcolor="#e5813900"] ;
706 -> 710 ;
711 [label=<entropy = 0.0<br/>samples = 1<br/>value = [0, 1]<br/>class = non-poisonous>, fillcolor="#399de5ff"] ;
710 -> 711 ;
712 [label=<entropy = 0.0<br/>samples = 1<br/>value = [1, 0]<br/>class = poisonous>, fillcolor="#e58139ff"] ;
710 -> 712 ;
713 [label=<entropy = 0.0<br/>samples = 1<br/>value = [1, 0]<br/>class = poisonous>, fillcolor="#e58139ff"] ;
705 -> 713 ;
714 [label=<stalkcolorabovering &le; 18.5<br/>entropy = 0.702<br/>samples = 42<br/>value = [34, 8]<br/>class = poisonous>, fillcolor="#e58139c3"] ;
698 -> 714 ;
715 [label=<sporeprintcolor &le; 11.5<br/>entropy = 0.634<br/>samples = 25<br/>value = [21, 4]<br/>class = poisonous>, fillcolor="#e58139ce"] ;
714 -> 715 ;
716 [label=<stalkcolorbelowring &le; 18.5<br/>entropy = 0.469<br/>samples = 10<br/>value = [9, 1]<br/>class = poisonous>, fillcolor="#e58139e3"] ;
715 -> 716 ;
717 [label=<entropy = 0.0<br/>samples = 6<br/>value = [6, 0]<br/>class = poisonous>, fillcolor="#e58139ff"] ;
716 -> 717 ;
718 [label=<gillcolor &le; 21.0<br/>entropy = 0.811<br/>samples = 4<br/>value = [3, 1]<br/>class = poisonous>, fillcolor="#e58139aa"] ;
716 -> 718 ;
