digraph Tree {
node [shape=box, style="filled, rounded", color="black", fontname=helvetica] ;
edge [fontname=helvetica] ;
0 [label=<sporeprintcolor &le; 8.5<br/>entropy = 0.97<br/>samples = 2257<br/>value = [1359, 898]<br/>class = poisonous>, fillcolor="#e5813957"] ;
1 [label=<stalkcolorbelowring &le; 14.0<br/>entropy = 0.469<br/>samples = 629<br/>value = [63, 566]<br/>class = non-poisonous>, fillcolor="#399de5e3"] ;
0 -> 1 [labeldistance=2.5, labelangle=45, headlabel="True"] ;
2 [label=<stalkcolorabovering &le; 14.0<br/>entropy = 0.326<br/>samples = 336<br/>value = [20, 316]<br/>class = non-poisonous>, fillcolor="#399de5ef"] ;
1 -> 2 ;
3 [label=<capcolor &le; 15.0<br/>entropy = 0.201<br/>samples = 224<br/>value = [7, 217]<br/>class = non-poisonous>, fillcolor="#399de5f7"] ;
2 -> 3 ;
4 [label=<gillcolor &le; 6.5<br/>entropy = 0.305<br/>samples = 110<br/>value = [6, 104]<br/>class = non-poisonous>, fillcolor="#399de5f0"] ;
3 -> 4 ;
5 [label=<habitat &le; 4.5<br/>entropy = 0.172<br/>samples = 39<br/>value = [1, 38]<br/>class = non-poisonous>, fillcolor="#399de5f8"] ;
4 -> 5 ;
6 [label=<stalkcolorbelowring &le; 7.0<br/>entropy = 0.414<br/>samples = 12<br/>value = [1, 11]<br/>class = non-poisonous>, fillcolor="#399de5e8"] ;
5 -> 6 ;
7 [label=<entropy = 0.0<br/>samples = 7<br/>value = [0, 7]<br/>class = non-poisonous>, fillcolor="#399de5ff"] ;
6 -> 7 ;
8 [label=<capsurface &le; 14.5<br/>entropy = 0.722<br/>samples = 5<br/>value = [1, 4]<br/>class = non-poisonous>, fillcolor="#399de5bf"] ;
6 -> 8 ;
9 [label=<entropy = 0.918<br/>samples = 3<br/>value = [1, 2]<br/>class = non-poisonous>, fillcolor="#399de57f"] ;
8 -> 9 ;
10 [label=<entropy = 0.0<br/>samples = 2<br/>value = [0, 2]<br/>class = non-poisonous>, fillcolor="#399de5ff"] ;
8 -> 10 ;
11 [label=<entropy = 0.0<br/>samples = 27<br/>value = [0, 27]<br/>class = non-poisonous>, fillcolor="#399de5ff"] ;
5 -> 11 ;
12 [label=<habitat &le; 4.5<br/>entropy = 0.367<br/>samples = 71<br/>value = [5, 66]<br/>class = non-poisonous>, fillcolor="#399de5ec"] ;
4 -> 12 ;
13 [label=<entropy = 0.0<br/>samples = 22<br/>value = [0, 22]<br/>class = non-poisonous>, fillcolor="#399de5ff"] ;
12 -> 13 ;
14 [label=<stalkcolorabovering &le; 7.0<br/>entropy = 0.475<br/>samples = 49<br/>value = [5, 44]<br/>class = non-poisonous>, fillcolor="#399de5e2"] ;
12 -> 14 ;
15 [label=<population &le; 22.5<br/>entropy = 0.235<br/>samples = 26<br/>value = [1, 25]<br/>class = non-poisonous>, fillcolor="#399de5f5"] ;
14 -> 15 ;
16 [label=<entropy = 0.0<br/>samples = 14<br/>value = [0, 14]<br/>class = non-poisonous>, fillcolor="#399de5ff"] ;
15 -> 16 ;
17 [label=<stalkcolorbelowring &le; 7.0<br/>entropy = 0.414<br/>samples = 12<br/>value = [1, 11]<br/>class = non-poisonous>, fillcolor="#399de5e8"] ;
15 -> 17 ;
18 [label=<habitat &le; 10.5<br/>entropy = 0.722<br/>samples = 5<br/>value = [1, 4]<br/>class = non-poisonous>, fillcolor="#399de5bf"] ;
17 -> 18 ;
19 [label=<entropy = 0.0<br/>samples = 2<br/>value = [0, 2]<br/>class = non-poisonous>, fillcolor="#399de5ff"] ;
18 -> 19 ;
20 [label=<entropy = 0.918<br/>samples = 3<br/>value = [1, 2]<br/>class = non-poisonous>, fillcolor="#399de57f"] ;
18 -> 20 ;
21 [label=<entropy = 0.0<br/>samples = 7<br/>value = [0, 7]<br/>class = non-poisonous>, fillcolor="#399de5ff"] ;
17 -> 21 ;
22 [label=<population &le; 22.5<br/>entropy = 0.667<br/>samples = 23<br/>value = [4, 19]<br/>class = non-poisonous>, fillcolor="#399de5c9"] ;
14 -> 22 ;
23 [label=<capshape &le; 14.0<br/>entropy = 0.918<br/>samples = 12<br/>value = [4, 8]<br/>class = non-poisonous>, fillcolor="#399de57f"] ;
22 -> 23 ;
24 [label=<entropy = 1.0<br/>samples = 4<br/>value = [2, 2]<br/>class = poisonous>, fillcolor="#e5813900"] ;
23 -> 24 ;
25 [label=<capsurface &le; 14.5<br/>entropy = 0.811<br/>samples = 8<br/>value = [2, 6]<br/>class = non-poisonous>, fillcolor="#399de5aa"] ;
23 -> 25 ;
26 [label=<entropy = 0.0<br/>samples = 3<br/>value = [0, 3]<br/>class = non-poisonous>, fillcolor="#399de5ff"] ;
25 -> 26 ;
27 [label=<stalkcolorbelowring &le; 7.0<br/>entropy = 0.971<br/>samples = 5<br/>value = [2, 3]<br/>class = non-poisonous>, fillcolor="#399de555"] ;
25 -> 27 ;
28 [label=<entropy = 0.0<br/>samples = 2<br/>value = [0, 2]<br/>class = non-poisonous>, fillcolor="#399de5ff"] ;
27 -> 28 ;
29 [label=<entropy = 0.918<br/>samples = 3<br/>value = [2, 1]<br/>class = poisonous>, fillcolor="#e581397f"] ;
27 -> 29 ;
30 [label=<entropy = 0.0<br/>samples = 11<br/>value = [0, 11]<br/>class = non-poisonous>, fillcolor="#399de5ff"] ;
22 -> 30 ;
31 [label=<habitat &le; 10.5<br/>entropy = 0.073<br/>samples = 114<br/>value = [1, 113]<br/>class = non-poisonous>, fillcolor="#399de5fd"] ;
3 -> 31 ;
32 [label=<entropy = 0.0<br/>samples = 73<br/>value = [0, 73]<br/>class = non-poisonous>, fillcolor="#399de5ff"] ;
31 -> 32 ;
33 [label=<gillcolor &le; 11.0<br/>entropy = 0.165<br/>samples = 41<br/>value = [1, 40]<br/>class = non-poisonous>, fillcolor="#399de5f9"] ;
31 -> 33 ;
34 [label=<entropy = 0.0<br/>samples = 25<br/>value = [0, 25]<br/>class = non-poisonous>, fillcolor="#399de5ff"] ;
33 -> 34 ;
35 [label=<population &le; 22.5<br/>entropy = 0.337<br/>samples = 16<br/>value = [1, 15]<br/>class = non-poisonous>, fillcolor="#399de5ee"] ;
33 -> 35 ;
36 [label=<stalkcolorabovering &le; 7.0<br/>entropy = 0.65<br/>samples = 6<br/>value = [1, 5]<br/>class = non-poisonous>, fillcolor="#399de5cc"] ;
35 -> 36 ;
37 [label=<entropy = 0.918<br/>samples = 3<br/>value = [1, 2]<br/>class = non-poisonous>, fillcolor="#399de57f"] ;
36 -> 37 ;
38 [label=<entropy = 0.0<br/>samples = 3<br/>value = [0, 3]<br/>class = non-poisonous>, fillcolor="#399de5ff"] ;
36 -> 38 ;
39 [label=<entropy = 0.0<br/>samples = 10<br/>value = [0, 10]<br/>class = non-poisonous>, fillcolor="#399de5ff"] ;
35 -> 39 ;
40 [label=<capcolor &le; 15.0<br/>entropy = 0.518<br/>samples = 112<br/>value = [13, 99]<br/>class = non-poisonous>, fillcolor="#399de5de"] ;
2 -> 40 ;
41 [label=<capshape &le; 14.0<br/>entropy = 0.705<br/>samples = 47<br/>value = [9, 38]<br/>class = non-poisonous>, fillcolor="#399de5c3"] ;
40 -> 41 ;
42 [label=<population &le; 22.5<br/>entropy = 0.391<br/>samples = 26<br/>value = [2, 24]<br/>class = non-poisonous>, fillcolor="#399de5ea"] ;
41 -> 42 ;
43 [label=<entropy = 0.0<br/>samples = 14<br/>value = [0, 14]<br/>class = non-poisonous>, fillcolor="#399de5ff"] ;
42 -> 43 ;
44 [label=<capsurface &le; 14.5<br/>entropy = 0.65<br/>samples = 12<br/>value = [2, 10]<br/>class = non-poisonous>, fillcolor="#399de5cc"] ;
42 -> 44 ;
45 [label=<gillcolor &le; 6.5<br/>entropy = 0.863<br/>samples = 7<br/>value = [2, 5]<br/>class = non-poisonous>, fillcolor="#399de599"] ;
44 -> 45 ;
46 [label=<entropy = 0.0<br/>samples = 3<br/>value = [0, 3]<br/>class = non-poisonous>, fillcolor="#399de5ff"] ;
45 -> 46 ;
47 [label=<entropy = 1.0<br/>samples = 4<br/>value = [2, 2]<br/>class = poisonous>, fillcolor="#e5813900"] ;
45 -> 47 ;
48 [label=<entropy = 0.0<br/>samples = 5<br/>value = [0, 5]<br/>class = non-poisonous>, fillcolor="#399de5ff"] ;
44 -> 48 ;
49 [label=<gillcolor &le; 11.0<br/>entropy = 0.918<br/>samples = 21<br/>value = [7, 14]<br/>class = non-poisonous>, fillcolor="#399de57f"] ;
41 -> 49 ;
50 [label=<habitat &le; 10.5<br/>entropy = 0.971<br/>samples = 15<br/>value = [6, 9]<br/>class = non-poisonous>, fillcolor="#399de555"] ;
49 -> 50 ;
51 [label=<capsurface &le; 14.5<br/>entropy = 0.918<br/>samples = 9<br/>value = [3, 6]<br/>class = non-poisonous>, fillcolor="#399de57f"] ;
50 -> 51 ;
52 [label=<entropy = 0.918<br/>samples = 3<br/>value = [2, 1]<br/>class = poisonous>, fillcolor="#e581397f"] ;
51 -> 52 ;
53 [label=<population &le; 22.5<br/>entropy = 0.65<br/>samples = 6<br/>value = [1, 5]<br/>class = non-poisonous>, fillcolor="#399de5cc"] ;
51 -> 53 ;
54 [label=<entropy = 0.918<br/>samples = 3<br/>value = [1, 2]<br/>class = non-poisonous>, fillcolor="#399de57f"] ;
53 -> 54 ;
55 [label=<entropy = 0.0<br/>samples = 3<br/>value = [0, 3]<br/>class = non-poisonous>, fillcolor="#399de5ff"] ;
53 -> 55 ;
56 [label=<capsurface &le; 14.5<br/>entropy = 1.0<br/>samples = 6<br/>value = [3, 3]<br/>class = poisonous>, fillcolor="#e5813900"] ;
50 -> 56 ;
57 [label=<entropy = 0.0<br/>samples = 2<br/>value = [0, 2]<br/>class = non-poisonous>, fillcolor="#399de5ff"] ;
56 -> 57 ;
58 [label=<entropy = 0.811<br/>samples = 4<br/>value = [3, 1]<br/>class = poisonous>, fillcolor="#e58139aa"] ;
56 -> 58 ;
59 [label=<stalkcolorbelowring &le; 7.0<br/>entropy = 0.65<br/>samples = 6<br/>value = [1, 5]<br/>class = non-poisonous>, fillcolor="#399de5cc"] ;
49 -> 59 ;
60 [label=<entropy = 0.0<br/>samples = 4<br/>value = [0, 4]<br/>class = non-poisonous>, fillcolor="#399de5ff"] ;
59 -> 60 ;
61 [label=<entropy = 1.0<br/>samples = 2<br/>value = [1, 1]<br/>class = poisonous>, fillcolor="#e5813900"] ;
59 -> 61 ;
62 [label=<population &le; 22.5<br/>entropy = 0.334<br/>samples = 65<br/>value = [4, 61]<br/>class = non-poisonous>, fillcolor="#399de5ee"] ;
40 -> 62 ;
63 [label=<capsurface &le; 14.5<br/>entropy = 0.555<br/>samples = 31<br/>value = [4, 27]<br/>class = non-poisonous>, fillcolor="#399de5d9"] ;
62 -> 63 ;
64 [label=<entropy = 0.0<br/>samples = 13<br/>value = [0, 13]<br/>class = non-poisonous>, fillcolor="#399de5ff"] ;
63 -> 64 ;
65 [label=<stalkcolorbelowring &le; 7.0<br/>entropy = 0.764<br/>samples = 18<br/>value = [4, 14]<br/>class = non-poisonous>, fillcolor="#399de5b6"] ;
63 -> 65 ;
66 [label=<gillcolor &le; 11.0<br/>entropy = 0.954<br/>samples = 8<br/>value = [3, 5]<br/>class = non-poisonous>, fillcolor="#399de566"] ;
65 -> 66 ;
67 [label=<capshape &le; 14.0<br/>entropy = 0.863<br/>samples = 7<br/>value = [2, 5]<br/>class = non-poisonous>, fillcolor="#399de599"] ;
66 -> 67 ;
68 [label=<entropy = 0.918<br/>samples = 3<br/>value = [1, 2]<br/>class = non-poisonous>, fillcolor="#399de57f"] ;
67 -> 68 ;
69 [label=<entropy = 0.811<br/>samples = 4<br/>value = [1, 3]<br/>class = non-poisonous>, fillcolor="#399de5aa"] ;
67 -> 69 ;
70 [label=<entropy = 0.0<br/>samples = 1<br/>value = [1, 0]<br/>class = poisonous>, fillcolor="#e58139ff"] ;
66 -> 70 ;
71 [label=<capshape &le; 14.0<br/>entropy = 0.469<br/>samples = 10<br/>value = [1, 9]<br/>class = non-poisonous>, fillcolor="#399de5e3"] ;
65 -> 71 ;
72 [label=<entropy = 0.811<br/>samples = 4<br/>value = [1, 3]<br/>class = non-poisonous>, fillcolor="#399de5aa"] ;
71 -> 72 ;
73 [label=<entropy = 0.0<br/>samples = 6<br/>value = [0, 6]<br/>class = non-poisonous>, fillcolor="#399de5ff"] ;
71 -> 73 ;
74 [label=<entropy = 0.0<br/>samples = 34<br/>value = [0, 34]<br/>class = non-poisonous>, fillcolor="#399de5ff"] ;
62 -> 74 ;
75 [label=<habitat &le; 10.5<br/>entropy = 0.602<br/>samples = 293<br/>value = [43, 250]<br/>class = non-poisonous>, fillcolor="#399de5d3"] ;
1 -> 75 ;
76 [label=<stalksurfaceabovering &le; 7.5<br/>entropy = 0.519<br/>samples = 172<br/>value = [20, 152]<br/>class = non-poisonous>, fillcolor="#399de5dd"] ;
75 -> 76 ;
77 [label=<gillcolor &le; 18.5<br/>entropy = 0.222<br/>samples = 28<br/>value = [1, 27]<br/>class = non-poisonous>, fillcolor="#399de5f6"] ;
76 -> 77 ;
78 [label=<entropy = 0.0<br/>samples = 17<br/>value = [0, 17]<br/>class = non-poisonous>, fillcolor="#399de5ff"] ;
77 -> 78 ;
79 [label=<capcolor &le; 3.5<br/>entropy = 0.439<br/>samples = 11<br/>value = [1, 10]<br/>class = non-poisonous>, fillcolor="#399de5e6"] ;
77 -> 79 ;
80 [label=<entropy = 0.811<br/>samples = 4<br/>value = [1, 3]<br/>class = non-poisonous>, fillcolor="#399de5aa"] ;
79 -> 80 ;
81 [label=<entropy = 0.0<br/>samples = 7<br/>value = [0, 7]<br/>class = non-poisonous>, fillcolor="#399de5ff"] ;
79 -> 81 ;
82 [label=<stalksurfacebelowring &le; 7.5<br/>entropy = 0.563<br/>samples = 144<br/>value = [19, 125]<br/>class = non-poisonous>, fillcolor="#399de5d8"] ;
76 -> 82 ;
83 [label=<gillcolor &le; 11.0<br/>entropy = 0.863<br/>samples = 14<br/>value = [4, 10]<br/>class = non-poisonous>, fillcolor="#399de599"] ;
82 -> 83 ;
84 [label=<entropy = 0.0<br/>samples = 3<br/>value = [0, 3]<br/>class = non-poisonous>, fillcolor="#399de5ff"] ;
83 -> 84 ;
85 [label=<population &le; 19.5<br/>entropy = 0.946<br/>samples = 11<br/>value = [4, 7]<br/>class = non-poisonous>, fillcolor="#399de56d"] ;
83 -> 85 ;
86 [label=<capcolor &le; 14.0<br/>entropy = 1.0<br/>samples = 6<br/>value = [3, 3]<br/>class = poisonous>, fillcolor="#e5813900"] ;
85 -> 86 ;
87 [label=<capshape &le; 14.0<br/>entropy = 0.971<br/>samples = 5<br/>value = [3, 2]<br/>class = poisonous>, fillcolor="#e5813955"] ;
86 -> 87 ;
88 [label=<entropy = 1.0<br/>samples = 2<br/>value = [1, 1]<br/>class = poisonous>, fillcolor="#e5813900"] ;
87 -> 88 ;
89 [label=<entropy = 0.918<br/>samples = 3<br/>value = [2, 1]<br/>class = poisonous>, fillcolor="#e581397f"] ;
87 -> 89 ;
90 [label=<entropy = 0.0<br/>samples = 1<br/>value = [0, 1]<br/>class = non-poisonous>, fillcolor="#399de5ff"] ;
86 -> 90 ;
91 [label=<capcolor &le; 14.0<br/>entropy = 0.722<br/>samples = 5<br/>value = [1, 4]<br/>class = non-poisonous>, fillcolor="#399de5bf"] ;
85 -> 91 ;
92 [label=<entropy = 0.0<br/>samples = 3<br/>value = [0, 3]<br/>class = non-poisonous>, fillcolor="#399de5ff"] ;
91 -> 92 ;
93 [label=<entropy = 1.0<br/>samples = 2<br/>value = [1, 1]<br/>class = poisonous>, fillcolor="#e5813900"] ;
91 -> 93 ;
94 [label=<gillcolor &le; 18.5<br/>entropy = 0.516<br/>samples = 130<br/>value = [15, 115]<br/>class = non-poisonous>, fillcolor="#399de5de"] ;
82 -> 94 ;
95 [label=<stalkcolorabovering &le; 14.0<br/>entropy = 0.532<br/>samples = 124<br/>value = [15, 109]<br/>class = non-poisonous>, fillcolor="#399de5dc"] ;
94 -> 95 ;
96 [label=<capcolor &le; 15.0<br/>entropy = 0.461<br/>samples = 82<br/>value = [8, 74]<br/>class = non-poisonous>, fillcolor="#399de5e3"] ;
95 -> 96 ;
97 [label=<gillcolor &le; 11.0<br/>entropy = 0.562<br/>samples = 38<br/>value = [5, 33]<br/>class = non-poisonous>, fillcolor="#399de5d8"] ;
96 -> 97 ;
98 [label=<habitat &le; 4.5<br/>entropy = 0.491<br/>samples = 28<br/>value = [3, 25]<br/>class = non-poisonous>, fillcolor="#399de5e0"] ;
97 -> 98 ;
99 [label=<gillcolor &le; 6.5<br/>entropy = 0.353<br/>samples = 15<br/>value = [1, 14]<br/>class = non-poisonous>, fillcolor="#399de5ed"] ;
98 -> 99 ;
100 [label=<stalkcolorabovering &le; 7.0<br/>entropy = 0.592<br/>samples = 7<br/>value = [1, 6]<br/>class = non-poisonous>, fillcolor="#399de5d4"] ;
99 -> 100 ;
101 [label=<entropy = 0.0<br/>samples = 4<br/>value = [0, 4]<br/>class = non-poisonous>, fillcolor="#399de5ff"] ;
100 -> 101 ;
102 [label=<entropy = 0.918<br/>samples = 3<br/>value = [1, 2]<br/>class = non-poisonous>, fillcolor="#399de57f"] ;
100 -> 102 ;
103 [label=<entropy = 0.0<br/>samples = 8<br/>value = [0, 8]<br/>class = non-poisonous>, fillcolor="#399de5ff"] ;
99 -> 103 ;
104 [label=<capshape &le; 14.0<br/>entropy = 0.619<br/>samples = 13<br/>value = [2, 11]<br/>class = non-poisonous>, fillcolor="#399de5d1"] ;
98 -> 104 ;
105 [label=<entropy = 0.0<br/>samples = 6<br/>value = [0, 6]<br/>class = non-poisonous>, fillcolor="#399de5ff"] ;
104 -> 105 ;
106 [label=<gillcolor &le; 6.5<br/>entropy = 0.863<br/>samples = 7<br/>value = [2, 5]<br/>class = non-poisonous>, fillcolor="#399de599"] ;
104 -> 106 ;
107 [label=<entropy = 0.0<br/>samples = 2<br/>value = [0, 2]<br/>class = non-poisonous>, fillcolor="#399de5ff"] ;
106 -> 107 ;
108 [label=<population &le; 22.5<br/>entropy = 0.971<br/>samples = 5<br/>value = [2, 3]<br/>class = non-poisonous>, fillcolor="#399de555"] ;
106 -> 108 ;
109 [label=<entropy = 1.0<br/>samples = 2<br/>value = [1, 1]<br/>class = poisonous>, fillcolor="#e5813900"] ;
108 -> 109 ;
110 [label=<entropy = 0.918<br/>samples = 3<br/>value = [1, 2]<br/>class = non-poisonous>, fillcolor="#399de57f"] ;
108 -> 110 ;
111 [label=<stalkcolorabovering &le; 7.0<br/>entropy = 0.722<br/>samples = 10<br/>value = [2, 8]<br/>class = non-poisonous>, fillcolor="#399de5bf"] ;
97 -> 111 ;
112 [label=<capshape &le; 14.0<br/>entropy = 0.811<br/>samples = 8<br/>value = [2, 6]<br/>class = non-poisonous>, fillcolor="#399de5aa"] ;
111 -> 112 ;
113 [label=<entropy = 0.918<br/>samples = 3<br/>value = [1, 2]<br/>class = non-poisonous>, fillcolor="#399de57f"] ;
112 -> 113 ;
114 [label=<population &le; 22.5<br/>entropy = 0.722<br/>samples = 5<br/>value = [1, 4]<br/>class = non-poisonous>, fillcolor="#399de5bf"] ;
112 -> 114 ;
115 [label=<entropy = 0.0<br/>samples = 3<br/>value = [0, 3]<br/>class = non-poisonous>, fillcolor="#399de5ff"] ;
114 -> 115 ;
116 [label=<entropy = 1.0<br/>samples = 2<br/>value = [1, 1]<br/>class = poisonous>, fillcolor="#e5813900"] ;
114 -> 116 ;
117 [label=<entropy = 0.0<br/>samples = 2<br/>value = [0, 2]<br/>class = non-poisonous>, fillcolor="#399de5ff"] ;
111 -> 117 ;
118 [label=<capshape &le; 14.0<br/>entropy = 0.359<br/>samples = 44<br/>value = [3, 41]<br/>class = non-poisonous>, fillcolor="#399de5ec"] ;
96 -> 118 ;
119 [label=<population &le; 22.5<br/>entropy = 0.454<br/>samples = 21<br/>value = [2, 19]<br/>class = non-poisonous>, fillcolor="#399de5e4"] ;
118 -> 119 ;
120 [label=<entropy = 0.0<br/>samples = 11<br/>value = [0, 11]<br/>class = non-poisonous>, fillcolor="#399de5ff"] ;
119 -> 120 ;
121 [label=<gillcolor &le; 6.5<br/>entropy = 0.722<br/>samples = 10<br/>value = [2, 8]<br/>class = non-poisonous>, fillcolor="#399de5bf"] ;
119 -> 121 ;
122 [label=<entropy = 0.0<br/>samples = 3<br/>value = [0, 3]<br/>class = non-poisonous>, fillcolor="#399de5ff"] ;
121 -> 122 ;
123 [label=<gillcolor &le; 11.0<br/>entropy = 0.863<br/>samples = 7<br/>value = [2, 5]<br/>class = non-poisonous>, fillcolor="#399de599"] ;
121 -> 123 ;
124 [label=<entropy = 0.811<br/>samples = 4<br/>value = [1, 3]<br/>class = non-poisonous>, fillcolor="#399de5aa"] ;
123 -> 124 ;
125 [label=<entropy = 0.918<br/>samples = 3<br/>value = [1, 2]<br/>class = non-poisonous>, fillcolor="#399de57f"] ;
123 -> 125 ;
126 [label=<gillcolor &le; 6.5<br/>entropy = 0.258<br/>samples = 23<br/>value = [1, 22]<br/>class = non-poisonous>, fillcolor="#399de5f3"] ;
118 -> 126 ;
127 [label=<stalkcolorabovering &le; 7.0<br/>entropy = 0.722<br/>samples = 5<br/>value = [1, 4]<br/>class = non-poisonous>, fillcolor="#399de5bf"] ;
126 -> 127 ;
128 [label=<entropy = 0.0<br/>samples = 3<br/>value = [0, 3]<br/>class = non-poisonous>, fillcolor="#399de5ff"] ;
127 -> 128 ;
129 [label=<entropy = 1.0<br/>samples = 2<br/>value = [1, 1]<br/>class = poisonous>, fillcolor="#e5813900"] ;
127 -> 129 ;
130 [label=<entropy = 0.0<br/>samples = 18<br/>value = [0, 18]<br/>class = non-poisonous>, fillcolor="#399de5ff"] ;
126 -> 130 ;
131 [label=<capshape &le; 14.0<br/>entropy = 0.65<br/>samples = 42<br/>value = [7, 35]<br/>class = non-poisonous>, fillcolor="#399de5cc"] ;
95 -> 131 ;
132 [label=<gillcolor &le; 6.5<br/>entropy = 0.323<br/>samples = 17<br/>value = [1, 16]<br/>class = non-poisonous>, fillcolor="#399de5ef"] ;
131 -> 132 ;
133 [label=<capsurface &le; 14.5<br/>entropy = 0.722<br/>samples = 5<br/>value = [1, 4]<br/>class = non-poisonous>, fillcolor="#399de5bf"] ;
132 -> 133 ;
134 [label=<entropy = 0.918<br/>samples = 3<br/>value = [1, 2]<br/>class = non-poisonous>, fillcolor="#399de57f"] ;
133 -> 134 ;
135 [label=<entropy = 0.0<br/>samples = 2<br/>value = [0, 2]<br/>class = non-poisonous>, fillcolor="#399de5ff"] ;
133 -> 135 ;
136 [label=<entropy = 0.0<br/>samples = 12<br/>value = [0, 12]<br/>class = non-poisonous>, fillcolor="#399de5ff"] ;
132 -> 136 ;
137 [label=<capcolor &le; 23.0<br/>entropy = 0.795<br/>samples = 25<br/>value = [6, 19]<br/>class = non-poisonous>, fillcolor="#399de5ae"] ;
131 -> 137 ;
138 [label=<stalksurfaceabovering &le; 14.0<br/>entropy = 0.567<br/>samples = 15<br/>value = [2, 13]<br/>class = non-poisonous>, fillcolor="#399de5d8"] ;
137 -> 138 ;
139 [label=<entropy = 0.0<br/>samples = 9<br/>value = [0, 9]<br/>class = non-poisonous>, fillcolor="#399de5ff"] ;
138 -> 139 ;
140 [label=<capcolor &le; 14.0<br/>entropy = 0.918<br/>samples = 6<br/>value = [2, 4]<br/>class = non-poisonous>, fillcolor="#399de57f"] ;
138 -> 140 ;
141 [label=<entropy = 1.0<br/>samples = 4<br/>value = [2, 2]<br/>class = poisonous>, fillcolor="#e5813900"] ;
140 -> 141 ;
142 [label=<entropy = 0.0<br/>samples = 2<br/>value = [0, 2]<br/>class = non-poisonous>, fillcolor="#399de5ff"] ;
140 -> 142 ;
143 [label=<gillcolor &le; 6.5<br/>entropy = 0.971<br/>samples = 10<br/>value = [4, 6]<br/>class = non-poisonous>, fillcolor="#399de555"] ;
137 -> 143 ;
144 [label=<entropy = 0.0<br/>samples = 2<br/>value = [2, 0]<br/>class = poisonous>, fillcolor="#e58139ff"] ;
143 -> 144 ;
145 [label=<gillcolor &le; 11.0<br/>entropy = 0.811<br/>samples = 8<br/>value = [2, 6]<br/>class = non-poisonous>, fillcolor="#399de5aa"] ;
143 -> 145 ;
146 [label=<habitat &le; 4.5<br/>entropy = 0.65<br/>samples = 6<br/>value = [1, 5]<br/>class = non-poisonous>, fillcolor="#399de5cc"] ;
145 -> 146 ;
147 [label=<entropy = 0.0<br/>samples = 3<br/>value = [0, 3]<br/>class = non-poisonous>, fillcolor="#399de5ff"] ;
146 -> 147 ;
148 [label=<entropy = 0.918<br/>samples = 3<br/>value = [1, 2]<br/>class = non-poisonous>, fillcolor="#399de57f"] ;
146 -> 148 ;
149 [label=<entropy = 1.0<br/>samples = 2<br/>value = [1, 1]<br/>class = poisonous>, fillcolor="#e5813900"] ;
145 -> 149 ;
150 [label=<entropy = 0.0<br/>samples = 6<br/>value = [0, 6]<br/>class = non-poisonous>, fillcolor="#399de5ff"] ;
94 -> 150 ;
151 [label=<population &le; 22.5<br/>entropy = 0.702<br/>samples = 121<br/>value = [23, 98]<br/>class = non-poisonous>, fillcolor="#399de5c3"] ;
75 -> 151 ;
152 [label=<stalksurfacebelowring &le; 7.5<br/>entropy = 0.755<br/>samples = 92<br/>value = [20, 72]<br/>class = non-poisonous>, fillcolor="#399de5b8"] ;
151 -> 152 ;
153 [label=<capshape &le; 14.0<br/>entropy = 0.567<br/>samples = 30<br/>value = [4, 26]<br/>class = non-poisonous>, fillcolor="#399de5d8"] ;
152 -> 153 ;
154 [label=<capcolor &le; 3.5<br/>entropy = 0.779<br/>samples = 13<br/>value = [3, 10]<br/>class = non-poisonous>, fillcolor="#399de5b3"] ;
153 -> 154 ;
155 [label=<entropy = 1.0<br/>samples = 4<br/>value = [2, 2]<br/>class = poisonous>, fillcolor="#e5813900"] ;
154 -> 155 ;
156 [label=<population &le; 19.5<br/>entropy = 0.503<br/>samples = 9<br/>value = [1, 8]<br/>class = non-poisonous>, fillcolor="#399de5df"] ;
154 -> 156 ;
157 [label=<entropy = 0.0<br/>samples = 6<br/>value = [0, 6]<br/>class = non-poisonous>, fillcolor="#399de5ff"] ;
156 -> 157 ;
158 [label=<entropy = 0.918<br/>samples = 3<br/>value = [1, 2]<br/>class = non-poisonous>, fillcolor="#399de57f"] ;
156 -> 158 ;
159 [label=<gillcolor &le; 18.5<br/>entropy = 0.323<br/>samples = 17<br/>value = [1, 16]<br/>class = non-poisonous>, fillcolor="#399de5ef"] ;
153 -> 159 ;
160 [label=<entropy = 0.0<br/>samples = 10<br/>value = [0, 10]<br/>class = non-poisonous>, fillcolor="#399de5ff"] ;
159 -> 160 ;
161 [label=<capcolor &le; 3.5<br/>entropy = 0.592<br/>samples = 7<br/>value = [1, 6]<br/>class = non-poisonous>, fillcolor="#399de5d4"] ;
159 -> 161 ;
162 [label=<entropy = 0.0<br/>samples = 3<br/>value = [0, 3]<br/>class = non-poisonous>, fillcolor="#399de5ff"] ;
161 -> 162 ;
163 [label=<entropy = 0.811<br/>samples = 4<br/>value = [1, 3]<br/>class = non-poisonous>, fillcolor="#399de5aa"] ;
161 -> 163 ;
164 [label=<gillcolor &le; 18.5<br/>entropy = 0.824<br/>samples = 62<br/>value = [16, 46]<br/>class = non-poisonous>, fillcolor="#399de5a6"] ;
152 -> 164 ;
165 [label=<capcolor &le; 3.5<br/>entropy = 0.768<br/>samples = 49<br/>value = [11, 38]<br/>class = non-poisonous>, fillcolor="#399de5b5"] ;
164 -> 165 ;
166 [label=<entropy = 0.0<br/>samples = 5<br/>value = [0, 5]<br/>class = non-poisonous>, fillcolor="#399de5ff"] ;
165 -> 166 ;
167 [label=<stalksurfaceabovering &le; 14.0<br/>entropy = 0.811<br/>samples = 44<br/>value = [11, 33]<br/>class = non-poisonous>, fillcolor="#399de5aa"] ;
165 -> 167 ;
168 [label=<population &le; 19.5<br/>entropy = 0.753<br/>samples = 37<br/>value = [8, 29]<br/>class = non-poisonous>, fillcolor="#399de5b9"] ;
167 -> 168 ;
169 [label=<entropy = 0.0<br/>samples = 3<br/>value = [0, 3]<br/>class = non-poisonous>, fillcolor="#399de5ff"] ;
168 -> 169 ;
170 [label=<gillcolor &le; 6.5<br/>entropy = 0.787<br/>samples = 34<br/>value = [8, 26]<br/>class = non-poisonous>, fillcolor="#399de5b1"] ;
168 -> 170 ;
171 [label=<stalkcolorabovering &le; 14.0<br/>entropy = 0.918<br/>samples = 9<br/>value = [3, 6]<br/>class = non-poisonous>, fillcolor="#399de57f"] ;
170 -> 171 ;
172 [label=<stalkcolorabovering &le; 7.0<br/>entropy = 0.985<br/>samples = 7<br/>value = [3, 4]<br/>class = non-poisonous>, fillcolor="#399de540"] ;
171 -> 172 ;
173 [label=<entropy = 0.811<br/>samples = 4<br/>value = [1, 3]<br/>class = non-poisonous>, fillcolor="#399de5aa"] ;
172 -> 173 ;
174 [label=<entropy = 0.918<br/>samples = 3<br/>value = [2, 1]<br/>class = poisonous>, fillcolor="#e581397f"] ;
172 -> 174 ;
175 [label=<entropy = 0.0<br/>samples = 2<br/>value = [0, 2]<br/>class = non-poisonous>, fillcolor="#399de5ff"] ;
171 -> 175 ;
176 [label=<capsurface &le; 21.0<br/>entropy = 0.722<br/>samples = 25<br/>value = [5, 20]<br/>class = non-poisonous>, fillcolor="#399de5bf"] ;
170 -> 176 ;
177 [label=<capcolor &le; 14.0<br/>entropy = 0.672<br/>samples = 17<br/>value = [3, 14]<br/>class = non-poisonous>, fillcolor="#399de5c8"] ;
176 -> 177 ;
178 [label=<capshape &le; 14.0<br/>entropy = 0.811<br/>samples = 8<br/>value = [2, 6]<br/>class = non-poisonous>, fillcolor="#399de5aa"] ;
177 -> 178 ;
179 [label=<entropy = 0.918<br/>samples = 3<br/>value = [2, 1]<br/>class = poisonous>, fillcolor="#e581397f"] ;
178 -> 179 ;
180 [label=<entropy = 0.0<br/>samples = 5<br/>value = [0, 5]<br/>class = non-poisonous>, fillcolor="#399de5ff"] ;
178 -> 180 ;
181 [label=<capshape &le; 14.0<br/>entropy = 0.503<br/>samples = 9<br/>value = [1, 8]<br/>class = non-poisonous>, fillcolor="#399de5df"] ;
177 -> 181 ;
182 [label=<entropy = 0.0<br/>samples = 6<br/>value = [0, 6]<br/>class = non-poisonous>, fillcolor="#399de5ff"] ;
181 -> 182 ;
183 [label=<entropy = 0.918<br/>samples = 3<br/>value = [1, 2]<br/>class = non-poisonous>, fillcolor="#399de57f"] ;
181 -> 183 ;
184 [label=<gillcolor &le; 11.0<br/>entropy = 0.811<br/>samples = 8<br/>value = [2, 6]<br/>class = non-poisonous>, fillcolor="#399de5aa"] ;
176 -> 184 ;
185 [label=<capcolor &le; 15.0<br/>entropy = 0.65<br/>samples = 6<br/>value = [1, 5]<br/>class = non-poisonous>, fillcolor="#399de5cc"] ;
184 -> 185 ;
186 [label=<entropy = 0.0<br/>samples = 4<br/>value = [0, 4]<br/>class = non-poisonous>, fillcolor="#399de5ff"] ;
185 -> 186 ;
187 [label=<entropy = 1.0<br/>samples = 2<br/>value = [1, 1]<br/>class = poisonous>, fillcolor="#e5813900"] ;
185 -> 187 ;
188 [label=<entropy = 1.0<br/>samples = 2<br/>value = [1, 1]<br/>class = poisonous>, fillcolor="#e5813900"] ;
184 -> 188 ;
189 [label=<capcolor &le; 14.0<br/>entropy = 0.985<br/>samples = 7<br/>value = [3, 4]<br/>class = non-poisonous>, fillcolor="#399de540"] ;
167 -> 189 ;
190 [label=<entropy = 0.811<br/>samples = 4<br/>value = [3, 1]<br/>class = poisonous>, fillcolor="#e58139aa"] ;
189 -> 190 ;
191 [label=<entropy = 0.0<br/>samples = 3<br/>value = [0, 3]<br/>class = non-poisonous>, fillcolor="#399de5ff"] ;
189 -> 191 ;
192 [label=<stalksurfaceabovering &le; 11.5<br/>entropy = 0.961<br/>samples = 13<br/>value = [5, 8]<br/>class = non-poisonous>, fillcolor="#399de560"] ;
164 -> 192 ;
193 [label=<population &le; 19.5<br/>entropy = 0.985<br/>samples = 7<br/>value = [4, 3]<br/>class = poisonous>, fillcolor="#e5813940"] ;
192 -> 193 ;
194 [label=<entropy = 0.0<br/>samples = 2<br/>value = [2, 0]<br/>class = poisonous>, fillcolor="#e58139ff"] ;
193 -> 194 ;
195 [label=<capcolor &le; 14.0<br/>entropy = 0.971<br/>samples = 5<br/>value = [2, 3]<br/>class = non-poisonous>, fillcolor="#399de555"] ;
193 -> 195 ;
196 [label=<entropy = 1.0<br/>samples = 4<br/>value = [2, 2]<br/>class = poisonous>, fillcolor="#e5813900"] ;
195 -> 196 ;
197 [label=<entropy = 0.0<br/>samples = 1<br/>value = [0, 1]<br/>class = non-poisonous>, fillcolor="#399de5ff"] ;
195 -> 197 ;
198 [label=<capcolor &le; 3.5<br/>entropy = 0.65<br/>samples = 6<br/>value = [1, 5]<br/>class = non-poisonous>, fillcolor="#399de5cc"] ;
192 -> 198 ;
199 [label=<entropy = 0.0<br/>samples = 1<br/>value = [1, 0]<br/>class = poisonous>, fillcolor="#e58139ff"] ;
198 -> 199 ;
200 [label=<entropy = 0.0<br/>samples = 5<br/>value = [0, 5]<br/>class = non-poisonous>, fillcolor="#399de5ff"] ;
198 -> 200 ;
201 [label=<stalkcolorabovering &le; 14.0<br/>entropy = 0.48<br/>samples = 29<br/>value = [3, 26]<br/>class = non-poisonous>, fillcolor="#399de5e2"] ;
151 -> 201 ;
202 [label=<capsurface &le; 14.5<br/>entropy = 0.629<br/>samples = 19<br/>value = [3, 16]<br/>class = non-poisonous>, fillcolor="#399de5cf"] ;
201 -> 202 ;
203 [label=<gillcolor &le; 6.5<br/>entropy = 0.764<br/>samples = 9<br/>value = [2, 7]<br/>class = non-poisonous>, fillcolor="#399de5b6"] ;
202 -> 203 ;
204 [label=<entropy = 0.0<br/>samples = 4<br/>value = [0, 4]<br/>class = non-poisonous>, fillcolor="#399de5ff"] ;
203 -> 204 ;
205 [label=<stalkcolorabovering &le; 7.0<br/>entropy = 0.971<br/>samples = 5<br/>value = [2, 3]<br/>class = non-poisonous>, fillcolor="#399de555"] ;
203 -> 205 ;
206 [label=<entropy = 0.0<br/>samples = 1<br/>value = [0, 1]<br/>class = non-poisonous>, fillcolor="#399de5ff"] ;
205 -> 206 ;
207 [label=<entropy = 1.0<br/>samples = 4<br/>value = [2, 2]<br/>class = poisonous>, fillcolor="#e5813900"] ;
205 -> 207 ;
208 [label=<gillcolor &le; 6.5<br/>entropy = 0.469<br/>samples = 10<br/>value = [1, 9]<br/>class = non-poisonous>, fillcolor="#399de5e3"] ;
202 -> 208 ;
209 [label=<entropy = 1.0<br/>samples = 2<br/>value = [1, 1]<br/>class = poisonous>, fillcolor="#e5813900"] ;
208 -> 209 ;
210 [label=<entropy = 0.0<br/>samples = 8<br/>value = [0, 8]<br/>class = non-poisonous>, fillcolor="#399de5ff"] ;
208 -> 210 ;
211 [label=<entropy = 0.0<br/>samples = 10<br/>value = [0, 10]<br/>class = non-poisonous>, fillcolor="#399de5ff"] ;
201 -> 211 ;
212 [label=<gillsize &le; 7.0<br/>entropy = 0.73<br/>samples = 1628<br/>value = [1296, 332]<br/>class = poisonous>, fillcolor="#e58139be"] ;
0 -> 212 [labeldistance=2.5, labelangle=-45, headlabel="False"] ;
213 [label=<sporeprintcolor &le; 15.0<br/>entropy = 0.511<br/>samples = 1354<br/>value = [1200, 154]<br/>class = poisonous>, fillcolor="#e58139de"] ;
212 -> 213 ;
214 [label=<habitat &le; 13.5<br/>entropy = 0.443<br/>samples = 1303<br/>value = [1183, 120]<br/>class = poisonous>, fillcolor="#e58139e5"] ;
213 -> 214 ;
215 [label=<stalkroot &le; 10.5<br/>entropy = 0.45<br/>samples = 1265<br/>value = [1146, 119]<br/>class = poisonous>, fillcolor="#e58139e5"] ;
214 -> 215 ;
216 [label=<gillcolor &le; 6.5<br/>entropy = 0.439<br/>samples = 1232<br/>value = [1120, 112]<br/>class = poisonous>, fillcolor="#e58139e6"] ;
215 -> 216 ;
217 [label=<habitat &le; 9.0<br/>entropy = 0.239<br/>samples = 51<br/>value = [49, 2]<br/>class = poisonous>, fillcolor="#e58139f5"] ;
216 -> 217 ;
218 [label=<entropy = 0.0<br/>samples = 25<br/>value = [25, 0]<br/>class = poisonous>, fillcolor="#e58139ff"] ;
217 -> 218 ;
219 [label=<sporeprintcolor &le; 11.5<br/>entropy = 0.391<br/>samples = 26<br/>value = [24, 2]<br/>class = poisonous>, fillcolor="#e58139ea"] ;
217 -> 219 ;
220 [label=<entropy = 0.0<br/>samples = 11<br/>value = [11, 0]<br/>class = poisonous>, fillcolor="#e58139ff"] ;
219 -> 220 ;
221 [label=<odor &le; 5.5<br/>entropy = 0.567<br/>samples = 15<br/>value = [13, 2]<br/>class = poisonous>, fillcolor="#e58139d8"] ;
219 -> 221 ;
222 [label=<capsurface &le; 21.0<br/>entropy = 0.811<br/>samples = 8<br/>value = [6, 2]<br/>class = poisonous>, fillcolor="#e58139aa"] ;
221 -> 222 ;
223 [label=<population &le; 15.5<br/>entropy = 0.722<br/>samples = 5<br/>value = [4, 1]<br/>class = poisonous>, fillcolor="#e58139bf"] ;
222 -> 223 ;
224 [label=<entropy = 0.0<br/>samples = 2<br/>value = [2, 0]<br/>class = poisonous>, fillcolor="#e58139ff"] ;
223 -> 224 ;
225 [label=<entropy = 0.918<br/>samples = 3<br/>value = [2, 1]<br/>class = poisonous>, fillcolor="#e581397f"] ;
223 -> 225 ;
226 [label=<entropy = 0.918<br/>samples = 3<br/>value = [2, 1]<br/>class = poisonous>, fillcolor="#e581397f"] ;
222 -> 226 ;
227 [label=<entropy = 0.0<br/>samples = 7<br/>value = [7, 0]<br/>class = poisonous>, fillcolor="#e58139ff"] ;
221 -> 227 ;
228 [label=<odor &le; 5.5<br/>entropy = 0.447<br/>samples = 1181<br/>value = [1071, 110]<br/>class = poisonous>, fillcolor="#e58139e5"] ;
216 -> 228 ;
229 [label=<sporeprintcolor &le; 11.5<br/>entropy = 0.573<br/>samples = 81<br/>value = [70, 11]<br/>class = poisonous>, fillcolor="#e58139d7"] ;
228 -> 229 ;
230 [label=<capshape &le; 12.0<br/>entropy = 0.303<br/>samples = 37<br/>value = [35, 2]<br/>class = poisonous>, fillcolor="#e58139f0"] ;
229 -> 230 ;
231 [label=<capsurface &le; 21.0<br/>entropy = 0.503<br/>samples = 18<br/>value = [16, 2]<br/>class = poisonous>, fillcolor="#e58139df"] ;
230 -> 231 ;
232 [label=<gillcolor &le; 11.5<br/>entropy = 0.65<br/>samples = 6<br/>value = [5, 1]<br/>class = poisonous>, fillcolor="#e58139cc"] ;
231 -> 232 ;
233 [label=<entropy = 1.0<br/>samples = 2<br/>value = [1, 1]<br/>class = poisonous>, fillcolor="#e5813900"] ;
232 -> 233 ;
234 [label=<entropy = 0.0<br/>samples = 4<br/>value = [4, 0]<br/>class = poisonous>, fillcolor="#e58139ff"] ;
232 -> 234 ;
235 [label=<population &le; 15.5<br/>entropy = 0.414<br/>samples = 12<br/>value = [11, 1]<br/>class = poisonous>, fillcolor="#e58139e8"] ;
231 -> 235 ;
236 [label=<entropy = 0.0<br/>samples = 7<br/>value = [7, 0]<br/>class = poisonous>, fillcolor="#e58139ff"] ;
235 -> 236 ;
237 [label=<gillcolor &le; 17.5<br/>entropy = 0.722<br/>samples = 5<br/>value = [4, 1]<br/>class = poisonous>, fillcolor="#e58139bf"] ;
235 -> 237 ;
238 [label=<entropy = 0.0<br/>samples = 2<br/>value = [2, 0]<br/>class = poisonous>, fillcolor="#e58139ff"] ;
237 -> 238 ;
239 [label=<entropy = 0.918<br/>samples = 3<br/>value = [2, 1]<br/>class = poisonous>, fillcolor="#e581397f"] ;
237 -> 239 ;
240 [label=<entropy = 0.0<br/>samples = 19<br/>value = [19, 0]<br/>class = poisonous>, fillcolor="#e58139ff"] ;
230 -> 240 ;
241 [label=<capcolor &le; 23.0<br/>entropy = 0.731<br/>samples = 44<br/>value = [35, 9]<br/>class = poisonous>, fillcolor="#e58139bd"] ;
229 -> 241 ;
242 [label=<habitat &le; 9.0<br/>entropy = 0.871<br/>samples = 24<br/>value = [17, 7]<br/>class = poisonous>, fillcolor="#e5813996"] ;
241 -> 242 ;
243 [label=<capshape &le; 12.0<br/>entropy = 0.619<br/>samples = 13<br/>value = [11, 2]<br/>class = poisonous>, fillcolor="#e58139d1"] ;
242 -> 243 ;
244 [label=<gillcolor &le; 11.5<br/>entropy = 0.764<br/>samples = 9<br/>value = [7, 2]<br/>class = poisonous>, fillcolor="#e58139b6"] ;
243 -> 244 ;
245 [label=<entropy = 0.918<br/>samples = 3<br/>value = [2, 1]<br/>class = poisonous>, fillcolor="#e581397f"] ;
244 -> 245 ;
246 [label=<capsurface &le; 21.0<br/>entropy = 0.65<br/>samples = 6<br/>value = [5, 1]<br/>class = poisonous>, fillcolor="#e58139cc"] ;
244 -> 246 ;
247 [label=<entropy = 1.0<br/>samples = 2<br/>value = [1, 1]<br/>class = poisonous>, fillcolor="#e5813900"] ;
246 -> 247 ;
248 [label=<entropy = 0.0<br/>samples = 4<br/>value = [4, 0]<br/>class = poisonous>, fillcolor="#e58139ff"] ;
246 -> 248 ;
249 [label=<entropy = 0.0<br/>samples = 4<br/>value = [4, 0]<br/>class = poisonous>, fillcolor="#e58139ff"] ;
243 -> 249 ;
250 [label=<gillcolor &le; 11.5<br/>entropy = 0.994<br/>samples = 11<br/>value = [6, 5]<br/>class = poisonous>, fillcolor="#e581392a"] ;
242 -> 250 ;
251 [label=<capsurface &le; 21.0<br/>entropy = 0.722<br/>samples = 5<br/>value = [4, 1]<br/>class = poisonous>, fillcolor="#e58139bf"] ;
250 -> 251 ;
252 [label=<entropy = 0.0<br/>samples = 3<br/>value = [3, 0]<br/>class = poisonous>, fillcolor="#e58139ff"] ;
251 -> 252 ;
253 [label=<entropy = 1.0<br/>samples = 2<br/>value = [1, 1]<br/>class = poisonous>, fillcolor="#e5813900"] ;
251 -> 253 ;
254 [label=<population &le; 15.5<br/>entropy = 0.918<br/>samples = 6<br/>value = [2, 4]<br/>class = non-poisonous>, fillcolor="#399de57f"] ;
250 -> 254 ;
255 [label=<entropy = 0.0<br/>samples = 2<br/>value = [0, 2]<br/>class = non-poisonous>, fillcolor="#399de5ff"] ;
254 -> 255 ;
256 [label=<entropy = 1.0<br/>samples = 4<br/>value = [2, 2]<br/>class = poisonous>, fillcolor="#e5813900"] ;
254 -> 256 ;
257 [label=<habitat &le; 9.0<br/>entropy = 0.469<br/>samples = 20<br/>value = [18, 2]<br/>class = poisonous>, fillcolor="#e58139e3"] ;
241 -> 257 ;
258 [label=<gillcolor &le; 17.5<br/>entropy = 0.684<br/>samples = 11<br/>value = [9, 2]<br/>class = poisonous>, fillcolor="#e58139c6"] ;
257 -> 258 ;
259 [label=<gillcolor &le; 11.5<br/>entropy = 0.863<br/>samples = 7<br/>value = [5, 2]<br/>class = poisonous>, fillcolor="#e5813999"] ;
258 -> 259 ;
260 [label=<entropy = 0.0<br/>samples = 3<br/>value = [3, 0]<br/>class = poisonous>, fillcolor="#e58139ff"] ;
259 -> 260 ;
261 [label=<entropy = 1.0<br/>samples = 4<br/>value = [2, 2]<br/>class = poisonous>, fillcolor="#e5813900"] ;
259 -> 261 ;
262 [label=<entropy = 0.0<br/>samples = 4<br/>value = [4, 0]<br/>class = poisonous>, fillcolor="#e58139ff"] ;
258 -> 262 ;
263 [label=<entropy = 0.0<br/>samples = 9<br/>value = [9, 0]<br/>class = poisonous>, fillcolor="#e58139ff"] ;
257 -> 263 ;
264 [label=<capshape &le; 3.0<br/>entropy = 0.436<br/>samples = 1100<br/>value = [1001, 99]<br/>class = poisonous>, fillcolor="#e58139e6"] ;
228 -> 264 ;
265 [label=<gillcolor &le; 11.5<br/>entropy = 0.172<br/>samples = 39<br/>value = [38, 1]<br/>class = poisonous>, fillcolor="#e58139f8"] ;
264 -> 265 ;
266 [label=<capsurface &le; 21.0<br/>entropy = 0.337<br/>samples = 16<br/>value = [15, 1]<br/>class = poisonous>, fillcolor="#e58139ee"] ;
265 -> 266 ;
267 [label=<population &le; 15.5<br/>entropy = 0.592<br/>samples = 7<br/>value = [6, 1]<br/>class = poisonous>, fillcolor="#e58139d4"] ;
266 -> 267 ;
268 [label=<entropy = 0.918<br/>samples = 3<br/>value = [2, 1]<br/>class = poisonous>, fillcolor="#e581397f"] ;
267 -> 268 ;
269 [label=<entropy = 0.0<br/>samples = 4<br/>value = [4, 0]<br/>class = poisonous>, fillcolor="#e58139ff"] ;
267 -> 269 ;
270 [label=<entropy = 0.0<br/>samples = 9<br/>value = [9, 0]<br/>class = poisonous>, fillcolor="#e58139ff"] ;
266 -> 270 ;
271 [label=<entropy = 0.0<br/>samples = 23<br/>value = [23, 0]<br/>class = poisonous>, fillcolor="#e58139ff"] ;
265 -> 271 ;
272 [label=<stalkshape &le; 11.5<br/>entropy = 0.444<br/>samples = 1061<br/>value = [963, 98]<br/>class = poisonous>, fillcolor="#e58139e5"] ;
264 -> 272 ;
273 [label=<sporeprintcolor &le; 11.5<br/>entropy = 0.619<br/>samples = 39<br/>value = [33, 6]<br/>class = poisonous>, fillcolor="#e58139d1"] ;
272 -> 273 ;
274 [label=<capsurface &le; 21.0<br/>entropy = 0.863<br/>samples = 14<br/>value = [10, 4]<br/>class = poisonous>, fillcolor="#e5813999"] ;
273 -> 274 ;
275 [label=<gillcolor &le; 11.5<br/>entropy = 0.985<br/>samples = 7<br/>value = [4, 3]<br/>class = poisonous>, fillcolor="#e5813940"] ;
274 -> 275 ;
276 [label=<entropy = 0.0<br/>samples = 2<br/>value = [2, 0]<br/>class = poisonous>, fillcolor="#e58139ff"] ;
275 -> 276 ;
277 [label=<habitat &le; 9.0<br/>entropy = 0.971<br/>samples = 5<br/>value = [2, 3]<br/>class = non-poisonous>, fillcolor="#399de555"] ;
275 -> 277 ;
278 [label=<entropy = 0.0<br/>samples = 2<br/>value = [0, 2]<br/>class = non-poisonous>, fillcolor="#399de5ff"] ;
277 -> 278 ;
279 [label=<entropy = 0.918<br/>samples = 3<br/>value = [2, 1]<br/>class = poisonous>, fillcolor="#e581397f"] ;
277 -> 279 ;
280 [label=<gillcolor &le; 11.5<br/>entropy = 0.592<br/>samples = 7<br/>value = [6, 1]<br/>class = poisonous>, fillcolor="#e58139d4"] ;
274 -> 280 ;
281 [label=<entropy = 1.0<br/>samples = 2<br/>value = [1, 1]<br/>class = poisonous>, fillcolor="#e5813900"] ;
280 -> 281 ;
282 [label=<entropy = 0.0<br/>samples = 5<br/>value = [5, 0]<br/>class = poisonous>, fillcolor="#e58139ff"] ;
280 -> 282 ;
283 [label=<gillcolor &le; 17.5<br/>entropy = 0.402<br/>samples = 25<br/>value = [23, 2]<br/>class = poisonous>, fillcolor="#e58139e9"] ;
273 -> 283 ;
284 [label=<entropy = 0.0<br/>samples = 14<br/>value = [14, 0]<br/>class = poisonous>, fillcolor="#e58139ff"] ;
283 -> 284 ;
285 [label=<habitat &le; 9.0<br/>entropy = 0.684<br/>samples = 11<br/>value = [9, 2]<br/>class = poisonous>, fillcolor="#e58139c6"] ;
283 -> 285 ;
286 [label=<entropy = 0.0<br/>samples = 5<br/>value = [5, 0]<br/>class = poisonous>, fillcolor="#e58139ff"] ;
285 -> 286 ;
287 [label=<population &le; 15.5<br/>entropy = 0.918<br/>samples = 6<br/>value = [4, 2]<br/>class = poisonous>, fillcolor="#e581397f"] ;
285 -> 287 ;
288 [label=<entropy = 0.811<br/>samples = 4<br/>value = [3, 1]<br/>class = poisonous>, fillcolor="#e58139aa"] ;
287 -> 288 ;
289 [label=<entropy = 1.0<br/>samples = 2<br/>value = [1, 1]<br/>class = poisonous>, fillcolor="#e5813900"] ;
287 -> 289 ;
290 [label=<capsurface &le; 11.5<br/>entropy = 0.437<br/>samples = 1022<br/>value = [930, 92]<br/>class = poisonous>, fillcolor="#e58139e6"] ;
272 -> 290 ;
291 [label=<stalksurfaceabovering &le; 11.5<br/>entropy = 0.476<br/>samples = 518<br/>value = [465, 53]<br/>class = poisonous>, fillcolor="#e58139e2"] ;
290 -> 291 ;
292 [label=<sporeprintcolor &le; 11.5<br/>entropy = 0.645<br/>samples = 73<br/>value = [61, 12]<br/>class = poisonous>, fillcolor="#e58139cd"] ;
291 -> 292 ;
293 [label=<gillcolor &le; 8.5<br/>entropy = 0.842<br/>samples = 37<br/>value = [27, 10]<br/>class = poisonous>, fillcolor="#e58139a1"] ;
292 -> 293 ;
294 [label=<capcolor &le; 9.5<br/>entropy = 0.971<br/>samples = 5<br/>value = [2, 3]<br/>class = non-poisonous>, fillcolor="#399de555"] ;
293 -> 294 ;
295 [label=<entropy = 0.0<br/>samples = 1<br/>value = [0, 1]<br/>class = non-poisonous>, fillcolor="#399de5ff"] ;
294 -> 295 ;
296 [label=<entropy = 1.0<br/>samples = 4<br/>value = [2, 2]<br/>class = poisonous>, fillcolor="#e5813900"] ;
294 -> 296 ;
297 [label=<gillcolor &le; 14.0<br/>entropy = 0.758<br/>samples = 32<br/>value = [25, 7]<br/>class = poisonous>, fillcolor="#e58139b8"] ;
293 -> 297 ;
298 [label=<gillcolor &le; 11.5<br/>entropy = 0.828<br/>samples = 23<br/>value = [17, 6]<br/>class = poisonous>, fillcolor="#e58139a5"] ;
297 -> 298 ;
299 [label=<capcolor &le; 9.5<br/>entropy = 0.722<br/>samples = 15<br/>value = [12, 3]<br/>class = poisonous>, fillcolor="#e58139bf"] ;
298 -> 299 ;
300 [label=<entropy = 0.918<br/>samples = 3<br/>value = [2, 1]<br/>class = poisonous>, fillcolor="#e581397f"] ;
299 -> 300 ;
301 [label=<stalksurfacebelowring &le; 11.5<br/>entropy = 0.65<br/>samples = 12<br/>value = [10, 2]<br/>class = poisonous>, fillcolor="#e58139cc"] ;
299 -> 301 ;
302 [label=<capshape &le; 14.0<br/>entropy = 0.722<br/>samples = 5<br/>value = [4, 1]<br/>class = poisonous>, fillcolor="#e58139bf"] ;
301 -> 302 ;
303 [label=<entropy = 0.0<br/>samples = 1<br/>value = [0, 1]<br/>class = non-poisonous>, fillcolor="#399de5ff"] ;
302 -> 303 ;
304 [label=<entropy = 0.0<br/>samples = 4<br/>value = [4, 0]<br/>class = poisonous>, fillcolor="#e58139ff"] ;
302 -> 304 ;
305 [label=<population &le; 9.0<br/>entropy = 0.592<br/>samples = 7<br/>value = [6, 1]<br/>class = poisonous>, fillcolor="#e58139d4"] ;
301 -> 305 ;
306 [label=<entropy = 0.0<br/>samples = 4<br/>value = [4, 0]<br/>class = poisonous>, fillcolor="#e58139ff"] ;
305 -> 306 ;
307 [label=<entropy = 0.918<br/>samples = 3<br/>value = [2, 1]<br/>class = poisonous>, fillcolor="#e581397f"] ;
305 -> 307 ;
308 [label=<population &le; 9.0<br/>entropy = 0.954<br/>samples = 8<br/>value = [5, 3]<br/>class = poisonous>, fillcolor="#e5813966"] ;
298 -> 308 ;
309 [label=<entropy = 0.918<br/>samples = 3<br/>value = [1, 2]<br/>class = non-poisonous>, fillcolor="#399de57f"] ;
308 -> 309 ;
310 [label=<capshape &le; 14.0<br/>entropy = 0.722<br/>samples = 5<br/>value = [4, 1]<br/>class = poisonous>, fillcolor="#e58139bf"] ;
308 -> 310 ;
311 [label=<entropy = 0.0<br/>samples = 2<br/>value = [2, 0]<br/>class = poisonous>, fillcolor="#e58139ff"] ;
310 -> 311 ;
312 [label=<entropy = 0.918<br/>samples = 3<br/>value = [2, 1]<br/>class = poisonous>, fillcolor="#e581397f"] ;
310 -> 312 ;
313 [label=<capshape &le; 14.0<br/>entropy = 0.503<br/>samples = 9<br/>value = [8, 1]<br/>class = poisonous>, fillcolor="#e58139df"] ;
297 -> 313 ;
314 [label=<entropy = 0.0<br/>samples = 7<br/>value = [7, 0]<br/>class = poisonous>, fillcolor="#e58139ff"] ;
313 -> 314 ;
315 [label=<entropy = 1.0<br/>samples = 2<br/>value = [1, 1]<br/>class = poisonous>, fillcolor="#e5813900"] ;
313 -> 315 ;
316 [label=<population &le; 9.0<br/>entropy = 0.31<br/>samples = 36<br/>value = [34, 2]<br/>class = poisonous>, fillcolor="#e58139f0"] ;
292 -> 316 ;
317 [label=<entropy = 0.0<br/>samples = 18<br/>value = [18, 0]<br/>class = poisonous>, fillcolor="#e58139ff"] ;
316 -> 317 ;
318 [label=<stalksurfacebelowring &le; 11.5<br/>entropy = 0.503<br/>samples = 18<br/>value = [16, 2]<br/>class = poisonous>, fillcolor="#e58139df"] ;
316 -> 318 ;
319 [label=<entropy = 0.0<br/>samples = 6<br/>value = [6, 0]<br/>class = poisonous>, fillcolor="#e58139ff"] ;
318 -> 319 ;
320 [label=<capcolor &le; 17.5<br/>entropy = 0.65<br/>samples = 12<br/>value = [10, 2]<br/>class = poisonous>, fillcolor="#e58139cc"] ;
318 -> 320 ;
321 [label=<gillcolor &le; 14.0<br/>entropy = 0.469<br/>samples = 10<br/>value = [9, 1]<br/>class = poisonous>, fillcolor="#e58139e3"] ;
320 -> 321 ;
322 [label=<entropy = 0.0<br/>samples = 7<br/>value = [7, 0]<br/>class = poisonous>, fillcolor="#e58139ff"] ;
321 -> 322 ;
323 [label=<entropy = 0.918<br/>samples = 3<br/>value = [2, 1]<br/>class = poisonous>, fillcolor="#e581397f"] ;
321 -> 323 ;
324 [label=<entropy = 1.0<br/>samples = 2<br/>value = [1, 1]<br/>class = poisonous>, fillcolor="#e5813900"] ;
320 -> 324 ;
325 [label=<population &le; 22.5<br/>entropy = 0.444<br/>samples = 445<br/>value = [404, 41]<br/>class = poisonous>, fillcolor="#e58139e5"] ;
291 -> 325 ;
326 [label=<gillcolor &le; 21.0<br/>entropy = 0.384<br/>samples = 254<br/>value = [235, 19]<br/>class = poisonous>, fillcolor="#e58139ea"] ;
325 -> 326 ;
327 [label=<stalkcolorabovering &le; 10.5<br/>entropy = 0.426<br/>samples = 219<br/>value = [200, 19]<br/>class = poisonous>, fillcolor="#e58139e7"] ;
326 -> 327 ;
328 [label=<stalkcolorbelowring &le; 10.5<br/>entropy = 0.323<br/>samples = 51<br/>value = [48, 3]<br/>class = poisonous>, fillcolor="#e58139ef"] ;
327 -> 328 ;
329 [label=<entropy = 0.0<br/>samples = 17<br/>value = [17, 0]<br/>class = poisonous>, fillcolor="#e58139ff"] ;
328 -> 329 ;
330 [label=<stalkcolorbelowring &le; 18.5<br/>entropy = 0.431<br/>samples = 34<br/>value = [31, 3]<br/>class = poisonous>, fillcolor="#e58139e6"] ;
328 -> 330 ;
331 [label=<capcolor &le; 5.0<br/>entropy = 0.61<br/>samples = 20<br/>value = [17, 3]<br/>class = poisonous>, fillcolor="#e58139d2"] ;
330 -> 331 ;
332 [label=<capshape &le; 14.0<br/>entropy = 0.811<br/>samples = 8<br/>value = [6, 2]<br/>class = poisonous>, fillcolor="#e58139aa"] ;
331 -> 332 ;
333 [label=<gillcolor &le; 17.5<br/>entropy = 0.971<br/>samples = 5<br/>value = [3, 2]<br/>class = poisonous>, fillcolor="#e5813955"] ;
332 -> 333 ;
334 [label=<entropy = 0.811<br/>samples = 4<br/>value = [3, 1]<br/>class = poisonous>, fillcolor="#e58139aa"] ;
333 -> 334 ;
335 [label=<entropy = 0.0<br/>samples = 1<br/>value = [0, 1]<br/>class = non-poisonous>, fillcolor="#399de5ff"] ;
333 -> 335 ;
336 [label=<entropy = 0.0<br/>samples = 3<br/>value = [3, 0]<br/>class = poisonous>, fillcolor="#e58139ff"] ;
332 -> 336 ;
337 [label=<capshape &le; 14.0<br/>entropy = 0.414<br/>samples = 12<br/>value = [11, 1]<br/>class = poisonous>, fillcolor="#e58139e8"] ;
331 -> 337 ;
338 [label=<entropy = 0.0<br/>samples = 7<br/>value = [7, 0]<br/>class = poisonous>, fillcolor="#e58139ff"] ;
337 -> 338 ;
339 [label=<capcolor &le; 9.5<br/>entropy = 0.722<br/>samples = 5<br/>value = [4, 1]<br/>class = poisonous>, fillcolor="#e58139bf"] ;
337 -> 339 ;
340 [label=<entropy = 0.0<br/>samples = 3<br/>value = [3, 0]<br/>class = poisonous>, fillcolor="#e58139ff"] ;
339 -> 340 ;
341 [label=<entropy = 1.0<br/>samples = 2<br/>value = [1, 1]<br/>class = poisonous>, fillcolor="#e5813900"] ;
339 -> 341 ;
342 [label=<entropy = 0.0<br/>samples = 14<br/>value = [14, 0]<br/>class = poisonous>, fillcolor="#e58139ff"] ;
330 -> 342 ;
343 [label=<gillcolor &le; 17.5<br/>entropy = 0.454<br/>samples = 168<br/>value = [152, 16]<br/>class = poisonous>, fillcolor="#e58139e4"] ;
327 -> 343 ;
344 [label=<capcolor &le; 5.0<br/>entropy = 0.424<br/>samples = 139<br/>value = [127, 12]<br/>class = poisonous>, fillcolor="#e58139e7"] ;
343 -> 344 ;
345 [label=<stalkcolorabovering &le; 18.5<br/>entropy = 0.267<br/>samples = 22<br/>value = [21, 1]<br/>class = poisonous>, fillcolor="#e58139f3"] ;
344 -> 345 ;
346 [label=<gillcolor &le; 14.0<br/>entropy = 0.469<br/>samples = 10<br/>value = [9, 1]<br/>class = poisonous>, fillcolor="#e58139e3"] ;
345 -> 346 ;
347 [label=<sporeprintcolor &le; 11.5<br/>entropy = 0.65<br/>samples = 6<br/>value = [5, 1]<br/>class = poisonous>, fillcolor="#e58139cc"] ;
346 -> 347 ;
348 [label=<entropy = 0.0<br/>samples = 3<br/>value = [3, 0]<br/>class = poisonous>, fillcolor="#e58139ff"] ;
347 -> 348 ;
349 [label=<entropy = 0.918<br/>samples = 3<br/>value = [2, 1]<br/>class = poisonous>, fillcolor="#e581397f"] ;
347 -> 349 ;
350 [label=<entropy = 0.0<br/>samples = 4<br/>value = [4, 0]<br/>class = poisonous>, fillcolor="#e58139ff"] ;
346 -> 350 ;
351 [label=<entropy = 0.0<br/>samples = 12<br/>value = [12, 0]<br/>class = poisonous>, fillcolor="#e58139ff"] ;
345 -> 351 ;
352 [label=<population &le; 19.5<br/>entropy = 0.45<br/>samples = 117<br/>value = [106, 11]<br/>class = poisonous>, fillcolor="#e58139e5"] ;
344 -> 352 ;
353 [label=<capshape &le; 14.0<br/>entropy = 0.414<br/>samples = 84<br/>value = [77, 7]<br/>class = poisonous>, fillcolor="#e58139e8"] ;
352 -> 353 ;
354 [label=<sporeprintcolor &le; 11.5<br/>entropy = 0.496<br/>samples = 46<br/>value = [41, 5]<br/>class = poisonous>, fillcolor="#e58139e0"] ;
353 -> 354 ;
355 [label=<gillcolor &le; 11.5<br/>entropy = 0.629<br/>samples = 19<br/>value = [16, 3]<br/>class = poisonous>, fillcolor="#e58139cf"] ;
354 -> 355 ;
356 [label=<population &le; 9.0<br/>entropy = 0.863<br/>samples = 7<br/>value = [5, 2]<br/>class = poisonous>, fillcolor="#e5813999"] ;
355 -> 356 ;
357 [label=<entropy = 0.0<br/>samples = 4<br/>value = [4, 0]<br/>class = poisonous>, fillcolor="#e58139ff"] ;
356 -> 357 ;
358 [label=<entropy = 0.918<br/>samples = 3<br/>value = [1, 2]<br/>class = non-poisonous>, fillcolor="#399de57f"] ;
356 -> 358 ;
359 [label=<capcolor &le; 17.5<br/>entropy = 0.414<br/>samples = 12<br/>value = [11, 1]<br/>class = poisonous>, fillcolor="#e58139e8"] ;
355 -> 359 ;
360 [label=<entropy = 0.0<br/>samples = 8<br/>value = [8, 0]<br/>class = poisonous>, fillcolor="#e58139ff"] ;
359 -> 360 ;
361 [label=<entropy = 0.811<br/>samples = 4<br/>value = [3, 1]<br/>class = poisonous>, fillcolor="#e58139aa"] ;
359 -> 361 ;
362 [label=<population &le; 9.0<br/>entropy = 0.381<br/>samples = 27<br/>value = [25, 2]<br/>class = poisonous>, fillcolor="#e58139eb"] ;
354 -> 362 ;
363 [label=<gillcolor &le; 14.0<br/>entropy = 0.619<br/>samples = 13<br/>value = [11, 2]<br/>class = poisonous>, fillcolor="#e58139d1"] ;
362 -> 363 ;
364 [label=<capcolor &le; 17.5<br/>entropy = 0.764<br/>samples = 9<br/>value = [7, 2]<br/>class = poisonous>, fillcolor="#e58139b6"] ;
363 -> 364 ;
365 [label=<stalksurfacebelowring &le; 11.5<br/>entropy = 0.918<br/>samples = 6<br/>value = [4, 2]<br/>class = poisonous>, fillcolor="#e581397f"] ;
364 -> 365 ;
366 [label=<entropy = 1.0<br/>samples = 4<br/>value = [2, 2]<br/>class = poisonous>, fillcolor="#e5813900"] ;
365 -> 366 ;
367 [label=<entropy = 0.0<br/>samples = 2<br/>value = [2, 0]<br/>class = poisonous>, fillcolor="#e58139ff"] ;
365 -> 367 ;
368 [label=<entropy = 0.0<br/>samples = 3<br/>value = [3, 0]<br/>class = poisonous>, fillcolor="#e58139ff"] ;
364 -> 368 ;
369 [label=<entropy = 0.0<br/>samples = 4<br/>value = [4, 0]<br/>class = poisonous>, fillcolor="#e58139ff"] ;
363 -> 369 ;
370 [label=<entropy = 0.0<br/>samples = 14<br/>value = [14, 0]<br/>class = poisonous>, fillcolor="#e58139ff"] ;
362 -> 370 ;
371 [label=<capcolor &le; 9.5<br/>entropy = 0.297<br/>samples = 38<br/>value = [36, 2]<br/>class = poisonous>, fillcolor="#e58139f1"] ;
353 -> 371 ;
372 [label=<sporeprintcolor &le; 11.5<br/>entropy = 0.544<br/>samples = 16<br/>value = [14, 2]<br/>class = poisonous>, fillcolor="#e58139db"] ;
371 -> 372 ;
373 [label=<entropy = 0.0<br/>samples = 8<br/>value = [8, 0]<br/>class = poisonous>, fillcolor="#e58139ff"] ;
372 -> 373 ;
374 [label=<gillcolor &le; 11.5<br/>entropy = 0.811<br/>samples = 8<br/>value = [6, 2]<br/>class = poisonous>, fillcolor="#e58139aa"] ;
372 -> 374 ;
375 [label=<gillcolor &le; 8.5<br/>entropy = 0.65<br/>samples = 6<br/>value = [5, 1]<br/>class = poisonous>, fillcolor="#e58139cc"] ;
374 -> 375 ;
376 [label=<entropy = 0.918<br/>samples = 3<br/>value = [2, 1]<br/>class = poisonous>, fillcolor="#e581397f"] ;
375 -> 376 ;
377 [label=<entropy = 0.0<br/>samples = 3<br/>value = [3, 0]<br/>class = poisonous>, fillcolor="#e58139ff"] ;
375 -> 377 ;
378 [label=<entropy = 1.0<br/>samples = 2<br/>value = [1, 1]<br/>class = poisonous>, fillcolor="#e5813900"] ;
374 -> 378 ;
379 [label=<entropy = 0.0<br/>samples = 22<br/>value = [22, 0]<br/>class = poisonous>, fillcolor="#e58139ff"] ;
371 -> 379 ;
380 [label=<capcolor &le; 9.5<br/>entropy = 0.533<br/>samples = 33<br/>value = [29, 4]<br/>class = poisonous>, fillcolor="#e58139dc"] ;
352 -> 380 ;
381 [label=<sporeprintcolor &le; 11.5<br/>entropy = 0.31<br/>samples = 18<br/>value = [17, 1]<br/>class = poisonous>, fillcolor="#e58139f0"] ;
380 -> 381 ;
382 [label=<stalkcolorbelowring &le; 10.5<br/>entropy = 0.544<br/>samples = 8<br/>value = [7, 1]<br/>class = poisonous>, fillcolor="#e58139db"] ;
381 -> 382 ;
383 [label=<entropy = 0.0<br/>samples = 4<br/>value = [4, 0]<br/>class = poisonous>, fillcolor="#e58139ff"] ;
382 -> 383 ;
384 [label=<entropy = 0.811<br/>samples = 4<br/>value = [3, 1]<br/>class = poisonous>, fillcolor="#e58139aa"] ;
382 -> 384 ;
385 [label=<entropy = 0.0<br/>samples = 10<br/>value = [10, 0]<br/>class = poisonous>, fillcolor="#e58139ff"] ;
381 -> 385 ;
386 [label=<capshape &le; 14.0<br/>entropy = 0.722<br/>samples = 15<br/>value = [12, 3]<br/>class = poisonous>, fillcolor="#e58139bf"] ;
380 -> 386 ;
387 [label=<stalkcolorabovering &le; 18.5<br/>entropy = 0.503<br/>samples = 9<br/>value = [8, 1]<br/>class = poisonous>, fillcolor="#e58139df"] ;
386 -> 387 ;
388 [label=<entropy = 0.0<br/>samples = 5<br/>value = [5, 0]<br/>class = poisonous>, fillcolor="#e58139ff"] ;
387 -> 388 ;
389 [label=<entropy = 0.811<br/>samples = 4<br/>value = [3, 1]<br/>class = poisonous>, fillcolor="#e58139aa"] ;
387 -> 389 ;
390 [label=<stalkcolorbelowring &le; 10.5<br/>entropy = 0.918<br/>samples = 6<br/>value = [4, 2]<br/>class = poisonous>, fillcolor="#e581397f"] ;
386 -> 390 ;
391 [label=<entropy = 0.0<br/>samples = 1<br/>value = [0, 1]<br/>class = non-poisonous>, fillcolor="#399de5ff"] ;
390 -> 391 ;
392 [label=<sporeprintcolor &le; 11.5<br/>entropy = 0.722<br/>samples = 5<br/>value = [4, 1]<br/>class = poisonous>, fillcolor="#e58139bf"] ;
390 -> 392 ;
393 [label=<entropy = 0.0<br/>samples = 4<br/>value = [4, 0]<br/>class = poisonous>, fillcolor="#e58139ff"] ;
392 -> 393 ;
394 [label=<entropy = 0.0<br/>samples = 1<br/>value = [0, 1]<br/>class = non-poisonous>, fillcolor="#399de5ff"] ;
392 -> 394 ;
395 [label=<stalkcolorbelowring &le; 10.5<br/>entropy = 0.579<br/>samples = 29<br/>value = [25, 4]<br/>class = poisonous>, fillcolor="#e58139d6"] ;
343 -> 395 ;
396 [label=<capcolor &le; 9.5<br/>entropy = 0.779<br/>samples = 13<br/>value = [10, 3]<br/>class = poisonous>, fillcolor="#e58139b3"] ;
395 -> 396 ;
397 [label=<sporeprintcolor &le; 11.5<br/>entropy = 0.881<br/>samples = 10<br/>value = [7, 3]<br/>class = poisonous>, fillcolor="#e5813992"] ;
396 -> 397 ;
398 [label=<entropy = 1.0<br/>samples = 4<br/>value = [2, 2]<br/>class = poisonous>, fillcolor="#e5813900"] ;
397 -> 398 ;
399 [label=<capshape &le; 14.0<br/>entropy = 0.65<br/>samples = 6<br/>value = [5, 1]<br/>class = poisonous>, fillcolor="#e58139cc"] ;
397 -> 399 ;
400 [label=<entropy = 0.0<br/>samples = 4<br/>value = [4, 0]<br/>class = poisonous>, fillcolor="#e58139ff"] ;
399 -> 400 ;
401 [label=<entropy = 1.0<br/>samples = 2<br/>value = [1, 1]<br/>class = poisonous>, fillcolor="#e5813900"] ;
399 -> 401 ;
402 [label=<entropy = 0.0<br/>samples = 3<br/>value = [3, 0]<br/>class = poisonous>, fillcolor="#e58139ff"] ;
396 -> 402 ;
403 [label=<capcolor &le; 9.5<br/>entropy = 0.337<br/>samples = 16<br/>value = [15, 1]<br/>class = poisonous>, fillcolor="#e58139ee"] ;
395 -> 403 ;
404 [label=<entropy = 0.0<br/>samples = 10<br/>value = [10, 0]<br/>class = poisonous>, fillcolor="#e58139ff"] ;
403 -> 404 ;
405 [label=<stalkcolorbelowring &le; 18.5<br/>entropy = 0.65<br/>samples = 6<br/>value = [5, 1]<br/>class = poisonous>, fillcolor="#e58139cc"] ;
403 -> 405 ;
406 [label=<entropy = 0.0<br/>samples = 4<br/>value = [4, 0]<br/>class = poisonous>, fillcolor="#e58139ff"] ;
405 -> 406 ;
407 [label=<entropy = 1.0<br/>samples = 2<br/>value = [1, 1]<br/>class = poisonous>, fillcolor="#e5813900"] ;
405 -> 407 ;
408 [label=<entropy = 0.0<br/>samples = 35<br/>value = [35, 0]<br/>class = poisonous>, fillcolor="#e58139ff"] ;
326 -> 408 ;
409 [label=<capcolor &le; 9.5<br/>entropy = 0.515<br/>samples = 191<br/>value = [169, 22]<br/>class = poisonous>, fillcolor="#e58139de"] ;
325 -> 409 ;
410 [label=<gillcolor &le; 17.5<br/>entropy = 0.565<br/>samples = 128<br/>value = [111, 17]<br/>class = poisonous>, fillcolor="#e58139d8"] ;
409 -> 410 ;
411 [label=<stalkcolorbelowring &le; 10.5<br/>entropy = 0.498<br/>samples = 64<br/>value = [57, 7]<br/>class = poisonous>, fillcolor="#e58139e0"] ;
410 -> 411 ;
412 [label=<capcolor &le; 5.0<br/>entropy = 0.629<br/>samples = 19<br/>value = [16, 3]<br/>class = poisonous>, fillcolor="#e58139cf"] ;
411 -> 412 ;
413 [label=<stalkcolorabovering &le; 18.5<br/>entropy = 0.811<br/>samples = 8<br/>value = [6, 2]<br/>class = poisonous>, fillcolor="#e58139aa"] ;
412 -> 413 ;
414 [label=<sporeprintcolor &le; 11.5<br/>entropy = 0.918<br/>samples = 6<br/>value = [4, 2]<br/>class = poisonous>, fillcolor="#e581397f"] ;
413 -> 414 ;
415 [label=<entropy = 0.811<br/>samples = 4<br/>value = [3, 1]<br/>class = poisonous>, fillcolor="#e58139aa"] ;
414 -> 415 ;
416 [label=<entropy = 1.0<br/>samples = 2<br/>value = [1, 1]<br/>class = poisonous>, fillcolor="#e5813900"] ;
414 -> 416 ;
417 [label=<entropy = 0.0<br/>samples = 2<br/>value = [2, 0]<br/>class = poisonous>, fillcolor="#e58139ff"] ;
413 -> 417 ;
418 [label=<stalkcolorabovering &le; 18.5<br/>entropy = 0.439<br/>samples = 11<br/>value = [10, 1]<br/>class = poisonous>, fillcolor="#e58139e6"] ;
412 -> 418 ;
419 [label=<entropy = 0.0<br/>samples = 7<br/>value = [7, 0]<br/>class = poisonous>, fillcolor="#e58139ff"] ;
418 -> 419 ;
420 [label=<entropy = 0.811<br/>samples = 4<br/>value = [3, 1]<br/>class = poisonous>, fillcolor="#e58139aa"] ;
418 -> 420 ;
421 [label=<capshape &le; 14.0<br/>entropy = 0.433<br/>samples = 45<br/>value = [41, 4]<br/>class = poisonous>, fillcolor="#e58139e6"] ;
411 -> 421 ;
422 [label=<gillcolor &le; 14.0<br/>entropy = 0.579<br/>samples = 29<br/>value = [25, 4]<br/>class = poisonous>, fillcolor="#e58139d6"] ;
421 -> 422 ;
423 [label=<stalkcolorabovering &le; 10.5<br/>entropy = 0.469<br/>samples = 10<br/>value = [9, 1]<br/>class = poisonous>, fillcolor="#e58139e3"] ;
422 -> 423 ;
424 [label=<entropy = 0.811<br/>samples = 4<br/>value = [3, 1]<br/>class = poisonous>, fillcolor="#e58139aa"] ;
423 -> 424 ;
425 [label=<entropy = 0.0<br/>samples = 6<br/>value = [6, 0]<br/>class = poisonous>, fillcolor="#e58139ff"] ;
423 -> 425 ;
426 [label=<stalkcolorabovering &le; 10.5<br/>entropy = 0.629<br/>samples = 19<br/>value = [16, 3]<br/>class = poisonous>, fillcolor="#e58139cf"] ;
422 -> 426 ;
427 [label=<entropy = 0.0<br/>samples = 6<br/>value = [6, 0]<br/>class = poisonous>, fillcolor="#e58139ff"] ;
426 -> 427 ;
428 [label=<sporeprintcolor &le; 11.5<br/>entropy = 0.779<br/>samples = 13<br/>value = [10, 3]<br/>class = poisonous>, fillcolor="#e58139b3"] ;
426 -> 428 ;
429 [label=<stalkcolorbelowring &le; 18.5<br/>entropy = 0.918<br/>samples = 6<br/>value = [4, 2]<br/>class = poisonous>, fillcolor="#e581397f"] ;
428 -> 429 ;
430 [label=<entropy = 0.0<br/>samples = 3<br/>value = [3, 0]<br/>class = poisonous>, fillcolor="#e58139ff"] ;
429 -> 430 ;
431 [label=<entropy = 0.918<br/>samples = 3<br/>value = [1, 2]<br/>class = non-poisonous>, fillcolor="#399de57f"] ;
429 -> 431 ;
432 [label=<stalkcolorbelowring &le; 18.5<br/>entropy = 0.592<br/>samples = 7<br/>value = [6, 1]<br/>class = poisonous>, fillcolor="#e58139d4"] ;
428 -> 432 ;
433 [label=<entropy = 0.918<br/>samples = 3<br/>value = [2, 1]<br/>class = poisonous>, fillcolor="#e581397f"] ;
432 -> 433 ;
434 [label=<entropy = 0.0<br/>samples = 4<br/>value = [4, 0]<br/>class = poisonous>, fillcolor="#e58139ff"] ;
432 -> 434 ;
435 [label=<entropy = 0.0<br/>samples = 16<br/>value = [16, 0]<br/>class = poisonous>, fillcolor="#e58139ff"] ;
421 -> 435 ;
436 [label=<stalkcolorbelowring &le; 10.5<br/>entropy = 0.625<br/>samples = 64<br/>value = [54, 10]<br/>class = poisonous>, fillcolor="#e58139d0"] ;
410 -> 436 ;
437 [label=<capcolor &le; 5.0<br/>entropy = 0.439<br/>samples = 22<br/>value = [20, 2]<br/>class = poisonous>, fillcolor="#e58139e6"] ;
436 -> 437 ;
438 [label=<entropy = 0.0<br/>samples = 11<br/>value = [11, 0]<br/>class = poisonous>, fillcolor="#e58139ff"] ;
437 -> 438 ;
439 [label=<capshape &le; 14.0<br/>entropy = 0.684<br/>samples = 11<br/>value = [9, 2]<br/>class = poisonous>, fillcolor="#e58139c6"] ;
437 -> 439 ;
440 [label=<entropy = 0.0<br/>samples = 5<br/>value = [5, 0]<br/>class = poisonous>, fillcolor="#e58139ff"] ;
439 -> 440 ;
441 [label=<stalkcolorabovering &le; 10.5<br/>entropy = 0.918<br/>samples = 6<br/>value = [4, 2]<br/>class = poisonous>, fillcolor="#e581397f"] ;
439 -> 441 ;
442 [label=<entropy = 0.0<br/>samples = 1<br/>value = [1, 0]<br/>class = poisonous>, fillcolor="#e58139ff"] ;
441 -> 442 ;
443 [label=<stalkcolorabovering &le; 18.5<br/>entropy = 0.971<br/>samples = 5<br/>value = [3, 2]<br/>class = poisonous>, fillcolor="#e5813955"] ;
441 -> 443 ;
444 [label=<entropy = 1.0<br/>samples = 4<br/>value = [2, 2]<br/>class = poisonous>, fillcolor="#e5813900"] ;
443 -> 444 ;
445 [label=<entropy = 0.0<br/>samples = 1<br/>value = [1, 0]<br/>class = poisonous>, fillcolor="#e58139ff"] ;
443 -> 445 ;
446 [label=<stalkcolorabovering &le; 18.5<br/>entropy = 0.702<br/>samples = 42<br/>value = [34, 8]<br/>class = poisonous>, fillcolor="#e58139c3"] ;
436 -> 446 ;
447 [label=<capshape &le; 14.0<br/>entropy = 0.634<br/>samples = 25<br/>value = [21, 4]<br/>class = poisonous>, fillcolor="#e58139ce"] ;
446 -> 447 ;
448 [label=<capcolor &le; 5.0<br/>entropy = 0.469<br/>samples = 10<br/>value = [9, 1]<br/>class = poisonous>, fillcolor="#e58139e3"] ;
447 -> 448 ;
449 [label=<entropy = 0.811<br/>samples = 4<br/>value = [3, 1]<br/>class = poisonous>, fillcolor="#e58139aa"] ;
448 -> 449 ;
450 [label=<entropy = 0.0<br/>samples = 6<br/>value = [6, 0]<br/>class = poisonous>, fillcolor="#e58139ff"] ;
448 -> 450 ;
451 [label=<sporeprintcolor &le; 11.5<br/>entropy = 0.722<br/>samples = 15<br/>value = [12, 3]<br/>class = poisonous>, fillcolor="#e58139bf"] ;
447 -> 451 ;
452 [label=<stalkcolorbelowring &le; 18.5<br/>entropy = 0.544<br/>samples = 8<br/>value = [7, 1]<br/>class = poisonous>, fillcolor="#e58139db"] ;
451 -> 452 ;
453 [label=<entropy = 0.0<br/>samples = 5<br/>value = [5, 0]<br/>class = poisonous>, fillcolor="#e58139ff"] ;
452 -> 453 ;
454 [label=<entropy = 0.918<br/>samples = 3<br/>value = [2, 1]<br/>class = poisonous>, fillcolor="#e581397f"] ;
452 -> 454 ;
455 [label=<stalkcolorbelowring &le; 18.5<br/>entropy = 0.863<br/>samples = 7<br/>value = [5, 2]<br/>class = poisonous>, fillcolor="#e5813999"] ;
451 -> 455 ;
456 [label=<gillcolor &le; 21.0<br/>entropy = 0.971<br/>samples = 5<br/>value = [3, 2]<br/>class = poisonous>, fillcolor="#e5813955"] ;
455 -> 456 ;
457 [label=<entropy = 0.918<br/>samples = 3<br/>value = [2, 1]<br/>class = poisonous>, fillcolor="#e581397f"] ;
456 -> 457 ;
458 [label=<entropy = 1.0<br/>samples = 2<br/>value = [1, 1]<br/>class = poisonous>, fillcolor="#e5813900"] ;
456 -> 458 ;
459 [label=<entropy = 0.0<br/>samples = 2<br/>value = [2, 0]<br/>class = poisonous>, fillcolor="#e58139ff"] ;
455 -> 459 ;
460 [label=<sporeprintcolor &le; 11.5<br/>entropy = 0.787<br/>samples = 17<br/>value = [13, 4]<br/>class = poisonous>, fillcolor="#e58139b1"] ;
446 -> 460 ;
461 [label=<stalkcolorbelowring &le; 18.5<br/>entropy = 0.918<br/>samples = 6<br/>value = [4, 2]<br/>class = poisonous>, fillcolor="#e581397f"] ;
460 -> 461 ;
462 [label=<entropy = 0.0<br/>samples = 3<br/>value = [3, 0]<br/>class = poisonous>, fillcolor="#e58139ff"] ;
461 -> 462 ;
463 [label=<entropy = 0.918<br/>samples = 3<br/>value = [1, 2]<br/>class = non-poisonous>, fillcolor="#399de57f"] ;
461 -> 463 ;
464 [label=<stalkcolorbelowring &le; 18.5<br/>entropy = 0.684<br/>samples = 11<br/>value = [9, 2]<br/>class = poisonous>, fillcolor="#e58139c6"] ;
460 -> 464 ;
465 [label=<capcolor &le; 5.0<br/>entropy = 0.863<br/>samples = 7<br/>value = [5, 2]<br/>class = poisonous>, fillcolor="#e5813999"] ;
464 -> 465 ;
466 [label=<entropy = 0.0<br/>samples = 3<br/>value = [3, 0]<br/>class = poisonous>, fillcolor="#e58139ff"] ;
465 -> 466 ;
467 [label=<entropy = 1.0<br/>samples = 4<br/>value = [2, 2]<br/>class = poisonous>, fillcolor="#e5813900"] ;
465 -> 467 ;
468 [label=<entropy = 0.0<br/>samples = 4<br/>value = [4, 0]<br/>class = poisonous>, fillcolor="#e58139ff"] ;
464 -> 468 ;
469 [label=<stalkcolorbelowring &le; 10.5<br/>entropy = 0.4<br/>samples = 63<br/>value = [58, 5]<br/>class = poisonous>, fillcolor="#e58139e9"] ;
409 -> 469 ;
470 [label=<capshape &le; 14.0<br/>entropy = 0.684<br/>samples = 22<br/>value = [18, 4]<br/>class = poisonous>, fillcolor="#e58139c6"] ;
469 -> 470 ;
471 [label=<gillcolor &le; 21.0<br/>entropy = 0.811<br/>samples = 12<br/>value = [9, 3]<br/>class = poisonous>, fillcolor="#e58139aa"] ;
470 -> 471 ;
472 [label=<stalkcolorabovering &le; 10.5<br/>entropy = 0.592<br/>samples = 7<br/>value = [6, 1]<br/>class = poisonous>, fillcolor="#e58139d4"] ;
471 -> 472 ;
473 [label=<entropy = 0.0<br/>samples = 4<br/>value = [4, 0]<br/>class = poisonous>, fillcolor="#e58139ff"] ;
472 -> 473 ;
474 [label=<entropy = 0.918<br/>samples = 3<br/>value = [2, 1]<br/>class = poisonous>, fillcolor="#e581397f"] ;
472 -> 474 ;
475 [label=<stalkcolorabovering &le; 18.5<br/>entropy = 0.971<br/>samples = 5<br/>value = [3, 2]<br/>class = poisonous>, fillcolor="#e5813955"] ;
471 -> 475 ;
476 [label=<entropy = 0.811<br/>samples = 4<br/>value = [3, 1]<br/>class = poisonous>, fillcolor="#e58139aa"] ;
475 -> 476 ;
477 [label=<entropy = 0.0<br/>samples = 1<br/>value = [0, 1]<br/>class = non-poisonous>, fillcolor="#399de5ff"] ;
475 -> 477 ;
478 [label=<stalkcolorabovering &le; 10.5<br/>entropy = 0.469<br/>samples = 10<br/>value = [9, 1]<br/>class = poisonous>, fillcolor="#e58139e3"] ;
470 -> 478 ;
479 [label=<sporeprintcolor &le; 11.5<br/>entropy = 0.722<br/>samples = 5<br/>value = [4, 1]<br/>class = poisonous>, fillcolor="#e58139bf"] ;
478 -> 479 ;
480 [label=<entropy = 0.918<br/>samples = 3<br/>value = [2, 1]<br/>class = poisonous>, fillcolor="#e581397f"] ;
479 -> 480 ;
481 [label=<entropy = 0.0<br/>samples = 2<br/>value = [2, 0]<br/>class = poisonous>, fillcolor="#e58139ff"] ;
479 -> 481 ;
482 [label=<entropy = 0.0<br/>samples = 5<br/>value = [5, 0]<br/>class = poisonous>, fillcolor="#e58139ff"] ;
478 -> 482 ;
483 [label=<stalkcolorabovering &le; 18.5<br/>entropy = 0.165<br/>samples = 41<br/>value = [40, 1]<br/>class = poisonous>, fillcolor="#e58139f9"] ;
469 -> 483 ;
484 [label=<entropy = 0.0<br/>samples = 34<br/>value = [34, 0]<br/>class = poisonous>, fillcolor="#e58139ff"] ;
483 -> 484 ;
485 [label=<capshape &le; 14.0<br/>entropy = 0.592<br/>samples = 7<br/>value = [6, 1]<br/>class = poisonous>, fillcolor="#e58139d4"] ;
483 -> 485 ;
486 [label=<entropy = 0.0<br/>samples = 3<br/>value = [3, 0]<br/>class = poisonous>, fillcolor="#e58139ff"] ;
485 -> 486 ;
487 [label=<entropy = 0.811<br/>samples = 4<br/>value = [3, 1]<br/>class = poisonous>, fillcolor="#e58139aa"] ;
485 -> 487 ;
488 [label=<stalksurfaceabovering &le; 11.5<br/>entropy = 0.393<br/>samples = 504<br/>value = [465, 39]<br/>class = poisonous>, fillcolor="#e58139ea"] ;
290 -> 488 ;
489 [label=<sporeprintcolor &le; 11.5<br/>entropy = 0.222<br/>samples = 84<br/>value = [81, 3]<br/>class = poisonous>, fillcolor="#e58139f6"] ;
488 -> 489 ;
490 [label=<entropy = 0.0<br/>samples = 43<br/>value = [43, 0]<br/>class = poisonous>, fillcolor="#e58139ff"] ;
489 -> 490 ;
491 [label=<capcolor &le; 17.5<br/>entropy = 0.378<br/>samples = 41<br/>value = [38, 3]<br/>class = poisonous>, fillcolor="#e58139eb"] ;
489 -> 491 ;
492 [label=<gillcolor &le; 8.5<br/>entropy = 0.503<br/>samples = 27<br/>value = [24, 3]<br/>class = poisonous>, fillcolor="#e58139df"] ;
491 -> 492 ;
493 [label=<entropy = 0.0<br/>samples = 9<br/>value = [9, 0]<br/>class = poisonous>, fillcolor="#e58139ff"] ;
492 -> 493 ;
494 [label=<gillcolor &le; 14.0<br/>entropy = 0.65<br/>samples = 18<br/>value = [15, 3]<br/>class = poisonous>, fillcolor="#e58139cc"] ;
492 -> 494 ;
495 [label=<capcolor &le; 9.5<br/>entropy = 0.845<br/>samples = 11<br/>value = [8, 3]<br/>class = poisonous>, fillcolor="#e581399f"] ;
494 -> 495 ;
496 [label=<stalksurfacebelowring &le; 11.5<br/>entropy = 0.592<br/>samples = 7<br/>value = [6, 1]<br/>class = poisonous>, fillcolor="#e58139d4"] ;
495 -> 496 ;
497 [label=<entropy = 0.918<br/>samples = 3<br/>value = [2, 1]<br/>class = poisonous>, fillcolor="#e581397f"] ;
496 -> 497 ;
498 [label=<entropy = 0.0<br/>samples = 4<br/>value = [4, 0]<br/>class = poisonous>, fillcolor="#e58139ff"] ;
496 -> 498 ;
499 [label=<entropy = 1.0<br/>samples = 4<br/>value = [2, 2]<br/>class = poisonous>, fillcolor="#e5813900"] ;
495 -> 499 ;
500 [label=<entropy = 0.0<br/>samples = 7<br/>value = [7, 0]<br/>class = poisonous>, fillcolor="#e58139ff"] ;
494 -> 500 ;
501 [label=<entropy = 0.0<br/>samples = 14<br/>value = [14, 0]<br/>class = poisonous>, fillcolor="#e58139ff"] ;
491 -> 501 ;
502 [label=<capcolor &le; 9.5<br/>entropy = 0.422<br/>samples = 420<br/>value = [384, 36]<br/>class = poisonous>, fillcolor="#e58139e7"] ;
488 -> 502 ;
503 [label=<population &le; 9.0<br/>entropy = 0.473<br/>samples = 257<br/>value = [231, 26]<br/>class = poisonous>, fillcolor="#e58139e2"] ;
502 -> 503 ;
504 [label=<entropy = 0.0<br/>samples = 13<br/>value = [13, 0]<br/>class = poisonous>, fillcolor="#e58139ff"] ;
503 -> 504 ;
505 [label=<stalkcolorabovering &le; 18.5<br/>entropy = 0.489<br/>samples = 244<br/>value = [218, 26]<br/>class = poisonous>, fillcolor="#e58139e1"] ;
503 -> 505 ;
506 [label=<stalkcolorbelowring &le; 18.5<br/>entropy = 0.41<br/>samples = 146<br/>value = [134, 12]<br/>class = poisonous>, fillcolor="#e58139e8"] ;
505 -> 506 ;
507 [label=<gillcolor &le; 21.0<br/>entropy = 0.335<br/>samples = 97<br/>value = [91, 6]<br/>class = poisonous>, fillcolor="#e58139ee"] ;
506 -> 507 ;
508 [label=<gillcolor &le; 14.0<br/>entropy = 0.116<br/>samples = 64<br/>value = [63, 1]<br/>class = poisonous>, fillcolor="#e58139fb"] ;
507 -> 508 ;
509 [label=<population &le; 22.5<br/>entropy = 0.258<br/>samples = 23<br/>value = [22, 1]<br/>class = poisonous>, fillcolor="#e58139f3"] ;
508 -> 509 ;
510 [label=<entropy = 0.0<br/>samples = 12<br/>value = [12, 0]<br/>class = poisonous>, fillcolor="#e58139ff"] ;
509 -> 510 ;
511 [label=<stalkcolorabovering &le; 10.5<br/>entropy = 0.439<br/>samples = 11<br/>value = [10, 1]<br/>class = poisonous>, fillcolor="#e58139e6"] ;
509 -> 511 ;
512 [label=<capshape &le; 14.0<br/>entropy = 0.722<br/>samples = 5<br/>value = [4, 1]<br/>class = poisonous>, fillcolor="#e58139bf"] ;
511 -> 512 ;
513 [label=<entropy = 1.0<br/>samples = 2<br/>value = [1, 1]<br/>class = poisonous>, fillcolor="#e5813900"] ;
512 -> 513 ;
514 [label=<entropy = 0.0<br/>samples = 3<br/>value = [3, 0]<br/>class = poisonous>, fillcolor="#e58139ff"] ;
512 -> 514 ;
515 [label=<entropy = 0.0<br/>samples = 6<br/>value = [6, 0]<br/>class = poisonous>, fillcolor="#e58139ff"] ;
511 -> 515 ;
516 [label=<entropy = 0.0<br/>samples = 41<br/>value = [41, 0]<br/>class = poisonous>, fillcolor="#e58139ff"] ;
508 -> 516 ;
517 [label=<stalkcolorbelowring &le; 10.5<br/>entropy = 0.614<br/>samples = 33<br/>value = [28, 5]<br/>class = poisonous>, fillcolor="#e58139d1"] ;
507 -> 517 ;
518 [label=<stalkcolorabovering &le; 10.5<br/>entropy = 0.863<br/>samples = 14<br/>value = [10, 4]<br/>class = poisonous>, fillcolor="#e5813999"] ;
517 -> 518 ;
519 [label=<capshape &le; 14.0<br/>entropy = 0.544<br/>samples = 8<br/>value = [7, 1]<br/>class = poisonous>, fillcolor="#e58139db"] ;
518 -> 519 ;
520 [label=<entropy = 0.811<br/>samples = 4<br/>value = [3, 1]<br/>class = poisonous>, fillcolor="#e58139aa"] ;
519 -> 520 ;
521 [label=<entropy = 0.0<br/>samples = 4<br/>value = [4, 0]<br/>class = poisonous>, fillcolor="#e58139ff"] ;
519 -> 521 ;
522 [label=<sporeprintcolor &le; 11.5<br/>entropy = 1.0<br/>samples = 6<br/>value = [3, 3]<br/>class = poisonous>, fillcolor="#e5813900"] ;
518 -> 522 ;
523 [label=<entropy = 0.0<br/>samples = 2<br/>value = [0, 2]<br/>class = non-poisonous>, fillcolor="#399de5ff"] ;
522 -> 523 ;
524 [label=<entropy = 0.811<br/>samples = 4<br/>value = [3, 1]<br/>class = poisonous>, fillcolor="#e58139aa"] ;
522 -> 524 ;
525 [label=<capcolor &le; 5.0<br/>entropy = 0.297<br/>samples = 19<br/>value = [18, 1]<br/>class = poisonous>, fillcolor="#e58139f1"] ;
517 -> 525 ;
526 [label=<entropy = 0.0<br/>samples = 12<br/>value = [12, 0]<br/>class = poisonous>, fillcolor="#e58139ff"] ;
525 -> 526 ;
527 [label=<sporeprintcolor &le; 11.5<br/>entropy = 0.592<br/>samples = 7<br/>value = [6, 1]<br/>class = poisonous>, fillcolor="#e58139d4"] ;
525 -> 527 ;
528 [label=<entropy = 0.918<br/>samples = 3<br/>value = [2, 1]<br/>class = poisonous>, fillcolor="#e581397f"] ;
527 -> 528 ;
529 [label=<entropy = 0.0<br/>samples = 4<br/>value = [4, 0]<br/>class = poisonous>, fillcolor="#e58139ff"] ;
527 -> 529 ;
530 [label=<stalkcolorabovering &le; 10.5<br/>entropy = 0.536<br/>samples = 49<br/>value = [43, 6]<br/>class = poisonous>, fillcolor="#e58139db"] ;
506 -> 530 ;
531 [label=<gillcolor &le; 17.5<br/>entropy = 0.684<br/>samples = 22<br/>value = [18, 4]<br/>class = poisonous>, fillcolor="#e58139c6"] ;
530 -> 531 ;
532 [label=<population &le; 22.5<br/>entropy = 0.881<br/>samples = 10<br/>value = [7, 3]<br/>class = poisonous>, fillcolor="#e5813992"] ;
531 -> 532 ;
533 [label=<capshape &le; 14.0<br/>entropy = 0.971<br/>samples = 5<br/>value = [3, 2]<br/>class = poisonous>, fillcolor="#e5813955"] ;
532 -> 533 ;
534 [label=<entropy = 0.0<br/>samples = 2<br/>value = [2, 0]<br/>class = poisonous>, fillcolor="#e58139ff"] ;
533 -> 534 ;
535 [label=<entropy = 0.918<br/>samples = 3<br/>value = [1, 2]<br/>class = non-poisonous>, fillcolor="#399de57f"] ;
533 -> 535 ;
536 [label=<sporeprintcolor &le; 11.5<br/>entropy = 0.722<br/>samples = 5<br/>value = [4, 1]<br/>class = poisonous>, fillcolor="#e58139bf"] ;
532 -> 536 ;
537 [label=<entropy = 0.0<br/>samples = 3<br/>value = [3, 0]<br/>class = poisonous>, fillcolor="#e58139ff"] ;
536 -> 537 ;
538 [label=<entropy = 1.0<br/>samples = 2<br/>value = [1, 1]<br/>class = poisonous>, fillcolor="#e5813900"] ;
536 -> 538 ;
539 [label=<capcolor &le; 5.0<br/>entropy = 0.414<br/>samples = 12<br/>value = [11, 1]<br/>class = poisonous>, fillcolor="#e58139e8"] ;
531 -> 539 ;
540 [label=<capshape &le; 14.0<br/>entropy = 0.722<br/>samples = 5<br/>value = [4, 1]<br/>class = poisonous>, fillcolor="#e58139bf"] ;
539 -> 540 ;
541 [label=<entropy = 1.0<br/>samples = 2<br/>value = [1, 1]<br/>class = poisonous>, fillcolor="#e5813900"] ;
540 -> 541 ;
542 [label=<entropy = 0.0<br/>samples = 3<br/>value = [3, 0]<br/>class = poisonous>, fillcolor="#e58139ff"] ;
540 -> 542 ;
543 [label=<entropy = 0.0<br/>samples = 7<br/>value = [7, 0]<br/>class = poisonous>, fillcolor="#e58139ff"] ;
539 -> 543 ;
544 [label=<capshape &le; 14.0<br/>entropy = 0.381<br/>samples = 27<br/>value = [25, 2]<br/>class = poisonous>, fillcolor="#e58139eb"] ;
530 -> 544 ;
545 [label=<entropy = 0.0<br/>samples = 11<br/>value = [11, 0]<br/>class = poisonous>, fillcolor="#e58139ff"] ;
544 -> 545 ;
546 [label=<gillcolor &le; 17.5<br/>entropy = 0.544<br/>samples = 16<br/>value = [14, 2]<br/>class = poisonous>, fillcolor="#e58139db"] ;
544 -> 546 ;
547 [label=<entropy = 0.0<br/>samples = 6<br/>value = [6, 0]<br/>class = poisonous>, fillcolor="#e58139ff"] ;
546 -> 547 ;
548 [label=<gillcolor &le; 21.0<br/>entropy = 0.722<br/>samples = 10<br/>value = [8, 2]<br/>class = poisonous>, fillcolor="#e58139bf"] ;
546 -> 548 ;
549 [label=<sporeprintcolor &le; 11.5<br/>entropy = 0.918<br/>samples = 6<br/>value = [4, 2]<br/>class = poisonous>, fillcolor="#e581397f"] ;
548 -> 549 ;
550 [label=<entropy = 1.0<br/>samples = 2<br/>value = [1, 1]<br/>class = poisonous>, fillcolor="#e5813900"] ;
549 -> 550 ;
551 [label=<entropy = 0.811<br/>samples = 4<br/>value = [3, 1]<br/>class = poisonous>, fillcolor="#e58139aa"] ;
549 -> 551 ;
552 [label=<entropy = 0.0<br/>samples = 4<br/>value = [4, 0]<br/>class = poisonous>, fillcolor="#e58139ff"] ;
548 -> 552 ;
553 [label=<sporeprintcolor &le; 11.5<br/>entropy = 0.592<br/>samples = 98<br/>value = [84, 14]<br/>class = poisonous>, fillcolor="#e58139d4"] ;
505 -> 553 ;
554 [label=<gillcolor &le; 21.0<br/>entropy = 0.402<br/>samples = 50<br/>value = [46, 4]<br/>class = poisonous>, fillcolor="#e58139e9"] ;
553 -> 554 ;
555 [label=<population &le; 22.5<br/>entropy = 0.461<br/>samples = 41<br/>value = [37, 4]<br/>class = poisonous>, fillcolor="#e58139e3"] ;
554 -> 555 ;
556 [label=<stalksurfacebelowring &le; 11.5<br/>entropy = 0.629<br/>samples = 19<br/>value = [16, 3]<br/>class = poisonous>, fillcolor="#e58139cf"] ;
555 -> 556 ;
557 [label=<entropy = 0.0<br/>samples = 3<br/>value = [3, 0]<br/>class = poisonous>, fillcolor="#e58139ff"] ;
556 -> 557 ;
558 [label=<gillcolor &le; 11.5<br/>entropy = 0.696<br/>samples = 16<br/>value = [13, 3]<br/>class = poisonous>, fillcolor="#e58139c4"] ;
556 -> 558 ;
559 [label=<entropy = 1.0<br/>samples = 2<br/>value = [1, 1]<br/>class = poisonous>, fillcolor="#e5813900"] ;
558 -> 559 ;
560 [label=<capshape &le; 14.0<br/>entropy = 0.592<br/>samples = 14<br/>value = [12, 2]<br/>class = poisonous>, fillcolor="#e58139d4"] ;
558 -> 560 ;
561 [label=<stalkcolorbelowring &le; 18.5<br/>entropy = 0.918<br/>samples = 6<br/>value = [4, 2]<br/>class = poisonous>, fillcolor="#e581397f"] ;
560 -> 561 ;
562 [label=<entropy = 1.0<br/>samples = 4<br/>value = [2, 2]<br/>class = poisonous>, fillcolor="#e5813900"] ;
561 -> 562 ;
563 [label=<entropy = 0.0<br/>samples = 2<br/>value = [2, 0]<br/>class = poisonous>, fillcolor="#e58139ff"] ;
561 -> 563 ;
564 [label=<entropy = 0.0<br/>samples = 8<br/>value = [8, 0]<br/>class = poisonous>, fillcolor="#e58139ff"] ;
560 -> 564 ;
565 [label=<stalkcolorbelowring &le; 10.5<br/>entropy = 0.267<br/>samples = 22<br/>value = [21, 1]<br/>class = poisonous>, fillcolor="#e58139f3"] ;
555 -> 565 ;
566 [label=<capcolor &le; 5.0<br/>entropy = 0.592<br/>samples = 7<br/>value = [6, 1]<br/>class = poisonous>, fillcolor="#e58139d4"] ;
565 -> 566 ;
567 [label=<entropy = 0.0<br/>samples = 4<br/>value = [4, 0]<br/>class = poisonous>, fillcolor="#e58139ff"] ;
566 -> 567 ;
568 [label=<entropy = 0.918<br/>samples = 3<br/>value = [2, 1]<br/>class = poisonous>, fillcolor="#e581397f"] ;
566 -> 568 ;
569 [label=<entropy = 0.0<br/>samples = 15<br/>value = [15, 0]<br/>class = poisonous>, fillcolor="#e58139ff"] ;
565 -> 569 ;
570 [label=<entropy = 0.0<br/>samples = 9<br/>value = [9, 0]<br/>class = poisonous>, fillcolor="#e58139ff"] ;
554 -> 570 ;
571 [label=<gillcolor &le; 21.0<br/>entropy = 0.738<br/>samples = 48<br/>value = [38, 10]<br/>class = poisonous>, fillcolor="#e58139bc"] ;
553 -> 571 ;
572 [label=<stalkcolorbelowring &le; 10.5<br/>entropy = 0.619<br/>samples = 39<br/>value = [33, 6]<br/>class = poisonous>, fillcolor="#e58139d1"] ;
571 -> 572 ;
573 [label=<gillcolor &le; 14.0<br/>entropy = 0.414<br/>samples = 12<br/>value = [11, 1]<br/>class = poisonous>, fillcolor="#e58139e8"] ;
572 -> 573 ;
574 [label=<entropy = 0.918<br/>samples = 3<br/>value = [2, 1]<br/>class = poisonous>, fillcolor="#e581397f"] ;
573 -> 574 ;
575 [label=<entropy = 0.0<br/>samples = 9<br/>value = [9, 0]<br/>class = poisonous>, fillcolor="#e58139ff"] ;
573 -> 575 ;
576 [label=<stalksurfacebelowring &le; 11.5<br/>entropy = 0.691<br/>samples = 27<br/>value = [22, 5]<br/>class = poisonous>, fillcolor="#e58139c5"] ;
572 -> 576 ;
577 [label=<entropy = 0.0<br/>samples = 2<br/>value = [2, 0]<br/>class = poisonous>, fillcolor="#e58139ff"] ;
576 -> 577 ;
578 [label=<gillcolor &le; 11.5<br/>entropy = 0.722<br/>samples = 25<br/>value = [20, 5]<br/>class = poisonous>, fillcolor="#e58139bf"] ;
576 -> 578 ;
579 [label=<entropy = 0.0<br/>samples = 2<br/>value = [2, 0]<br/>class = poisonous>, fillcolor="#e58139ff"] ;
578 -> 579 ;
580 [label=<capshape &le; 14.0<br/>entropy = 0.755<br/>samples = 23<br/>value = [18, 5]<br/>class = poisonous>, fillcolor="#e58139b8"] ;
578 -> 580 ;
581 [label=<capcolor &le; 5.0<br/>entropy = 0.65<br/>samples = 12<br/>value = [10, 2]<br/>class = poisonous>, fillcolor="#e58139cc"] ;
580 -> 581 ;
582 [label=<entropy = 0.0<br/>samples = 5<br/>value = [5, 0]<br/>class = poisonous>, fillcolor="#e58139ff"] ;
581 -> 582 ;
583 [label=<gillcolor &le; 14.0<br/>entropy = 0.863<br/>samples = 7<br/>value = [5, 2]<br/>class = poisonous>, fillcolor="#e5813999"] ;
581 -> 583 ;
584 [label=<entropy = 0.0<br/>samples = 3<br/>value = [3, 0]<br/>class = poisonous>, fillcolor="#e58139ff"] ;
583 -> 584 ;
585 [label=<entropy = 1.0<br/>samples = 4<br/>value = [2, 2]<br/>class = poisonous>, fillcolor="#e5813900"] ;
583 -> 585 ;
586 [label=<gillcolor &le; 17.5<br/>entropy = 0.845<br/>samples = 11<br/>value = [8, 3]<br/>class = poisonous>, fillcolor="#e581399f"] ;
580 -> 586 ;
587 [label=<capcolor &le; 5.0<br/>entropy = 0.918<br/>samples = 9<br/>value = [6, 3]<br/>class = poisonous>, fillcolor="#e581397f"] ;
586 -> 587 ;
588 [label=<entropy = 1.0<br/>samples = 4<br/>value = [2, 2]<br/>class = poisonous>, fillcolor="#e5813900"] ;
587 -> 588 ;
589 [label=<gillcolor &le; 14.0<br/>entropy = 0.722<br/>samples = 5<br/>value = [4, 1]<br/>class = poisonous>, fillcolor="#e58139bf"] ;
587 -> 589 ;
590 [label=<entropy = 1.0<br/>samples = 2<br/>value = [1, 1]<br/>class = poisonous>, fillcolor="#e5813900"] ;
589 -> 590 ;
591 [label=<entropy = 0.0<br/>samples = 3<br/>value = [3, 0]<br/>class = poisonous>, fillcolor="#e58139ff"] ;
589 -> 591 ;
592 [label=<entropy = 0.0<br/>samples = 2<br/>value = [2, 0]<br/>class = poisonous>, fillcolor="#e58139ff"] ;
586 -> 592 ;
593 [label=<population &le; 22.5<br/>entropy = 0.991<br/>samples = 9<br/>value = [5, 4]<br/>class = poisonous>, fillcolor="#e5813933"] ;
571 -> 593 ;
594 [label=<capshape &le; 14.0<br/>entropy = 0.722<br/>samples = 5<br/>value = [4, 1]<br/>class = poisonous>, fillcolor="#e58139bf"] ;
593 -> 594 ;
595 [label=<entropy = 0.0<br/>samples = 3<br/>value = [3, 0]<br/>class = poisonous>, fillcolor="#e58139ff"] ;
594 -> 595 ;
596 [label=<entropy = 1.0<br/>samples = 2<br/>value = [1, 1]<br/>class = poisonous>, fillcolor="#e5813900"] ;
594 -> 596 ;
597 [label=<entropy = 0.811<br/>samples = 4<br/>value = [1, 3]<br/>class = non-poisonous>, fillcolor="#399de5aa"] ;
593 -> 597 ;
598 [label=<capshape &le; 14.0<br/>entropy = 0.333<br/>samples = 163<br/>value = [153, 10]<br/>class = poisonous>, fillcolor="#e58139ee"] ;
502 -> 598 ;
599 [label=<stalksurfacebelowring &le; 11.5<br/>entropy = 0.461<br/>samples = 82<br/>value = [74, 8]<br/>class = poisonous>, fillcolor="#e58139e3"] ;
598 -> 599 ;
600 [label=<capcolor &le; 17.5<br/>entropy = 0.779<br/>samples = 13<br/>value = [10, 3]<br/>class = poisonous>, fillcolor="#e58139b3"] ;
599 -> 600 ;
601 [label=<entropy = 0.0<br/>samples = 7<br/>value = [7, 0]<br/>class = poisonous>, fillcolor="#e58139ff"] ;
600 -> 601 ;
602 [label=<sporeprintcolor &le; 11.5<br/>entropy = 1.0<br/>samples = 6<br/>value = [3, 3]<br/>class = poisonous>, fillcolor="#e5813900"] ;
600 -> 602 ;
603 [label=<gillcolor &le; 8.5<br/>entropy = 0.971<br/>samples = 5<br/>value = [2, 3]<br/>class = non-poisonous>, fillcolor="#399de555"] ;
602 -> 603 ;
604 [label=<entropy = 1.0<br/>samples = 2<br/>value = [1, 1]<br/>class = poisonous>, fillcolor="#e5813900"] ;
603 -> 604 ;
605 [label=<entropy = 0.918<br/>samples = 3<br/>value = [1, 2]<br/>class = non-poisonous>, fillcolor="#399de57f"] ;
603 -> 605 ;
606 [label=<entropy = 0.0<br/>samples = 1<br/>value = [1, 0]<br/>class = poisonous>, fillcolor="#e58139ff"] ;
602 -> 606 ;
607 [label=<gillcolor &le; 14.0<br/>entropy = 0.375<br/>samples = 69<br/>value = [64, 5]<br/>class = poisonous>, fillcolor="#e58139eb"] ;
599 -> 607 ;
608 [label=<entropy = 0.0<br/>samples = 23<br/>value = [23, 0]<br/>class = poisonous>, fillcolor="#e58139ff"] ;
607 -> 608 ;
609 [label=<stalkcolorbelowring &le; 10.5<br/>entropy = 0.496<br/>samples = 46<br/>value = [41, 5]<br/>class = poisonous>, fillcolor="#e58139e0"] ;
607 -> 609 ;
610 [label=<population &le; 22.5<br/>entropy = 0.75<br/>samples = 14<br/>value = [11, 3]<br/>class = poisonous>, fillcolor="#e58139b9"] ;
609 -> 610 ;
611 [label=<entropy = 0.0<br/>samples = 7<br/>value = [7, 0]<br/>class = poisonous>, fillcolor="#e58139ff"] ;
610 -> 611 ;
612 [label=<sporeprintcolor &le; 11.5<br/>entropy = 0.985<br/>samples = 7<br/>value = [4, 3]<br/>class = poisonous>, fillcolor="#e5813940"] ;
610 -> 612 ;
613 [label=<entropy = 0.0<br/>samples = 3<br/>value = [3, 0]<br/>class = poisonous>, fillcolor="#e58139ff"] ;
612 -> 613 ;
614 [label=<entropy = 0.811<br/>samples = 4<br/>value = [1, 3]<br/>class = non-poisonous>, fillcolor="#399de5aa"] ;
612 -> 614 ;
615 [label=<population &le; 22.5<br/>entropy = 0.337<br/>samples = 32<br/>value = [30, 2]<br/>class = poisonous>, fillcolor="#e58139ee"] ;
609 -> 615 ;
616 [label=<stalkcolorbelowring &le; 18.5<br/>entropy = 0.503<br/>samples = 18<br/>value = [16, 2]<br/>class = poisonous>, fillcolor="#e58139df"] ;
615 -> 616 ;
617 [label=<entropy = 0.0<br/>samples = 6<br/>value = [6, 0]<br/>class = poisonous>, fillcolor="#e58139ff"] ;
616 -> 617 ;
618 [label=<ringtype &le; 9.5<br/>entropy = 0.65<br/>samples = 12<br/>value = [10, 2]<br/>class = poisonous>, fillcolor="#e58139cc"] ;
616 -> 618 ;
619 [label=<entropy = 0.0<br/>samples = 3<br/>value = [3, 0]<br/>class = poisonous>, fillcolor="#e58139ff"] ;
618 -> 619 ;
620 [label=<gillcolor &le; 21.0<br/>entropy = 0.764<br/>samples = 9<br/>value = [7, 2]<br/>class = poisonous>, fillcolor="#e58139b6"] ;
618 -> 620 ;
621 [label=<stalkcolorabovering &le; 10.5<br/>entropy = 0.863<br/>samples = 7<br/>value = [5, 2]<br/>class = poisonous>, fillcolor="#e5813999"] ;
620 -> 621 ;
622 [label=<entropy = 1.0<br/>samples = 2<br/>value = [1, 1]<br/>class = poisonous>, fillcolor="#e5813900"] ;
621 -> 622 ;
623 [label=<stalkcolorabovering &le; 18.5<br/>entropy = 0.722<br/>samples = 5<br/>value = [4, 1]<br/>class = poisonous>, fillcolor="#e58139bf"] ;
621 -> 623 ;
624 [label=<entropy = 0.0<br/>samples = 2<br/>value = [2, 0]<br/>class = poisonous>, fillcolor="#e58139ff"] ;
623 -> 624 ;
625 [label=<entropy = 0.918<br/>samples = 3<br/>value = [2, 1]<br/>class = poisonous>, fillcolor="#e581397f"] ;
623 -> 625 ;
626 [label=<entropy = 0.0<br/>samples = 2<br/>value = [2, 0]<br/>class = poisonous>, fillcolor="#e58139ff"] ;
620 -> 626 ;
627 [label=<entropy = 0.0<br/>samples = 14<br/>value = [14, 0]<br/>class = poisonous>, fillcolor="#e58139ff"] ;
615 -> 627 ;
628 [label=<gillcolor &le; 14.0<br/>entropy = 0.167<br/>samples = 81<br/>value = [79, 2]<br/>class = poisonous>, fillcolor="#e58139f9"] ;
598 -> 628 ;
629 [label=<stalkcolorabovering &le; 18.5<br/>entropy = 0.381<br/>samples = 27<br/>value = [25, 2]<br/>class = poisonous>, fillcolor="#e58139eb"] ;
628 -> 629 ;
630 [label=<sporeprintcolor &le; 11.5<br/>entropy = 0.684<br/>samples = 11<br/>value = [9, 2]<br/>class = poisonous>, fillcolor="#e58139c6"] ;
629 -> 630 ;
631 [label=<entropy = 0.0<br/>samples = 6<br/>value = [6, 0]<br/>class = poisonous>, fillcolor="#e58139ff"] ;
630 -> 631 ;
632 [label=<stalkcolorbelowring &le; 10.5<br/>entropy = 0.971<br/>samples = 5<br/>value = [3, 2]<br/>class = poisonous>, fillcolor="#e5813955"] ;
630 -> 632 ;
633 [label=<entropy = 0.0<br/>samples = 1<br/>value = [0, 1]<br/>class = non-poisonous>, fillcolor="#399de5ff"] ;
632 -> 633 ;
634 [label=<entropy = 0.811<br/>samples = 4<br/>value = [3, 1]<br/>class = poisonous>, fillcolor="#e58139aa"] ;
632 -> 634 ;
635 [label=<entropy = 0.0<br/>samples = 16<br/>value = [16, 0]<br/>class = poisonous>, fillcolor="#e58139ff"] ;
629 -> 635 ;
636 [label=<entropy = 0.0<br/>samples = 54<br/>value = [54, 0]<br/>class = poisonous>, fillcolor="#e58139ff"] ;
628 -> 636 ;
637 [label=<population &le; 21.0<br/>entropy = 0.746<br/>samples = 33<br/>value = [26, 7]<br/>class = poisonous>, fillcolor="#e58139ba"] ;
215 -> 637 ;
638 [label=<gillcolor &le; 18.5<br/>entropy = 0.391<br/>samples = 13<br/>value = [12, 1]<br/>class = poisonous>, fillcolor="#e58139ea"] ;
637 -> 638 ;
639 [label=<entropy = 0.0<br/>samples = 9<br/>value = [9, 0]<br/>class = poisonous>, fillcolor="#e58139ff"] ;
638 -> 639 ;
640 [label=<entropy = 0.811<br/>samples = 4<br/>value = [3, 1]<br/>class = poisonous>, fillcolor="#e58139aa"] ;
638 -> 640 ;
641 [label=<capcolor &le; 18.5<br/>entropy = 0.881<br/>samples = 20<br/>value = [14, 6]<br/>class = poisonous>, fillcolor="#e5813992"] ;
637 -> 641 ;
642 [label=<odor &le; 5.5<br/>entropy = 1.0<br/>samples = 10<br/>value = [5, 5]<br/>class = poisonous>, fillcolor="#e5813900"] ;
641 -> 642 ;
643 [label=<gillcolor &le; 14.0<br/>entropy = 0.971<br/>samples = 5<br/>value = [3, 2]<br/>class = poisonous>, fillcolor="#e5813955"] ;
642 -> 643 ;
644 [label=<entropy = 0.0<br/>samples = 1<br/>value = [1, 0]<br/>class = poisonous>, fillcolor="#e58139ff"] ;
643 -> 644 ;
645 [label=<entropy = 1.0<br/>samples = 4<br/>value = [2, 2]<br/>class = poisonous>, fillcolor="#e5813900"] ;
643 -> 645 ;
646 [label=<gillcolor &le; 17.5<br/>entropy = 0.971<br/>samples = 5<br/>value = [2, 3]<br/>class = non-poisonous>, fillcolor="#399de555"] ;
642 -> 646 ;
647 [label=<entropy = 0.0<br/>samples = 1<br/>value = [0, 1]<br/>class = non-poisonous>, fillcolor="#399de5ff"] ;
646 -> 647 ;
648 [label=<entropy = 1.0<br/>samples = 4<br/>value = [2, 2]<br/>class = poisonous>, fillcolor="#e5813900"] ;
646 -> 648 ;
649 [label=<capshape &le; 14.0<br/>entropy = 0.469<br/>samples = 10<br/>value = [9, 1]<br/>class = poisonous>, fillcolor="#e58139e3"] ;
641 -> 649 ;
650 [label=<entropy = 0.918<br/>samples = 3<br/>value = [2, 1]<br/>class = poisonous>, fillcolor="#e581397f"] ;
649 -> 650 ;
651 [label=<entropy = 0.0<br/>samples = 7<br/>value = [7, 0]<br/>class = poisonous>, fillcolor="#e58139ff"] ;
649 -> 651 ;
652 [label=<gillcolor &le; 14.0<br/>entropy = 0.176<br/>samples = 38<br/>value = [37, 1]<br/>class = poisonous>, fillcolor="#e58139f8"] ;
214 -> 652 ;
653 [label=<sporeprintcolor &le; 11.5<br/>entropy = 0.439<br/>samples = 11<br/>value = [10, 1]<br/>class = poisonous>, fillcolor="#e58139e6"] ;
652 -> 653 ;
654 [label=<capcolor &le; 18.5<br/>entropy = 0.722<br/>samples = 5<br/>value = [4, 1]<br/>class = poisonous>, fillcolor="#e58139bf"] ;
653 -> 654 ;
655 [label=<entropy = 0.918<br/>samples = 3<br/>value = [2, 1]<br/>class = poisonous>, fillcolor="#e581397f"] ;
654 -> 655 ;
656 [label=<entropy = 0.0<br/>samples = 2<br/>value = [2, 0]<br/>class = poisonous>, fillcolor="#e58139ff"] ;
654 -> 656 ;
657 [label=<entropy = 0.0<br/>samples = 6<br/>value = [6, 0]<br/>class = poisonous>, fillcolor="#e58139ff"] ;
653 -> 657 ;
658 [label=<entropy = 0.0<br/>samples = 27<br/>value = [27, 0]<br/>class = poisonous>, fillcolor="#e58139ff"] ;
652 -> 658 ;
659 [label=<habitat &le; 13.5<br/>entropy = 0.918<br/>samples = 51<br/>value = [17, 34]<br/>class = non-poisonous>, fillcolor="#399de57f"] ;
213 -> 659 ;
660 [label=<capshape &le; 16.5<br/>entropy = 0.689<br/>samples = 38<br/>value = [7, 31]<br/>class = non-poisonous>, fillcolor="#399de5c5"] ;
659 -> 660 ;
661 [label=<gillattachment &le; 2.5<br/>entropy = 0.746<br/>samples = 33<br/>value = [7, 26]<br/>class = non-poisonous>, fillcolor="#399de5ba"] ;
660 -> 661 ;
662 [label=<gillcolor &le; 23.0<br/>entropy = 0.971<br/>samples = 5<br/>value = [2, 3]<br/>class = non-poisonous>, fillcolor="#399de555"] ;
661 -> 662 ;
663 [label=<entropy = 0.918<br/>samples = 3<br/>value = [1, 2]<br/>class = non-poisonous>, fillcolor="#399de57f"] ;
662 -> 663 ;
664 [label=<entropy = 1.0<br/>samples = 2<br/>value = [1, 1]<br/>class = poisonous>, fillcolor="#e5813900"] ;
662 -> 664 ;
665 [label=<stalkcolorabovering &le; 12.0<br/>entropy = 0.677<br/>samples = 28<br/>value = [5, 23]<br/>class = non-poisonous>, fillcolor="#399de5c8"] ;
661 -> 665 ;
666 [label=<entropy = 0.0<br/>samples = 5<br/>value = [0, 5]<br/>class = non-poisonous>, fillcolor="#399de5ff"] ;
665 -> 666 ;
667 [label=<capcolor &le; 18.5<br/>entropy = 0.755<br/>samples = 23<br/>value = [5, 18]<br/>class = non-poisonous>, fillcolor="#399de5b8"] ;
665 -> 667 ;
668 [label=<capshape &le; 3.0<br/>entropy = 0.863<br/>samples = 14<br/>value = [4, 10]<br/>class = non-poisonous>, fillcolor="#399de599"] ;
667 -> 668 ;
669 [label=<gillcolor &le; 19.5<br/>entropy = 0.985<br/>samples = 7<br/>value = [3, 4]<br/>class = non-poisonous>, fillcolor="#399de540"] ;
668 -> 669 ;
670 [label=<capsurface &le; 21.0<br/>entropy = 0.722<br/>samples = 5<br/>value = [1, 4]<br/>class = non-poisonous>, fillcolor="#399de5bf"] ;
669 -> 670 ;
671 [label=<entropy = 1.0<br/>samples = 2<br/>value = [1, 1]<br/>class = poisonous>, fillcolor="#e5813900"] ;
670 -> 671 ;
672 [label=<entropy = 0.0<br/>samples = 3<br/>value = [0, 3]<br/>class = non-poisonous>, fillcolor="#399de5ff"] ;
670 -> 672 ;
673 [label=<entropy = 0.0<br/>samples = 2<br/>value = [2, 0]<br/>class = poisonous>, fillcolor="#e58139ff"] ;
669 -> 673 ;
674 [label=<gillcolor &le; 11.5<br/>entropy = 0.592<br/>samples = 7<br/>value = [1, 6]<br/>class = non-poisonous>, fillcolor="#399de5d4"] ;
668 -> 674 ;
675 [label=<entropy = 1.0<br/>samples = 2<br/>value = [1, 1]<br/>class = poisonous>, fillcolor="#e5813900"] ;
674 -> 675 ;
676 [label=<entropy = 0.0<br/>samples = 5<br/>value = [0, 5]<br/>class = non-poisonous>, fillcolor="#399de5ff"] ;
674 -> 676 ;
677 [label=<habitat &le; 9.0<br/>entropy = 0.503<br/>samples = 9<br/>value = [1, 8]<br/>class = non-poisonous>, fillcolor="#399de5df"] ;
667 -> 677 ;
678 [label=<entropy = 0.811<br/>samples = 4<br/>value = [1, 3]<br/>class = non-poisonous>, fillcolor="#399de5aa"] ;
677 -> 678 ;
679 [label=<entropy = 0.0<br/>samples = 5<br/>value = [0, 5]<br/>class = non-poisonous>, fillcolor="#399de5ff"] ;
677 -> 679 ;
680 [label=<entropy = 0.0<br/>samples = 5<br/>value = [0, 5]<br/>class = non-poisonous>, fillcolor="#399de5ff"] ;
660 -> 680 ;
681 [label=<capcolor &le; 14.0<br/>entropy = 0.779<br/>samples = 13<br/>value = [10, 3]<br/>class = poisonous>, fillcolor="#e58139b3"] ;
659 -> 681 ;
682 [label=<population &le; 22.5<br/>entropy = 0.469<br/>samples = 10<br/>value = [9, 1]<br/>class = poisonous>, fillcolor="#e58139e3"] ;
681 -> 682 ;
683 [label=<entropy = 0.918<br/>samples = 3<br/>value = [2, 1]<br/>class = poisonous>, fillcolor="#e581397f"] ;
682 -> 683 ;
684 [label=<entropy = 0.0<br/>samples = 7<br/>value = [7, 0]<br/>class = poisonous>, fillcolor="#e58139ff"] ;
682 -> 684 ;
685 [label=<entropy = 0.918<br/>samples = 3<br/>value = [1, 2]<br/>class = non-poisonous>, fillcolor="#399de57f"] ;
681 -> 685 ;
686 [label=<population &le; 19.5<br/>entropy = 0.934<br/>samples = 274<br/>value = [96, 178]<br/>class = non-poisonous>, fillcolor="#399de575"] ;
212 -> 686 ;
687 [label=<stalkroot &le; 3.0<br/>entropy = 0.399<br/>samples = 101<br/>value = [8, 93]<br/>class = non-poisonous>, fillcolor="#399de5e9"] ;
686 -> 687 ;
688 [label=<capcolor &le; 18.5<br/>entropy = 0.144<br/>samples = 49<br/>value = [1, 48]<br/>class = non-poisonous>, fillcolor="#399de5fa"] ;
687 -> 688 ;
689 [label=<sporeprintcolor &le; 11.5<br/>entropy = 0.25<br/>samples = 24<br/>value = [1, 23]<br/>class = non-poisonous>, fillcolor="#399de5f4"] ;
688 -> 689 ;
690 [label=<entropy = 0.0<br/>samples = 13<br/>value = [0, 13]<br/>class = non-poisonous>, fillcolor="#399de5ff"] ;
689 -> 690 ;
691 [label=<gillcolor &le; 14.0<br/>entropy = 0.439<br/>samples = 11<br/>value = [1, 10]<br/>class = non-poisonous>, fillcolor="#399de5e6"] ;
689 -> 691 ;
692 [label=<entropy = 0.0<br/>samples = 6<br/>value = [0, 6]<br/>class = non-poisonous>, fillcolor="#399de5ff"] ;
691 -> 692 ;
693 [label=<gillspacing &le; 12.0<br/>entropy = 0.722<br/>samples = 5<br/>value = [1, 4]<br/>class = non-poisonous>, fillcolor="#399de5bf"] ;
691 -> 693 ;
694 [label=<entropy = 0.0<br/>samples = 3<br/>value = [0, 3]<br/>class = non-poisonous>, fillcolor="#399de5ff"] ;
693 -> 694 ;
695 [label=<entropy = 1.0<br/>samples = 2<br/>value = [1, 1]<br/>class = poisonous>, fillcolor="#e5813900"] ;
693 -> 695 ;
696 [label=<entropy = 0.0<br/>samples = 25<br/>value = [0, 25]<br/>class = non-poisonous>, fillcolor="#399de5ff"] ;
688 -> 696 ;
697 [label=<gillcolor &le; 14.0<br/>entropy = 0.57<br/>samples = 52<br/>value = [7, 45]<br/>class = non-poisonous>, fillcolor="#399de5d7"] ;
687 -> 697 ;
698 [label=<capshape &le; 14.0<br/>entropy = 0.722<br/>samples = 25<br/>value = [5, 20]<br/>class = non-poisonous>, fillcolor="#399de5bf"] ;
697 -> 698 ;
699 [label=<capcolor &le; 17.5<br/>entropy = 0.863<br/>samples = 14<br/>value = [4, 10]<br/>class = non-poisonous>, fillcolor="#399de599"] ;
698 -> 699 ;
700 [label=<habitat &le; 13.0<br/>entropy = 0.544<br/>samples = 8<br/>value = [1, 7]<br/>class = non-poisonous>, fillcolor="#399de5db"] ;
699 -> 700 ;
701 [label=<entropy = 0.918<br/>samples = 3<br/>value = [1, 2]<br/>class = non-poisonous>, fillcolor="#399de57f"] ;
700 -> 701 ;
702 [label=<entropy = 0.0<br/>samples = 5<br/>value = [0, 5]<br/>class = non-poisonous>, fillcolor="#399de5ff"] ;
700 -> 702 ;
703 [label=<capsurface &le; 21.0<br/>entropy = 1.0<br/>samples = 6<br/>value = [3, 3]<br/>class = poisonous>, fillcolor="#e5813900"] ;
699 -> 703 ;
704 [label=<entropy = 0.811<br/>samples = 4<br/>value = [3, 1]<br/>class = poisonous>, fillcolor="#e58139aa"] ;
703 -> 704 ;
705 [label=<entropy = 0.0<br/>samples = 2<br/>value = [0, 2]<br/>class = non-poisonous>, fillcolor="#399de5ff"] ;
703 -> 705 ;
706 [label=<gillcolor &le; 11.5<br/>entropy = 0.439<br/>samples = 11<br/>value = [1, 10]<br/>class = non-poisonous>, fillcolor="#399de5e6"] ;
698 -> 706 ;
707 [label=<entropy = 0.0<br/>samples = 7<br/>value = [0, 7]<br/>class = non-poisonous>, fillcolor="#399de5ff"] ;
706 -> 707 ;
708 [label=<entropy = 0.811<br/>samples = 4<br/>value = [1, 3]<br/>class = non-poisonous>, fillcolor="#399de5aa"] ;
706 -> 708 ;
709 [label=<sporeprintcolor &le; 11.5<br/>entropy = 0.381<br/>samples = 27<br/>value = [2, 25]<br/>class = non-poisonous>, fillcolor="#399de5eb"] ;
697 -> 709 ;
710 [label=<gillcolor &le; 18.5<br/>entropy = 0.544<br/>samples = 16<br/>value = [2, 14]<br/>class = non-poisonous>, fillcolor="#399de5db"] ;
709 -> 710 ;
711 [label=<entropy = 0.0<br/>samples = 7<br/>value = [0, 7]<br/>class = non-poisonous>, fillcolor="#399de5ff"] ;
710 -> 711 ;
712 [label=<capshape &le; 14.0<br/>entropy = 0.764<br/>samples = 9<br/>value = [2, 7]<br/>class = non-poisonous>, fillcolor="#399de5b6"] ;
710 -> 712 ;
713 [label=<capcolor &le; 17.5<br/>entropy = 0.65<br/>samples = 6<br/>value = [1, 5]<br/>class = non-poisonous>, fillcolor="#399de5cc"] ;
712 -> 713 ;
714 [label=<entropy = 1.0<br/>samples = 2<br/>value = [1, 1]<br/>class = poisonous>, fillcolor="#e5813900"] ;
713 -> 714 ;
715 [label=<entropy = 0.0<br/>samples = 4<br/>value = [0, 4]<br/>class = non-poisonous>, fillcolor="#399de5ff"] ;
713 -> 715 ;
716 [label=<entropy = 0.918<br/>samples = 3<br/>value = [1, 2]<br/>class = non-poisonous>, fillcolor="#399de57f"] ;
